svm_type c_svc
kernel_type rbf
gamma 0.125
nr_class 2
total_sv 563
rho 1.92834
label 1 0
nr_sv 276 287
SV
0.7616707508587269 1:-0.0472822 2:-1 3:-1 4:-1 5:-1 6:-0.836391 7:-0.77654 8:-0.618792 9:-1 10:-0.965924 11:-0.775229 12:-0.827217 13:-0.776147 14:-1 15:-1 16:-0.819356 17:-1 18:-0.834862 19:-1 20:-0.944445 21:-0.653998 22:-0.846075 23:-0.87156 24:-0.138413 25:-0.596329 26:-1 27:-0.711665 28:-1 29:-0.779817 30:-0.137616 31:-1 32:-0.669725 33:-0.669725 34:-0.891894 35:-0.539246 36:-0.965635 37:-0.680045 38:0.480122 39:-0.51682 40:-0.874618 41:-0.770642 42:-0.819572 43:-0.633027 44:-0.638518 45:-0.688073 46:-0.574924 47:-0.827523 48:-0.444036 49:-0.444955 50:-1 51:-0.519346 52:-1 53:-0.435779 54:-1 55:-0.779817 56:-1 57:-0.792049 58:-0.449542 59:-0.59633 60:-0.850153 61:-0.409509 62:-0.192661 63:-0.838532 64:-0.812844 65:-0.681046 66:-0.899656 67:-1 68:-0.678899 69:-0.651375 70:-1 71:-0.743119 72:-1 73:-1 74:-1 75:-0.532944 76:-0.465269 77:-0.745158 78:-0.81211 79:-0.314985 80:-0.892606 81:-1 82:-0.294358 83:-1 84:-0.44954 85:-1 86:-0.812844 87:-0.720184 88:-1 89:-0.666055 90:-0.701668 91:-0.857798 92:-0.526272 93:-1 94:-0.796384 95:-0.895413 96:-1 97:-1 98:-1 99:-0.889909 100:-0.61162 
2 1:-0.860843 2:-0.963149 3:-0.788945 4:-0.642868 5:-0.823562 6:-0.731156 7:-0.755204 8:-0.547593 9:-0.417159 10:-0.987557 11:-0.384422 12:-0.71608 13:-0.570855 14:-0.886767 15:-0.975269 16:-0.538254 17:-0.98928 18:-0.788945 19:-0.785595 20:-0.857994 21:-0.810481 22:-0.100687 23:-0.941374 24:-0.779768 25:-0.606924 26:-0.658291 27:-0.921034 28:-1 29:-0.929648 30:-0.842546 31:-0.170332 32:-0.894472 33:-0.758794 34:-0.842097 35:-0.852782 36:-0.554523 37:-0.922111 38:-0.754327 39:-0.206029 40:-0.839754 41:-0.941373 42:-0.835288 43:-0.852596 44:-0.472007 45:-0.686767 46:-0.906868 47:-0.905528 48:-0.661642 49:-0.873325 50:-0.744605 51:-0.0346647 52:-0.668342 53:-0.450588 54:-0.91912 55:-0.919598 56:-0.293951 57:-0.544386 58:-0.966499 59:-0.926298 60:-0.753769 61:-0.865235 62:-0.447236 63:-0.705193 64:-0.829146 65:-0.708828 66:-0.725189 67:-0.944204 68:-0.882747 69:-0.872697 70:-0.626256 71:-0.484087 72:-0.672073 73:-0.649916 74:-0.910664 75:-0.530988 76:-0.82771 77:-0.860413 78:-0.348207 79:-0.812395 80:-0.823529 81:-0.484087 82:-0.441711 83:-0.679648 84:-0.664992 85:0.0723083 86:-0.589948 87:-0.744556 88:-0.174204 89:-0.542714 90:-0.937749 91:-0.740368 92:-0.783768 93:-0.259632 94:-0.90706 95:-0.78995 96:-0.542713 97:-0.390285 98:-0.99576 99:-0.9799 100:-0.905453 
0.5822943438954691 1:-0.786617 2:-0.849315 3:-1 4:-1 5:-0.458906 6:-0.633561 7:-1 8:-0.8577 9:-1 10:-0.961839 11:-0.496574 12:-1 13:-0.498631 14:-0.691324 15:-0.494359 16:-0.190817 17:-0.934246 18:-0.630136 19:-0.749511 20:-0.875571 21:-0.784736 22:-0.885084 23:-0.856164 24:-0.83919 25:-0.397261 26:-0.650685 27:-0.892368 28:-0.900587 29:-0.794521 30:-0.678081 31:-0.728596 32:-0.938356 33:-0.383562 34:-0.515747 35:-0.828006 36:-0.87172 37:-0.761129 38:-0.698629 39:-0.0981733 40:-0.812785 41:-0.965753 42:-0.730594 43:-0.616438 44:-0.190381 45:-0.883562 46:-0.93653 47:-0.613698 48:-0.861644 49:-0.689211 50:-1 51:-0.641155 52:-0.753425 53:-0.438358 54:-0.779517 55:-0.794521 56:-0.701337 57:-0.844749 58:-0.79452 59:-0.849315 60:-0.888128 61:-0.559154 62:-0.397261 63:-0.879452 64:-1 65:-0.880938 66:-0.625428 67:-0.543695 68:-1 69:-0.826484 70:-0.3887 71:0.917809 72:-0.85101 73:0.171232 74:-0.744292 75:0.0460753 76:-0.882583 77:-0.904871 78:-1 79:-0.744292 80:-0.759467 81:-0.616438 82:-0.297583 83:-0.869007 84:-0.452056 85:-0.80936 86:-0.860274 87:-0.686643 88:-0.534247 89:-0.750685 90:-0.618181 91:-0.893835 92:-0.469488 93:-0.910959 94:-0.923992 95:-0.921918 96:-0.376714 97:-0.910959 98:-1 99:-0.958904 100:-0.516742 
2 1:-0.933538 2:-0.8592 3:-0.9424 4:-1 5:-0.7472 6:-0.6576 7:-0.766171 8:-0.26869 9:-0.915965 10:-0.976229 11:-0.3728 12:-0.8192 13:-0.96096 14:-1 15:-0.1968 16:-0.747966 17:-0.8976 18:-0.9424 19:-0.824457 20:-0.8256 21:-0.899429 22:-0.946311 23:-0.8432 24:-0.939896 25:-0.483733 26:0.876799 27:-0.698286 28:-0.512319 29:-0.904 30:-1 31:-0.2392 32:-0.9712 33:-0.712 34:-0.886878 35:-0.799111 36:-0.940068 37:-0.5164 38:-0.812267 39:-0.4944 40:-0.825067 41:-0.952 42:-0.937067 43:-0.5392 44:-0.810872 45:0.632001 46:-0.881387 47:-0.57888 48:-0.61216 49:-0.8548 50:-0.695059 51:-0.748522 52:-0.8272 53:-0.5408 54:-0.845486 55:-0.9232 56:-0.860465 57:-0.492266 58:-0.904 59:-0.366399 60:-0.790933 61:-0.742545 62:-0.8592 63:-0.77472 64:-0.86944 65:-0.666247 66:-0.545 67:-0.964469 68:-0.944 69:-0.837867 70:-0.8572 71:-0.3728 72:-0.791176 73:-0.8176 74:-0.982933 75:-0.266909 76:-0.967086 77:-0.866667 78:-0.541248 79:-0.163733 80:-0.962541 81:-0.552 82:0.148594 83:-0.4492 84:-0.616 85:-0.287466 86:-0.60832 87:-0.8048 88:-0.5648 89:-0.7088 90:-0.271592 91:-0.7024 92:-0.504291 93:-0.9584 94:-0.822447 95:-0.96352 96:-0.466134 97:-0.9168 98:-0.846084 99:-0.9424 100:-0.909689 
1.876054052743808 1:-0.400887 2:-1 3:-1 4:-0.809295 5:-0.620192 6:-0.485576 7:-1 8:-1 9:-1 10:-0.982143 11:-0.764423 12:-0.63782 13:-0.413461 14:-1 15:-1 16:-0.432014 17:-0.969231 18:-0.307692 19:-0.648352 20:-0.825321 21:-0.456045 22:-0.67735 23:-0.596153 24:-0.909699 25:-0.717949 26:-0.754808 27:-0.546703 28:-1 29:-0.538463 30:-1 31:-0.809495 32:-0.307692 33:-0.134615 34:-0.773394 35:-1 36:-0.819915 37:-0.664663 38:-0.29487 39:-0.49359 40:-0.86859 41:-0.903846 42:-0.810898 43:-1 44:-0.621139 45:-0.673077 46:-1 47:0.0846169 48:-0.0288456 49:-0.272835 50:-0.633484 51:-1 52:-0.480769 53:-0.408653 54:-0.535714 55:-0.711539 56:-1 57:-0.346152 58:-0.903846 59:-1 60:-1 61:-0.535838 62:-0.153844 63:-1 64:-0.411537 65:-0.331422 66:-1 67:-0.893236 68:-1 69:-1 70:-1 71:-0.730769 72:-0.790842 73:-0.634616 74:-1 75:-0.755245 76:-0.901099 77:-0.732906 78:-0.803077 79:-0.820513 80:-0.549773 81:-1 82:-1 83:-0.816106 84:-0.807692 85:-1 86:-1 87:-0.560096 88:-0.182691 89:-0.65 90:-1 91:-0.850962 92:0.489513 93:-0.75 94:-0.893297 95:-0.890385 96:-0.854167 97:-0.75 98:-1 99:-1 100:-0.32158 
2 1:-0.925558 2:-0.960574 3:-0.67742 4:-0.875598 5:-0.952808 6:-0.296893 7:-0.738095 8:-0.478742 9:-0.882344 10:-0.966718 11:-0.473117 12:-0.729988 13:-0.65018 14:-1 15:-0.84124 16:-1 17:-0.98853 18:-0.67742 19:-0.672299 20:-0.848069 21:-0.797236 22:-0.639187 23:-0.824373 24:-0.899018 25:-0.421743 26:-0.268818 27:-0.831029 28:-0.895955 29:-0.935484 30:-1 31:-0.502912 32:-0.870968 33:-0.741936 34:-0.831061 35:-0.729988 36:-0.892595 37:-0.916667 38:-0.737157 39:-0.433691 40:-0.755078 41:-0.928315 42:-0.647551 43:-0.713262 44:-0.152653 45:-0.390682 46:-0.867145 47:-0.528316 48:-0.42079 49:-0.728943 50:-0.931689 51:-0.248872 52:-0.741936 53:-0.706093 54:-0.942311 55:-0.913979 56:-0.58323 57:-0.593787 58:-0.820789 59:-0.605735 60:-0.707288 61:-0.82698 62:-0.448028 63:-0.432259 64:-0.634409 65:-0.563868 66:-0.84319 67:-1 68:-1 69:-0.591399 70:-0.600134 71:-0.598566 72:-0.454239 73:-0.182795 74:-0.961768 75:0.368523 76:-0.926267 77:-0.800876 78:-0.0457339 79:-0.464755 80:-0.916087 81:0.204302 82:-0.172961 83:-0.588709 84:-0.35484 85:-0.102151 86:-0.415054 87:-0.672043 88:-0.573477 89:-0.804301 90:-0.783545 91:-0.777778 92:-0.352232 93:-0.90681 94:-0.880677 95:-0.836559 96:-0.619475 97:-0.534052 98:-0.990927 99:-0.956989 100:-0.747113 
2 1:-0.848538 2:-0.839562 3:-0.6062 4:-0.918642 5:-0.855971 6:-0.64236 7:-0.511527 8:-0.280324 9:-0.952122 10:-0.95937 11:-0.865998 12:-0.862656 13:-0.710848 14:-0.50702 15:-0.246286 16:-0.712814 17:-0.929991 18:-0.540565 19:-0.599949 20:-0.878559 21:-0.839562 22:-0.663528 23:-0.885141 24:-0.957195 25:-0.358251 26:-0.442116 27:-0.828103 28:-0.748612 29:-0.956244 30:-0.942875 31:-0.530424 32:-0.950775 33:-0.37648 34:-0.828135 35:-0.633749 36:-0.993171 37:-0.406562 38:-0.705866 39:-0.423885 40:-0.825585 41:-0.945305 42:-0.713157 43:-0.912489 44:-0.389402 45:-0.504103 46:-0.898633 47:-0.622974 48:-0.631723 49:-0.586371 50:-0.826264 51:-0.379137 52:-0.639017 53:-0.701003 54:-0.706559 55:-0.967183 56:-0.788005 57:-0.586751 58:-0.835916 59:-0.0774819 60:-0.761774 61:-0.735974 62:-0.558798 63:-0.454513 64:-0.628077 65:-0.556313 66:-0.900296 67:-0.757081 68:-0.712854 69:-0.86144 70:-0.877963 71:-0.387422 72:-0.722393 73:-0.307203 74:-0.990277 75:0.345818 76:-0.931241 77:-0.620175 78:-0.775971 79:-0.761774 80:-0.573168 81:-0.489517 82:0.402275 83:-0.581587 84:-0.781222 85:-0.695533 86:0.11577 87:-0.610756 88:-0.628077 89:-0.800912 90:-0.906837 91:-0.660894 92:-0.576366 93:-0.928897 94:-0.817915 95:-0.854512 96:-0.640535 97:-0.834093 98:-0.958462 99:-0.945305 100:-0.536918 
1.298152966569118 1:-0.893286 2:-0.872832 3:-0.676301 4:-0.898095 5:-0.847784 6:-0.816742 7:-0.65584 8:-0.386198 9:-0.839769 10:-0.971374 11:-0.653821 12:-0.927425 13:-0.858959 14:-0.334275 15:-0.241378 16:-0.645906 17:-0.90957 18:-0.676301 19:-0.459767 20:-0.953329 21:-0.878888 22:-0.655176 23:-0.94605 24:-0.987937 25:-0.284093 26:-0.344895 27:-0.878888 28:-0.785595 29:-0.969172 30:-0.899379 31:-0.287412 32:-0.930636 33:-0.722544 34:-0.727549 35:-0.645187 36:-0.93745 37:-0.492292 38:-0.698565 39:-0.661743 40:-0.754228 41:-0.967887 42:-0.671591 43:-0.815029 44:-0.443268 45:-0.541425 46:-0.928581 47:-0.734361 48:-0.662685 49:-0.475435 50:-0.559333 51:-0.360669 52:-0.329479 53:-0.789338 54:-0.731229 55:-0.992293 56:-0.645262 57:-0.213874 58:-0.922929 59:-0.152216 60:-0.937059 61:-0.50394 62:-0.604367 63:-0.434811 64:-0.895183 65:-0.866027 66:-0.620666 67:-0.600647 68:-0.775209 69:-0.723401 70:-0.0541904 71:-0.604367 72:-0.804409 73:-0.341042 74:-0.917791 75:0.0136055 76:-0.986788 77:-0.750232 78:-0.73693 79:-0.760222 80:-0.954891 81:-0.172768 82:0.350249 83:-0.754335 84:-0.845858 85:-0.392208 86:-0.344895 87:-0.921644 88:-0.737957 89:-0.789595 90:-0.815017 91:-0.741169 92:-0.635196 93:-0.849711 94:-0.757675 95:-0.868208 96:-0.337614 97:-0.883108 98:-0.892691 99:-0.976879 100:-0.709983 
2 1:-0.797515 2:-0.693593 3:-0.649025 4:-0.917131 5:-0.81662 6:-0.4039 7:-0.117988 8:-0.479158 9:-0.798838 10:-0.994827 11:-0.112815 12:-0.842618 13:-0.728133 14:-0.811699 15:-0.794363 16:-0.835458 17:-0.991086 18:-0.899721 19:-0.643454 20:-0.915661 21:-0.82491 22:-0.672857 23:-0.86351 24:-0.960761 25:-0.387185 26:-0.573816 27:-0.606049 28:-0.95957 29:-0.816157 30:-0.694522 31:-0.503309 32:-0.874652 33:-0.749304 34:-0.803061 35:-0.825131 36:-0.947831 37:-0.838092 38:-0.346333 39:-0.559889 40:-0.657382 41:-0.888579 42:-0.890436 43:-0.955432 44:-0.451231 45:-0.763231 46:-0.819314 47:-0.738162 48:-0.493595 49:-0.620822 50:-0.628379 51:-0.270315 52:-0.799443 53:-0.657382 54:-0.686166 55:-0.933148 56:-0.554642 57:-0.0529222 58:-0.805014 59:-0.387185 60:-0.636025 61:-0.417323 62:-0.0807775 63:-0.754875 64:-0.545402 65:-0.854738 66:-0.756267 67:-0.876285 68:-0.805014 69:-0.682452 70:-0.564937 71:0.0139244 72:-0.272898 73:-0.206127 74:-0.940576 75:-0.0782498 76:-0.971349 77:-0.883937 78:-0.486574 79:-0.480036 80:-0.902179 81:-0.142064 82:-0.50009 83:-0.893454 84:-0.554316 85:-0.224696 86:-0.829527 87:-0.660166 88:-0.573817 89:-0.594428 90:-1 91:-0.481894 92:0.0787558 93:-0.927577 94:-0.783622 95:-1 96:-0.662023 97:-0.710305 98:-0.971794 99:-0.949861 100:-0.724853 
0.6459770154754297 1:-0.477033 2:-1 3:-0.935252 4:-0.839478 5:-0.715827 6:-0.42266 7:-0.561921 8:-0.7758 9:-0.905537 10:-1 11:-0.471221 12:-0.932254 13:-0.429496 14:-0.918945 15:-0.840669 16:-0.858344 17:-0.976978 18:-0.61151 19:-0.802672 20:-0.91287 21:-0.773895 22:-0.577539 23:-0.77338 24:-0.898655 25:-0.366907 26:-0.357915 27:-0.378211 28:-0.973895 29:-0.805755 30:-0.943645 31:-0.358586 32:-1 33:-0.61151 34:-0.788066 35:-0.77418 36:-0.946104 37:-0.958183 38:-0.155874 39:-0.336932 40:-0.852518 41:-0.910072 42:-0.858513 43:-0.971223 44:0.0629913 45:-0.877698 46:-0.666668 47:-0.458993 48:-0.927338 49:-0.67356 50:-0.794329 51:-0.528855 52:-0.870504 53:-0.483814 54:-0.884207 55:-0.870503 56:-0.477163 57:-0.510789 58:-0.928058 59:-0.683453 60:-0.764988 61:-0.594834 62:-0.366905 63:-0.873381 64:-0.633093 65:-0.874943 66:-0.724596 67:-0.760356 68:-0.93705 69:-0.817746 70:-0.678957 71:-0.294966 72:-0.452277 73:-0.589927 74:-0.942446 75:0.739702 76:-0.901336 77:-0.85012 78:-0.557984 79:-0.798561 80:-0.66314 81:0.51079 82:-0.53888 83:-0.518436 84:-0.71223 85:-0.098917 86:-0.633093 87:-0.725719 88:-0.266188 89:-0.869065 90:-0.949869 91:-0.330936 92:0.207325 93:-0.953237 94:-0.960082 95:-0.958993 96:-0.672661 97:-0.532375 98:-1 99:-0.956835 100:-0.746203 
2 1:-0.796255 2:-0.986511 3:-0.624769 4:-0.841918 5:-0.773963 6:-0.584509 7:-0.462379 8:-0.566902 9:-0.806787 10:-0.986336 11:-0.248928 12:-0.792152 13:-0.715757 14:-0.861844 15:-0.873264 16:-0.541247 17:-0.996076 18:-0.514407 19:-0.641237 20:-0.851489 21:-0.907506 22:-0.259351 23:-0.939914 24:-0.925146 25:-0.658287 26:-0.468422 27:-0.653148 28:-0.946606 29:-0.911711 30:-0.731044 31:-0.46551 32:-0.900674 33:-0.558554 34:-0.797708 35:-0.815246 36:-0.931102 37:-0.871704 38:-0.748212 39:-0.38647 40:-0.798896 41:-0.969344 42:-0.807071 43:-0.98038 44:-0.275263 45:-0.478848 46:-0.954548 47:-0.677253 48:-0.603679 49:-0.629062 50:-0.345619 51:0.124275 52:-0.337831 53:-0.346415 54:-0.980263 55:-0.992643 56:-0.411831 57:-0.19395 58:-0.852851 59:-0.757204 60:-0.679542 61:-0.230478 62:-0.217657 63:-0.654691 64:-0.724831 65:-0.658948 66:-0.758583 67:-0.959154 68:-0.678112 69:-0.627223 70:-0.726395 71:-0.278972 72:-0.439852 73:-0.790313 74:-0.95422 75:-0.313302 76:-0.945345 77:-0.778595 78:-0.146143 79:-0.725322 80:-0.913875 81:-0.244633 82:0.037478 83:-0.343347 84:-0.754752 85:-0.249128 86:-0.399632 87:-0.700797 88:-0.395463 89:-0.575966 90:-0.988607 91:-0.619865 92:-0.271834 93:-0.808706 94:-0.850315 95:-0.804292 96:-0.628041 97:-0.728999 98:-0.993792 99:-0.963213 100:-0.688534 
0.6520049406434013 1:-0.751268 2:-0.648702 3:-0.568864 4:-0.980206 5:-0.632068 6:-0.857618 7:-0.805532 8:-0.751188 9:-0.973792 10:-0.977759 11:-0.902195 12:-0.624085 13:-0.80519 14:-0.910046 15:-0.41059 16:-0.606983 17:-0.833932 18:-0.784431 19:-0.708013 20:-0.782435 21:-0.849445 22:-0.799068 23:-0.832336 24:-0.868784 25:-0.648704 26:-1 27:-0.560877 28:-0.56544 29:-0.88024 30:-0.499666 31:-0.841816 32:-0.784432 33:-0.712575 34:-0.90592 35:-0.699269 36:-0.970094 37:-0.628742 38:-0.590152 39:-0.579508 40:-0.945442 41:-0.92016 42:-0.842981 43:-0.872256 44:-0.764063 45:-0.38922 46:-0.889022 47:-0.77485 48:-0.838723 49:-0.698104 50:-0.695667 51:-0.372562 52:-0.856287 53:-0.590818 54:-0.807243 55:-0.928144 56:-0.65186 57:-0.638057 58:-0.92016 59:-0.560878 60:-0.543578 61:-0.486118 62:-0.473055 63:-0.718962 64:-0.674252 65:-0.653034 66:-0.825349 67:-0.73405 68:-0.58084 69:-0.64604 70:-0.465571 71:-0.217563 72:-0.739492 73:-0.46906 74:-0.914837 75:-0.59354 76:-0.931566 77:-0.944555 78:-0.754731 79:-0.701929 80:-0.626158 81:-0.776447 82:-0.181211 83:-0.541918 84:-0.281436 85:-0.666666 86:-0.429938 87:-0.756487 88:-0.728543 89:-0.564074 90:-0.833097 91:-0.690619 92:-0.0723993 93:-0.948104 94:-0.822801 95:-0.817964 96:-0.636728 97:-0.844312 98:-0.797883 99:-0.976048 100:-0.605676 
0.6394409731676315 1:-0.830317 2:-0.964052 3:-0.647059 4:-0.724537 5:-0.569716 6:-0.766885 7:-0.522409 8:-0.86421 9:-0.763995 10:-0.975724 11:-0.679738 12:-0.938453 13:-0.760784 14:-0.852723 15:-0.758747 16:-0.742612 17:-0.947712 18:-0.941176 19:-0.760971 20:-0.841685 21:-0.630252 22:-0.232389 23:-0.885621 24:-0.800512 25:-0.472765 26:-0.666667 27:-0.794585 28:-0.857703 29:-0.960784 30:-1 31:-0.223041 32:-0.882353 33:-0.411764 34:-0.884475 35:-0.794844 36:-0.88983 37:-0.772059 38:-0.616557 39:-0.74183 40:-0.687364 41:-0.98366 42:-0.87146 43:-0.816994 44:-0.742473 45:-0.833333 46:-0.666885 47:-0.877124 48:-0.801961 49:-0.901144 50:-0.813149 51:-0.400754 52:-0.588236 53:-0.866013 54:-0.842204 55:-0.960784 56:-0.240006 57:-0.777778 58:-0.901961 59:-0.784314 60:-0.839869 61:-0.579323 62:-0.712418 63:-0.827451 64:-0.666666 65:-0.715964 66:-0.714052 67:-0.746 68:-0.656863 69:-0.793028 70:-0.635416 71:-0.72549 72:-0.786741 73:0.366012 74:-0.773421 75:-0.00178436 76:-0.831933 77:-0.909223 78:-0.464575 79:-0.511982 80:-0.732218 81:0.281044 82:-0.581074 83:-0.8125 84:-0.738562 85:-0.727124 86:-0.333332 87:-0.800654 88:-0.222222 89:-0.583661 90:-0.87855 91:-0.746732 92:-0.578134 93:-0.787582 94:-0.78241 95:-0.813725 96:-0.603486 97:-0.447713 98:-0.975181 99:-1 100:-0.815541 
0.1756921361909143 1:-0.624087 2:-0.601811 3:-0.511311 4:-0.955128 5:-0.52338 6:-0.838612 7:-1 8:-0.811983 9:-1 10:-0.94958 11:-0.77828 12:-0.829562 13:-0.889593 14:-1 15:-0.866383 16:-0.643617 17:-1 18:-0.511311 19:-0.00711131 20:-0.506788 21:-0.544926 22:-0.848165 23:-0.936651 24:-0.745033 25:-0.86727 26:-1 27:-0.00452571 28:-0.934324 29:-0.782806 30:-0.85822 31:-1 32:-0.918552 33:-0.348419 34:-0.786724 35:-0.886375 36:-0.966102 37:-0.894796 38:-0.20362 39:-0.761689 40:-0.87632 41:-0.954751 42:-1 43:-0.927602 44:-0.821712 45:-0.692308 46:0.174053 47:-0.149323 48:-0.817195 49:-0.726244 50:-0.827522 51:-1 52:-1 53:-0.62896 54:-1 55:-0.837104 56:-1 57:-1 58:-0.547512 59:-0.800905 60:-0.704374 61:-0.271906 62:-0.60181 63:-1 64:-1 65:-0.370753 66:-0.901018 67:-0.899516 68:-0.841629 69:-0.54148 70:-0.596154 71:0.0135716 72:-1 73:-0.140273 74:-1 75:-0.769642 76:-0.627667 77:-0.874309 78:-1 79:0.182504 80:-0.152515 81:-0.746606 82:-0.535959 83:-0.826923 84:-0.638009 85:-1 86:-0.630769 87:-0.861991 88:-0.692308 89:-0.505881 90:-1 91:-0.298643 92:-0.299052 93:-1 94:-0.899574 95:-0.896833 96:-1 97:-0.882353 98:-1 99:-0.891403 100:-0.744595 
1.398568424730241 1:-0.953675 2:-0.983643 3:-0.946468 4:-0.845167 5:-0.84337 6:-0.655267 7:-0.311842 8:-0.443918 9:-0.336157 10:-1 11:0.20223 12:-0.94399 13:-0.909294 14:-0.966493 15:-0.95609 16:-0.268022 17:-1 18:-0.197028 19:-0.700903 20:-0.936968 21:-0.943919 22:-0.251549 23:-0.947955 24:-0.979053 25:-0.803717 26:-0.241635 27:-0.929899 28:-1 29:-0.95539 30:-0.906815 31:0.119517 32:-0.919702 33:-0.785874 34:-0.842303 35:-0.77596 36:-0.938731 37:-1 38:-0.890954 39:0.644611 40:-0.654523 41:-0.962825 42:-0.824535 43:-0.952416 44:0.0546145 45:-0.57026 46:-0.958662 47:-0.860223 48:-0.759703 49:-0.527695 50:-0.0931119 51:0.0127704 52:-0.00966599 53:-0.786617 54:-0.9282 55:-0.973234 56:-0.394831 57:0.483027 58:-0.821561 59:-0.640148 60:-0.465675 61:-0.784657 62:-0.738289 63:-0.790632 64:-0.696654 65:-0.870759 66:-0.349442 67:-1 68:-0.791822 69:-0.886989 70:0.194425 71:0.040894 72:-0.417778 73:-0.830483 74:-0.833457 75:-0.583643 76:-0.994902 77:-0.772821 78:-0.330021 79:-0.777943 80:-0.947781 81:0.08253 82:-0.00877854 83:-0.34591 84:-0.821561 85:0.448576 86:-0.514647 87:-0.795911 88:-0.57026 89:-0.864684 90:-1 91:-0.792565 92:-0.539304 93:-0.516728 94:-0.851489 95:-0.779628 96:-0.819579 97:-0.845353 98:-1 99:-1 100:-0.790169 
2 1:-0.685994 2:-1 3:-0.533476 4:-0.957164 5:0.0237579 6:-0.691865 7:-0.263498 8:-0.551279 9:-0.943281 10:-1 11:-0.576674 12:-0.755939 13:-0.736502 14:-0.902664 15:-0.936222 16:-0.574728 17:-1 18:-0.844493 19:-0.605061 20:-0.973842 21:-0.782783 22:-0.63763 23:-0.909287 24:-0.513194 25:-0.683226 26:-0.669547 27:-1 28:-0.937303 29:-0.740821 30:-0.729302 31:-0.572086 32:-0.572354 33:-0.222462 34:-0.949099 35:-0.891529 36:-0.967639 37:-0.799136 38:-0.619869 39:-0.0899941 40:-0.527718 41:-0.740821 42:-0.745141 43:-0.965443 44:-0.744698 45:-0.63283 46:-0.919943 47:-0.431533 48:-0.825486 49:-1 50:-0.506033 51:-0.660532 52:-0.688985 53:-0.291578 54:-0.930474 55:-0.870411 56:-0.874429 57:-0.412525 58:-0.784018 59:-0.809935 60:-0.788337 61:-0.443943 62:-0.429803 63:-0.695896 64:-0.383153 65:-0.399293 66:-0.952754 67:-1 68:-0.773218 69:-0.398128 70:-0.903618 71:-0.637149 72:-0.718111 73:-0.75378 74:-1 75:-0.340269 76:-0.777847 77:-0.760019 78:0.238533 79:-0.677466 80:-0.696607 81:-0.87905 82:-0.778503 83:-0.256481 84:-0.48164 85:0.322536 86:-0.735637 87:-0.670628 88:-0.926566 89:-0.213823 90:-1 91:-0.799136 92:-0.442374 93:-0.438444 94:-1 95:-0.852268 96:-0.606911 97:-0.887689 98:-1 99:-1 100:-1 
1.336074690705516 1:-0.764521 2:-0.875284 3:-0.67347 4:-0.977513 5:-0.761149 6:-0.878685 7:-0.558147 8:-0.717335 9:-0.940452 10:-0.957888 11:-0.666667 12:-0.829176 13:-0.75102 14:-0.74452 15:-0.129517 16:-0.866053 17:-0.789569 18:-0.795919 19:-0.792679 20:-0.766566 21:-0.814707 22:-0.961955 23:-0.841269 24:-0.66992 25:-0.733938 26:-0.768707 27:-0.394233 28:-0.605052 29:-0.768708 30:-0.680272 31:-0.955074 32:-0.959184 33:-0.510206 34:-0.89312 35:-0.686822 36:-0.974519 37:-0.789116 38:-0.201813 39:-0.820862 40:-0.93802 41:-0.795918 42:-0.554043 43:-0.600907 44:-0.776635 45:-0.807256 46:-0.894936 47:-0.744218 48:-0.679365 49:-0.485544 50:-0.913566 51:-0.702998 52:-0.795919 53:-0.860544 54:-0.854011 55:-0.877551 56:-0.802247 57:-0.845805 58:-0.591836 59:-0.70068 60:-0.814815 61:-0.708102 62:-0.501132 63:-0.680726 64:-0.722449 65:-0.724079 66:-0.851191 67:-0.672688 68:-0.404762 69:-0.856387 70:-0.89881 71:-0.0476196 72:-0.704048 73:-0.827664 74:-0.987906 75:-0.76912 76:-0.84451 77:-0.716553 78:-0.95356 79:-0.449736 80:-0.840736 81:-0.809524 82:-0.360495 83:-0.696429 84:-0.002268 85:-0.431971 86:-0.814966 87:-0.619613 88:-0.807256 89:-0.876191 90:-0.936796 91:-0.543085 92:-0.648732 93:-0.970521 94:-0.773528 95:-1 96:-0.862434 97:-0.882086 98:-0.753164 99:-0.85034 100:-0.52003 
1.921039339478469 1:-0.307693 2:-0.895238 3:-0.657143 4:-1 5:-0.62381 6:-0.830159 7:-0.768027 8:-1 9:-1 10:-1 11:-0.766667 12:-0.461905 13:-1 14:-0.785397 15:-0.578152 16:-0.812475 17:-1 18:-0.828572 19:-0.651701 20:-0.826985 21:-0.640817 22:-1 23:-0.866667 24:-0.776398 25:-0.161905 26:-0.514286 27:-0.70068 28:-0.930884 29:-0.714287 30:-0.104763 31:-0.81131 32:-0.914286 33:-1 34:-1 35:-1 36:-1 37:-0.889286 38:-0.161905 39:0.00317317 40:-0.609524 41:-0.809524 42:-0.812699 43:0.447619 44:-1 45:-0.838095 46:-0.823493 47:-0.820953 48:-0.422858 49:-0.711905 50:-0.818487 51:-0.750518 52:-0.828572 53:-0.804762 54:-0.693424 55:-0.885715 56:-0.861573 57:-1 58:-0.809524 59:-1 60:-0.844445 61:-0.846753 62:-0.161905 63:0.676188 64:-1 65:-1 66:-0.895833 67:-0.894253 68:-0.333334 69:-0.75873 70:-0.7875 71:-0.733334 72:-0.585667 73:-1 74:-0.847619 75:-1 76:-0.836735 77:-0.867725 78:-0.804952 79:-0.466667 80:-1 81:-0.466667 82:-0.511652 83:-0.27143 84:-0.428572 85:-0.469841 86:-0.805714 87:-1 88:-0.67619 89:-0.826667 90:-0.115151 91:-0.852381 92:-1 93:-1 94:-1 95:-0.891429 96:-0.711111 97:-1 98:-1 99:-0.828572 100:-1 
2 1:-0.766637 2:-0.752808 3:-0.797753 4:-1 5:0.035579 6:-0.59925 7:-0.726324 8:-1 9:-1 10:-1 11:-1 12:-1 13:-0.588765 14:-1 15:-1 16:-1 17:-0.964045 18:-1 19:-1 20:-0.523722 21:-0.858748 22:-1 23:-0.921348 24:-0.94724 25:-0.340824 26:-0.713483 27:-0.293741 28:-0.918459 29:-0.730338 30:-0.82397 31:-1 32:-0.696629 33:-0.595504 34:-1 35:-0.717851 36:-0.747476 37:-0.738763 38:-0.176029 39:-1 40:-1 41:-0.775281 42:-1 43:-0.460674 44:-0.557284 45:-0.808989 46:-0.79176 47:0.05618 48:-1 49:-0.320225 50:-1 51:-1 52:-1 53:-0.769663 54:-1 55:-1 56:-1 57:-0.490634 58:-0.325842 59:-0.752809 60:-0.816479 61:-0.457611 62:-1 63:-1 64:0.375283 65:-1 66:-1 67:-0.875242 68:-0.803371 69:-0.0037468 70:-1 71:-0.685393 72:-1 73:-0.573032 74:-1 75:0.144024 76:-1 77:-0.843945 78:-1 79:-0.370787 80:0.972903 81:-1 82:-0.711929 83:-0.355339 84:0.123596 85:-0.687265 86:-0.770786 87:-0.485956 88:-0.808989 89:-0.182024 90:-0.843412 91:-0.303371 92:-0.419814 93:-0.561799 94:-1 95:-1 96:-1 97:-0.853933 98:-0.971556 99:-0.932584 100:-1 
2 1:-0.409965 2:-0.875 3:-0.795455 4:-1 5:-1 6:-0.392044 7:-0.723214 8:-0.763911 9:-1 10:-0.957792 11:-0.721591 12:-0.785985 13:-0.445454 14:-0.743939 15:-0.66444 16:-0.776248 17:-0.963636 18:-0.181818 19:0.0389614 20:-0.793561 21:-0.714286 22:-1 23:-0.920454 24:-0.679842 25:-0.833333 26:-0.710227 27:-1 28:-0.25779 29:-0.795454 30:-0.643941 31:-0.774858 32:-1 33:-0.795455 34:-0.866097 35:-0.857323 36:-0.787172 37:0.188921 38:-0.833333 39:-1 40:-0.534089 41:-0.943182 42:-1 43:-0.454546 44:-0.104509 45:-0.613637 46:-0.789395 47:-0.572729 48:-0.540911 49:-0.828125 50:-1 51:-1 52:-0.590911 53:-1 54:-1 55:-1 56:-1 57:-1 58:-0.772728 59:-0.75 60:-1 61:-0.634299 62:2.2e-06 63:-0.600001 64:-1 65:-0.802466 66:-1 67:-0.873824 68:-1 69:-1 70:-1 71:-0.681818 72:-0.0112504 73:-0.568183 74:-0.939394 75:-1 76:-0.805195 77:-1 78:-0.767273 79:-0.363634 80:-0.733958 81:0.272728 82:-1 83:-1 84:-0.545456 85:-1 86:-1 87:-0.65341 88:0.352272 89:-0.379544 90:-1 91:-1 92:0.466942 93:-0.852273 94:-1 95:-0.611363 96:-1 97:-0.261364 98:-1 99:-1 100:-0.358585 
1.278809306097626 1:-0.544535 2:-1 3:-0.684211 4:-0.956506 5:-0.653509 6:-0.687135 7:-0.786341 8:-0.453267 9:-1 10:-1 11:-0.570175 12:-1 13:-0.785965 14:-0.802339 15:-0.74097 16:-0.654559 17:-0.97193 18:-0.526316 19:-0.839599 20:-0.787524 21:-0.889724 22:-1 23:-0.877193 24:-0.505721 25:-0.22807 26:-0.776316 27:-0.310778 28:-1 29:-0.894737 30:-0.725146 31:-0.826206 32:-0.921053 33:-1 34:-0.896636 35:-0.889864 36:-1 37:-0.898026 38:-0.74269 39:-0.538012 40:-0.880117 41:-0.780702 42:-0.827486 43:-0.649123 44:-0.308743 45:-0.701754 46:-0.593569 47:-0.835088 48:-1 49:-0.601974 50:-0.665634 51:-0.770214 52:-1 53:-0.640351 54:-0.152882 55:-0.684211 56:-0.490003 57:-0.602339 58:-0.736842 59:-0.807018 60:-1 61:-0.576555 62:-0.228068 63:-0.382455 64:-1 65:-0.847518 66:-0.904057 67:-0.902601 68:-0.846492 69:-0.777778 70:-1 71:-0.263158 72:-0.809189 73:-1 74:-0.766082 75:-0.330143 76:-0.849624 77:-0.878168 78:-0.820351 79:0.146201 80:-0.69195 81:-1 82:-0.775103 83:-0.664474 84:0.228072 85:0.22076 86:-0.642105 87:-0.331141 88:-0.552631 89:-0.680702 90:-0.592504 91:0.0877192 92:-0.320574 93:-1 94:-1 95:-0.9 96:-0.866959 97:-0.885965 98:-1 99:-1 100:-0.876218 
0.651745594322462 1:-0.899504 2:-0.929032 3:-0.680645 4:-0.872043 5:-0.723924 6:-0.712366 7:-0.646429 8:-0.36332 9:-0.735274 10:-0.997005 11:-0.249192 12:-0.605106 13:-0.665483 14:-0.927312 15:-0.642789 16:-0.460108 17:-0.974194 18:-0.651613 19:-0.705069 20:-0.892563 21:-0.888479 22:-0.512904 23:-0.920968 24:-0.984853 25:-0.266666 26:-0.465321 27:-0.847926 28:-0.871244 29:-0.970968 30:-0.898925 31:-0.552622 32:-0.73871 33:-0.535485 34:-0.828949 35:-0.615232 36:-0.92146 37:-0.756249 38:-0.692472 39:-0.0655937 40:-0.757527 41:-0.943548 42:-0.777957 43:-0.883871 44:-0.523367 45:-0.561291 46:-0.865484 47:-0.787742 48:-0.641613 49:-0.707258 50:-0.538898 51:-0.323985 52:-0.419356 53:-0.537098 54:-0.662518 55:-0.951613 56:-0.531134 57:-0.524729 58:-0.887097 59:-0.787097 60:-0.762903 61:-0.662609 62:-0.609677 63:-0.716129 64:-0.901291 65:-0.663555 66:-0.68246 67:-0.767185 68:-0.915323 69:-0.734408 70:-0.244253 71:-0.277421 72:-0.368478 73:-0.417741 74:-0.896774 75:0.149558 76:-0.97788 77:-0.731183 78:-0.306322 79:-0.488171 80:-0.830076 81:-0.277421 82:-0.0489024 83:-0.598991 84:-0.645161 85:-0.191936 86:-0.539356 87:-0.680241 88:-0.643547 89:-0.735807 90:-0.940059 91:-0.8 92:-0.583578 93:-0.538711 94:-0.856812 95:-0.834516 96:-0.657528 97:-0.706452 98:-0.951003 99:-0.990323 100:-0.749641 
2 1:-0.854862 2:-0.953878 3:-0.748428 4:-0.799034 5:-0.650362 6:-0.426741 7:-0.659579 8:-0.622521 9:-0.697202 10:-0.984426 11:-0.554856 12:-0.763102 13:-0.590775 14:-0.874027 15:-0.938093 16:-0.394571 17:-1 18:-0.572328 19:-0.616651 20:-0.839196 21:-0.841869 22:-0.390325 23:-0.921733 24:-0.947498 25:-0.692522 26:-0.607967 27:-0.604673 28:-0.989857 29:-0.890985 30:-0.890519 31:-0.556953 32:-0.735848 33:-0.597484 34:-0.901187 35:-0.771877 36:-0.879591 37:-0.918763 38:-0.754018 39:0.251338 40:-0.866294 41:-0.930119 42:-0.807594 43:-1 44:-0.284109 45:-0.786163 46:-0.922292 47:-0.421941 48:-0.745912 49:-0.852027 50:-0.54717 51:-0.267769 52:-0.496857 53:-0.541579 54:-0.887525 55:-0.907757 56:-0.289 57:-0.112975 58:-0.944095 59:-0.569531 60:-0.703238 61:-0.437774 62:0.0761707 63:-0.877009 64:-0.657862 65:-0.684166 66:-0.755416 67:-0.922408 68:-0.804333 69:-0.734451 70:-0.469864 71:-0.0607964 72:-0.452769 73:-0.654787 74:-0.836012 75:-0.501937 76:-0.971249 77:-0.767063 78:-0.112675 79:-0.634754 80:-0.901837 81:-0.139062 82:-0.462509 83:-0.599056 84:-0.636618 85:-0.260891 86:-0.62935 87:-0.65898 88:-0.524809 89:-0.694759 90:-1 91:-0.826694 92:-0.314403 93:-0.309573 94:-0.891433 95:-0.713208 96:-0.745633 97:-0.727463 98:-0.996462 99:-0.949686 100:-0.723891 
2 1:-0.380024 2:-1 3:-0.597016 4:-1 5:-0.410447 6:-1 7:-0.0911518 8:-1 9:-1 10:-1 11:-0.817164 12:-0.578359 13:-0.726866 14:-0.831841 15:-0.669448 16:-1 17:-1 18:-0.731343 19:-0.181235 20:-0.819237 21:-0.906183 22:-1 23:-0.477612 24:-0.789747 25:-0.781094 26:-0.809702 27:-0.296374 28:-0.891684 29:-0.865672 30:-1 31:-1 32:-0.597014 33:-0.328359 34:-0.912063 35:-0.812604 36:-1 37:-0.652984 38:-0.452737 39:-0.41045 40:-1 41:-0.738806 42:-0.706468 43:-0.880597 44:-0.852979 45:-0.619404 46:-0.792539 47:-0.719403 48:-0.698508 49:-0.661381 50:-0.28885 51:-0.60902 52:-0.597016 53:0.0708951 54:-0.879886 55:-0.820896 56:-0.891531 57:-0.154229 58:-0.77612 59:-0.179104 60:-0.87811 61:-0.399594 62:-0.179104 63:-0.605971 64:-0.543285 65:-0.0919334 66:-0.918377 67:-0.834277 68:-0.216417 69:-0.527364 70:-0.833489 71:0.0447748 72:-0.675336 73:-0.574628 74:-0.960199 75:-1 76:-0.872068 77:-0.896352 78:-1 79:-0.0248752 80:-0.388498 81:-1 82:-0.80867 83:-0.57183 84:-0.253732 85:-0.376867 86:-0.847761 87:-1 88:-0.873134 89:-0.728358 90:-1 91:-0.421642 92:-0.036636 93:-1 94:-0.834372 95:-0.914925 96:-1 97:-1 98:-0.981108 99:-0.910448 100:-0.789386 
1.319495999104549 1:-0.804678 2:-0.724138 3:-0.830721 4:-0.95337 5:-0.628526 6:-0.776385 7:-0.770936 8:-0.544103 9:-0.835355 10:-0.924317 11:-0.539185 12:-0.940961 13:-0.847022 14:-0.4349 15:-0.490872 16:-0.691377 17:-0.949843 18:-0.210031 19:-0.885356 20:-0.943051 21:-0.842364 22:-0.78962 23:-0.934169 24:-0.749761 25:-0.402298 26:-0.600314 27:-0.950739 28:-0.772503 29:-0.962382 30:-0.950888 31:0.304272 32:-0.943574 33:-0.661442 34:-0.778367 35:-0.645768 36:-0.964773 37:-0.672022 38:-0.494252 39:-0.587252 40:-0.485893 41:-0.968652 42:-0.876698 43:-0.673981 44:-0.444178 45:-0.680251 46:-0.941902 47:-0.941066 48:-0.240125 49:-0.620689 50:-0.283052 51:0.149653 52:-0.435736 53:-0.871473 54:-0.949545 55:-0.962382 56:-0.635488 57:-0.289445 58:-0.937304 59:-0.586206 60:-0.846395 61:-0.798233 62:-0.793103 63:-0.448275 64:-0.808151 65:-0.891016 66:-0.45141 67:-0.825965 68:-0.835423 69:-0.84117 70:-0.440438 71:-0.210031 72:-0.863621 73:-0.642633 74:-0.832811 75:-0.601026 76:-0.84953 77:-0.869384 78:-0.486394 79:-0.765935 80:-0.963304 81:-0.297805 82:-0.357033 83:-0.820141 84:-0.937304 85:0.0470245 86:-0.232601 87:-0.952194 88:-0.626959 89:-0.48652 90:-0.94175 91:-0.805643 92:-0.514392 93:-0.796238 94:-0.75649 95:-0.821317 96:-0.667189 97:-0.918495 98:-0.920642 99:-0.830721 100:-0.911529 
2 1:-0.769231 2:-0.78 3:-0.68 4:-0.85676 5:-0.56111 6:-0.643334 7:-0.350478 8:-0.861494 9:-0.664444 10:-0.971111 11:-0.673333 12:-0.916296 13:-0.891556 14:-1 15:-0.901569 16:-0.518686 17:-0.964444 18:-0.560001 19:-0.674921 20:-0.825063 21:-0.84635 22:-0.664444 23:-0.937778 24:-0.30087 25:-0.934815 26:-0.546667 27:-0.790476 28:-0.967746 29:-0.853334 30:-0.686667 31:-0.38361 32:-0.98 33:-0.72 34:-0.685774 35:-0.860494 36:-0.95838 37:-0.948333 38:-0.51111 39:-0.882963 40:-0.878519 41:-0.844444 42:-0.606667 43:-0.946667 44:-0.430868 45:-0.848889 46:-0.794075 47:-0.791111 48:-0.820445 49:-0.630278 50:-0.322352 51:-0.417875 52:-0.520002 53:-0.544445 54:-0.821164 55:-0.92 56:-0.483203 57:0.259262 58:-0.8 59:-0.462223 60:-0.782222 61:-0.499393 62:-0.853333 63:-0.843556 64:-0.0480012 65:-0.961371 66:-0.756945 67:-0.925977 68:-0.766667 69:-0.690371 70:-0.107499 71:-0.751111 72:-0.226578 73:-0.746667 74:-0.608889 75:-0.60404 76:-0.939048 77:-0.783951 78:-0.863467 79:-0.709629 80:-0.843921 81:-0.377779 82:-0.658156 83:-0.66 84:-0.733333 85:-0.69074 86:-0.592 87:-0.864445 88:-0.848889 89:-0.474224 90:-0.979354 91:-0.793333 92:-0.254144 93:-0.826667 94:-0.654756 95:-0.645332 96:-0.595557 97:-0.913333 98:-1 99:-0.933333 100:-0.84321 
2 1:-0.894572 2:-0.92555 3:-0.543146 4:-0.865764 5:-0.888607 6:-0.788776 7:-0.546652 8:-0.648463 9:-0.644523 10:-0.996858 11:-0.502537 12:-0.458262 13:-0.855499 14:0.0675707 15:-0.975017 16:-0.167083 17:-0.57225 18:-0.269035 19:-0.876239 20:-0.928276 21:-0.92555 22:-0.403835 23:-0.91709 24:-1 25:-0.702199 26:-0.525381 27:-0.547982 28:-0.815808 29:-0.918782 30:-0.628879 31:-0.564192 32:-0.954315 33:-0.725889 34:-0.700925 35:-0.872532 36:-0.955634 37:-0.586929 38:-0.875916 39:0.0693751 40:-0.861252 41:-0.957699 42:-0.833615 43:-0.986464 44:-0.0999657 45:-0.856176 46:-0.968641 47:-0.904569 48:-0.931641 49:-0.539341 50:-0.548523 51:-0.335134 52:-0.695432 53:-0.791878 54:-0.918298 55:-0.90863 56:-0.335971 57:-0.578116 58:-0.847716 59:-0.92555 60:-0.778906 61:-0.673281 62:-0.441622 63:-0.91066 64:-0.654822 65:-0.235267 66:-0.685385 67:-0.962425 68:-0.64467 69:-0.871405 70:-0.509201 71:-0.241962 72:-0.00623426 73:-0.871405 74:-0.57586 75:-0.310874 76:-0.965192 77:-0.811995 78:-0.861388 79:-0.620981 80:-0.980193 81:-0.620982 82:-0.652951 83:-0.708757 84:-0.796954 85:-0.623237 86:-0.620305 87:-0.922589 88:-0.712352 89:-0.568868 90:-1 91:-0.711506 92:-0.563144 93:-0.846024 94:-0.755902 95:-0.594924 96:-0.615058 97:-0.758037 98:-0.970016 99:-0.715736 100:-0.737357 
1.847693553041791 1:-0.798845 2:-0.946731 3:-0.564166 4:-0.927966 5:-0.553671 6:-0.82728 7:-0.528191 8:-0.798781 9:-0.809244 10:-0.982013 11:-0.881356 12:-0.908797 13:-0.586439 14:-0.781759 15:-0.785501 16:-0.713945 17:-0.845036 18:-0.564166 19:-0.645797 20:-0.882701 21:-0.726046 22:-0.43126 23:-0.830509 24:-0.545215 25:-0.7159 26:-0.753026 27:-0.0868214 28:-0.824282 29:-0.825667 30:-1 31:-0.616223 32:-0.825666 33:-0.738499 34:-0.942937 35:-0.878396 36:-0.873024 37:-0.549636 38:-0.85795 39:-0.872478 40:-0.867635 41:-0.854722 42:-0.619048 43:-1 44:-0.427582 45:-0.835351 46:-0.865376 47:-0.544796 48:-0.902179 49:-0.926755 50:-0.538528 51:-0.619434 52:-0.477 53:-1 54:-1 55:-0.970944 56:-0.718453 57:-0.451171 58:-0.806295 59:-0.680387 60:-0.762712 61:-0.688312 62:-0.360776 63:-0.91477 64:-0.802421 65:-0.831642 66:-0.947034 67:-0.838691 68:-0.576273 69:-0.754641 70:-0.675847 71:-0.593221 72:-0.789322 73:-0.263921 74:-0.845037 75:-0.0138651 76:-0.833968 77:-0.59645 78:-0.603293 79:-1 80:-0.603189 81:-0.0508452 82:-0.751687 83:-0.907385 84:-0.418888 85:-0.326071 86:-0.802421 87:-0.704601 88:-0.341403 89:-0.735594 90:-0.82003 91:-0.324454 92:-0.624918 93:-0.874092 94:-0.838783 95:-0.889588 96:-0.485875 97:-0.748184 98:-0.963223 99:-0.912833 100:-0.726661 
2 1:-0.913099 2:-0.8159 3:-0.548118 4:-0.937762 5:-0.338912 6:-0.403069 7:-0.490434 8:-0.913072 9:-0.97253 10:-0.751345 11:-0.692468 12:-0.605995 13:-0.744769 14:-0.811437 15:-0.752892 16:-0.176144 17:-0.959833 18:-0.548118 19:-0.617452 20:-0.82264 21:-0.737 22:-0.9298 23:-0.736401 24:-0.783882 25:-0.938633 26:-0.679916 27:-0.671248 28:-0.878541 29:-0.874477 30:-0.868898 31:-0.834205 32:-0.774058 33:-0.849373 34:-0.556269 35:-0.0543932 36:-1 37:-0.805439 38:-0.631799 39:-0.889819 40:-0.828452 41:-0.832636 42:-0.341702 43:-1 44:-0.91757 45:-0.92887 46:-0.728591 47:-0.528034 48:-0.661925 49:-0.430438 50:-0.601278 51:-0.890395 52:-0.698745 53:-0.485356 54:-1 55:-0.924686 56:-0.878369 57:-0.90516 58:-0.62343 59:-0.723849 60:-0.726639 61:-0.394065 62:-0.539746 63:-1 64:-0.231797 65:-0.781803 66:-0.908473 67:-0.767709 68:-0.780335 69:-0.788006 70:-0.906642 71:-0.76569 72:-0.726957 73:-0.443513 74:-0.977685 75:-0.893496 76:-0.842199 77:-0.360761 78:-0.828619 79:-0.375174 80:-0.657149 81:-0.882845 82:-0.678181 83:-0.839958 84:-0.832636 85:-1 86:-0.57322 87:-0.425731 88:-0.217571 89:-0.847699 90:-0.980563 91:-0.805439 92:-0.351845 93:-1 94:-0.721412 95:-0.904603 96:-0.936541 97:-0.456067 98:-1 99:-0.824268 100:-0.704787 
0.9542434768666527 1:-0.667161 2:-0.858974 3:-0.538462 4:-0.936432 5:-0.577993 6:-0.657052 7:-0.531593 8:-0.866821 9:-0.831661 10:-0.904762 11:-1 12:-0.879273 13:-0.374359 14:-1 15:-0.810709 16:-0.747562 17:-0.979487 18:-0.538462 19:-0.648352 20:-0.53419 21:-0.516484 22:-0.7849 23:-0.775641 24:-0.819398 25:-0.905983 26:-1 27:-0.496339 28:-1 29:-0.923077 30:-0.899573 31:-0.618991 32:-0.653845 33:-0.769231 34:-0.848929 35:-0.919516 36:-0.903955 37:-0.925481 38:-0.623932 39:-0.831197 40:-1 41:-0.871795 42:-0.873932 43:-0.948718 44:-0.621139 45:-0.673077 46:-0.762394 47:0.205129 48:-0.611539 49:-0.80609 50:-0.877828 51:-0.496238 52:-0.769231 53:-0.47436 54:-0.793651 55:-0.923077 56:-1 57:-0.854701 58:-1 59:-0.576923 60:-0.685898 61:-0.587413 62:-0.717948 63:-0.548719 64:-0.869231 65:-0.777141 66:-0.929888 67:-0.857648 68:-0.326923 69:-0.594018 70:-0.856971 71:-0.820513 72:-0.721122 73:0.0961552 74:-1 75:-0.83683 76:-0.78022 77:-1 78:-0.606154 79:-0.521368 80:-0.0245086 81:-0.461539 82:-0.671304 83:-0.387021 84:0.153848 85:-0.821581 86:-0.738461 87:-1 88:-0.891026 89:-0.766667 90:-0.970221 91:-0.602564 92:-0.503497 93:-0.833333 94:-1 95:-0.926923 96:-0.805556 97:-0.833333 98:-1 99:-0.23077 100:-0.909544 
1.772845645702447 1:-0.873935 2:-0.933232 3:-0.726859 4:-0.84952 5:-0.760243 6:-0.648205 7:-0.630392 8:-0.779316 9:-0.910339 10:-0.983091 11:-0.479512 12:-0.857106 13:-0.722306 14:-0.692261 15:-0.663929 16:-0.73109 17:-0.975721 18:-0.836116 19:-0.667028 20:-0.889732 21:-0.723391 22:-0.592649 23:-0.936267 24:-0.82899 25:0.535659 26:-0.496965 27:-0.61847 28:-0.922913 29:-0.945372 30:-0.976227 31:-0.669291 32:-0.918058 33:-0.590288 34:-0.892715 35:-0.847581 36:-0.738535 37:-0.753034 38:-0.688415 39:-0.640364 40:-0.792615 41:-0.992413 42:-0.91047 43:-0.587253 44:-0.0433614 45:-0.484067 46:-0.887507 47:-0.85736 48:-0.23369 49:-0.83934 50:-0.797554 51:-0.602494 52:-0.863429 53:-0.626707 54:-0.584798 55:-0.963581 56:-0.316265 57:-0.793627 58:-0.863429 59:-0.866464 60:-0.876075 61:-0.82908 62:-0.632777 63:-0.172079 64:-0.504704 65:-0.788977 66:-0.88382 67:-0.814662 68:-0.867223 69:-0.750127 70:-0.729135 71:-0.70258 72:-0.735934 73:-0.48103 74:-0.991907 75:0.236032 76:-0.906351 77:-0.894621 78:-0.285219 79:-0.80172 80:-0.911184 81:0.444615 82:-0.727666 83:-0.854894 84:-0.635812 85:0.0558922 86:-0.257056 87:-0.606602 88:-0.148711 89:-0.751442 90:-0.661636 91:-0.764795 92:-0.569044 93:-0.704097 94:-0.915803 95:-0.913505 96:-0.746839 97:-0.723823 98:-0.980793 99:-0.918058 100:-0.871522 
2 1:-0.800296 2:-0.830769 3:-0.723077 4:-0.904648 5:0.114102 6:-0.862821 7:-0.0631849 8:-0.760279 9:-0.848495 10:-0.921429 11:-0.0576902 12:-0.420513 13:-0.765385 14:-0.913333 15:-0.772851 16:-0.39415 17:-0.975385 18:-0.653847 19:-0.0153838 20:-0.743805 21:-0.854945 22:-0.87094 23:-0.892308 24:-0.638796 25:-0.774359 26:-0.901923 27:-0.93956 28:-1 29:-0.953846 30:-0.517949 31:-0.923798 32:-1 33:-0.584614 34:-0.728072 35:-0.517093 36:-0.942373 37:-0.865865 38:-0.830769 39:0.0128217 40:-0.789743 41:-0.865385 42:-0.394873 43:-0.938462 44:-0.848456 45:-0.869231 46:-0.821796 47:-0.710769 48:-0.766923 49:-0.767308 50:-0.413575 51:-0.193981 52:-0.930769 53:-0.763462 54:-0.876191 55:-0.976923 56:-0.944097 57:-0.564102 58:-0.5 59:-0.576923 60:-0.371794 61:-0.814336 62:-0.576923 63:-0.864616 64:-0.136925 65:-0.732569 66:-0.831731 67:-0.786472 68:-0.461539 69:-0.464104 70:-0.828365 71:-0.353844 72:-0.498018 73:-0.488463 74:-0.897436 75:-0.706294 76:-0.907693 77:-0.679486 78:-0.842462 79:-0.784615 80:-0.774887 81:-1 82:-0.901391 83:-0.632212 84:-0.846154 85:-0.678846 86:-0.607692 87:-0.882692 88:-1 89:-0.440001 90:-0.839196 91:-0.821154 92:-0.801399 93:-0.75 94:-0.871957 95:-0.868462 96:-0.241667 97:-0.9 98:-0.94158 99:-0.723078 100:-0.891453 
1.774242038970693 1:-0.732586 2:-1 3:-1 4:-1 5:-0.547925 6:-1 7:-0.581851 8:-1 9:-1 10:-0.952177 11:-0.789699 12:-0.83834 13:-0.895279 14:-1 15:-0.873264 16:-1 17:-1 18:-0.536482 19:-0.372164 20:-1 21:-0.730227 22:-0.711969 23:-0.519312 24:-0.072962 25:-0.874106 26:-0.781116 27:-0.730227 28:-1 29:-0.948498 30:-1 31:-1 32:-0.845493 33:-1 34:-1 35:-0.892227 36:-1 37:-1 38:-0.118741 39:-0.547926 40:-0.765379 41:-0.914163 42:-0.831187 43:-0.313304 44:-0.661789 45:-0.562233 46:-0.602291 47:0.290988 48:0.213732 49:-0.870172 50:-0.67281 51:-0.55029 52:-0.845494 53:-0.824034 54:-0.585532 55:-0.845494 56:-0.875237 57:-0.41631 58:-1 59:-0.622317 60:-0.439198 61:-0.171283 62:-0.622317 63:-0.244636 64:-0.824892 65:-1 66:-0.812232 67:-0.714075 68:-1 69:-0.782547 70:-1 71:0.201715 72:-0.626567 73:-0.184551 74:-1 75:-0.34452 76:-0.823421 77:-1 78:-0.296823 79:-0.359083 80:-0.497602 81:-0.519314 82:-1 83:-0.507512 84:-0.828326 85:0.194564 86:-1 87:-0.476395 88:-1 89:-0.531332 90:-0.720874 91:-0.733905 92:-0.113538 93:-0.776824 94:-0.904746 95:-1 96:-1 97:-0.776824 98:-1 99:-1 100:-0.878874 
2 1:-0.750626 2:-0.773585 3:-0.876501 4:-0.914952 5:-0.683818 6:-0.877645 7:-0.665768 8:-1 9:-0.954956 10:-0.974516 11:-0.663808 12:-0.353914 13:-0.790738 14:-0.768096 15:-0.898698 16:-0.662261 17:-0.989022 18:-0.691252 19:-0.560891 20:-0.792262 21:-0.719676 22:-0.654659 23:-0.687821 24:-0.871132 25:-0.194967 26:-0.387648 27:-0.67655 28:-0.825728 29:-0.855917 30:-0.67753 31:-0.864065 32:-0.969125 33:-0.814751 34:-0.959576 35:-0.741566 36:-0.93575 37:-0.72084 38:-0.0440235 39:-0.909662 40:-0.953116 41:-0.879931 42:-0.797599 43:-0.341338 44:-0.864832 45:-0.533448 46:-0.809263 47:-0.613036 48:-0.58422 49:-0.636791 50:-0.607708 51:-0.730405 52:-0.814751 53:-0.859348 54:-0.88957 55:-0.917667 56:-0.750688 57:-0.688965 58:-0.622642 59:-0.547169 60:-0.495712 61:-0.779199 62:-0.773585 63:-0.577357 64:-0.720069 65:-0.642202 66:-0.924957 67:-0.847637 68:-0.759863 69:-0.73928 70:-0.846913 71:-0.615781 72:-0.477641 73:-0.348198 74:-0.908519 75:0.135197 76:-0.894144 77:-0.809415 78:-0.789228 79:-0.167522 80:-0.919685 81:-0.327614 82:-1 83:-0.278303 84:-0.313892 85:-0.236136 86:-0.580103 87:-0.424529 88:-0.708405 89:-0.750258 90:-0.745017 91:-0.787307 92:-0.64572 93:-0.866209 94:-0.809655 95:-0.960892 96:-0.687822 97:-0.777015 98:-0.965262 99:-0.938251 100:-0.612732 
1.934210560682814 1:0.0131334 2:-0.865854 3:-1 4:-1 5:-0.839431 6:-1 7:-0.108884 8:-1 9:-1 10:-0.88676 11:-0.103657 12:-0.770325 13:-1 14:-1 15:-1 16:-1 17:-1 18:-0.341463 19:-0.777004 20:-1 21:-0.770035 22:-0.590786 23:-0.402439 24:-0.885472 25:-0.821138 26:-0.689025 27:-0.808363 28:-1 29:-0.853659 30:-0.235774 31:-1 32:-0.890244 33:-0.780488 34:-0.712598 35:-0.693767 36:-1 37:-0.858232 38:-0.105691 39:-1 40:-1 41:-0.634146 42:-0.280488 43:-0.0243904 44:-0.759747 45:-1 46:-1 47:-1 48:-1 49:-0.631098 50:-0.535151 51:-0.361083 52:-0.560977 53:-0.75 54:-0.803717 55:-0.780488 56:-0.822745 57:-1 58:-0.634146 59:-1 60:-0.402439 61:-0.215079 62:-0.731707 63:-0.356097 64:-0.00487968 65:-0.788012 66:-0.866616 67:-1 68:-0.359756 69:-0.536585 70:-0.455793 71:-1 72:-0.469453 73:-1 74:-0.934959 75:-0.689579 76:-0.874564 77:-0.830623 78:-1 79:-0.544716 80:-0.857245 81:-0.658537 82:-1 83:-1 84:-0.756098 85:-1 86:-1 87:-0.814025 88:-1 89:-0.112197 90:-0.490133 91:-0.621952 92:-1 93:-0.841463 94:-0.86467 95:-0.860976 96:-1 97:-1 98:-1 99:-0.853659 100:0.204607 
2 1:-0.887328 2:-1 3:-0.804702 4:-0.874473 5:-0.714286 6:-0.80651 7:-0.735727 8:-0.624307 9:-1 10:-0.973134 11:-0.822785 12:-1 13:-0.602892 14:-0.592526 15:-0.412616 16:-0.857576 17:-0.861121 18:-1 19:-0.867734 20:-0.824795 21:-0.886334 22:-0.939321 23:-0.848101 24:-0.796211 25:0.220012 26:-0.723328 27:-0.886334 28:-0.737535 29:-0.869801 30:-1 31:-0.641727 32:-0.772152 33:-0.479206 34:-1 35:-0.909182 36:-0.891624 37:-0.117088 38:-0.787824 39:-0.428572 40:-0.308015 41:-0.963834 42:-0.786619 43:-0.826402 44:-0.643747 45:-0.815552 46:-0.698373 47:-0.660036 48:-0.0502737 49:-0.890597 50:-0.931071 51:-0.336821 52:-1 53:-0.629295 54:-0.476103 55:-0.891501 56:-0.947433 57:-1 58:-1 59:-0.761302 60:-0.881856 61:-0.88361 62:-0.920434 63:-0.618084 64:-0.852441 65:-0.811396 66:-0.920886 67:-0.799214 68:-0.936709 69:-0.541892 70:-0.757911 71:-0.797468 72:-1 73:-0.106693 74:-1 75:0.104717 76:-0.876001 77:-0.698614 78:-0.703725 79:-0.527427 80:-0.36496 81:-0.189876 82:-0.629103 83:-0.723328 84:-0.276672 85:-0.798673 86:-0.631103 87:-0.889693 88:-0.0777563 89:-0.736709 90:-0.46237 91:-0.887884 92:-0.81325 93:-0.717903 94:-1 95:-1 96:-0.451477 97:-0.482821 98:-0.826045 99:-0.9783 100:-0.846896 
2 1:-0.615385 2:-0.847222 3:-0.666667 4:-0.95409 5:-0.81713 6:-0.422068 7:-0.548942 8:-0.903816 9:-0.878422 10:-0.965608 11:-0.659722 12:-1 13:-0.774074 14:-0.791358 15:-0.31645 16:-0.544208 17:-0.911111 18:-0.333335 19:-0.746032 20:-1 21:-0.883598 22:-0.6893 23:-0.805555 24:-0.913043 25:-0.524691 26:-0.881945 27:-0.781746 28:-0.731217 29:-0.861111 30:-0.709877 31:-0.541376 32:-0.916667 33:-0.75 34:-0.67268 35:-0.53498 36:-0.913292 37:-0.407985 38:-0.864197 39:-0.756173 40:-0.746913 41:-0.837963 42:-0.271606 43:-0.888889 44:-0.361549 45:-0.685185 46:-0.828396 47:-0.564814 48:-0.719445 49:-0.509838 50:-0.647059 51:-0.0297923 52:-0.916667 53:-0.62037 54:-0.85097 55:-0.972222 56:-0.730835 57:-0.265431 58:-0.722222 59:-0.592592 60:-0.697531 61:-0.776515 62:-0.388888 63:-0.755556 64:-0.716667 65:-0.75857 66:-0.797454 67:-0.485952 68:-0.918982 69:-0.765432 70:-0.793403 71:-0.0925932 72:-0.597177 73:-0.472222 74:-0.901235 75:-0.0572397 76:-0.920635 77:-0.678497 78:-0.43111 79:-0.654321 80:-0.837418 81:-0.222222 82:-0.525217 83:-1 84:-1 85:-0.613426 86:-0.527777 87:-0.929398 88:-0.842593 89:-0.831482 90:-0.741919 91:-0.497685 92:-0.760943 93:-0.638889 94:-0.897249 95:-0.841667 96:-0.929784 97:-0.699073 98:-0.96484 99:-0.916667 100:-0.608024 
2 1:-0.819398 2:-1 3:-0.791305 4:-0.913768 5:-0.771015 6:-0.793237 7:-0.717598 8:-0.638681 9:-0.923882 10:-0.978468 11:-0.715942 12:-0.563285 13:-0.929275 14:-0.738744 15:-1 16:-0.771708 17:-0.981449 18:-0.895652 19:-0.469978 20:-0.929791 21:-0.708489 22:-0.708212 23:-0.878261 24:-0.673346 25:-0.659903 26:-0.852174 27:-0.362318 28:-0.873789 29:-0.686957 30:-0.636715 31:-0.885145 32:-0.895652 33:-0.0608688 34:-0.86338 35:-0.563285 36:-1 37:-0.663042 38:-0.319807 39:-0.236713 40:-0.920773 41:-0.971015 42:-0.543962 43:-0.86087 44:-0.657378 45:-1 46:-0.892561 47:-0.564058 48:-0.765797 49:-0.649275 50:-0.889514 51:-0.392565 52:-0.582609 53:-0.168114 54:-0.906694 55:-0.895652 56:-0.91574 57:-0.474396 58:-0.710144 59:-0.617391 60:-0.621256 61:-0.253755 62:-0.362316 63:-0.693913 64:-0.763478 65:-0.697687 66:-0.936594 67:-0.806897 68:-0.594203 69:-0.632849 70:-0.870652 71:-0.513044 72:-1 73:-0.118841 74:-1 75:-0.704875 76:-0.920497 77:-0.355878 78:-0.881275 79:-0.0260848 80:-0.524977 81:-0.350725 82:-0.40549 83:-0.445651 84:-0.536232 85:-0.838647 86:-0.763478 87:-0.823189 88:-1 89:-0.155943 90:-0.97307 91:-0.101449 92:0.197364 93:-1 94:-0.678344 95:-0.735652 96:-0.472464 97:-0.924638 98:-1 99:-0.895652 100:-0.590981 
2 1:-1 2:-0.798165 3:-1 4:-0.909022 5:-1 6:-1 7:-1 8:-0.618792 9:-1 10:-1 11:-0.550459 12:-1 13:-0.776147 14:-0.586544 15:-0.458177 16:-1 17:-1 18:-1 19:-0.664482 20:1 21:-0.769332 22:-1 23:-0.614679 24:-0.569206 25:-1 26:-1 27:-0.42333 28:-1 29:-0.669726 30:-0.425077 31:-1 32:-0.669725 33:-0.339451 34:-0.783789 35:-1 36:-1 37:-1 38:-1 39:-0.0336408 40:-1 41:-0.816514 42:0.0825665 43:-0.853211 44:-1 45:-1 46:-1 47:-0.310093 48:-1 49:0.11009 50:-1 51:-1 52:-0.669725 53:-0.623853 54:-0.704675 55:-0.559634 56:-1 57:-1 58:-0.816514 59:-1 60:-1 61:-0.409509 62:-0.59633 63:-0.677064 64:-0.251377 65:-1 66:-1 67:-0.796267 68:-0.357799 69:-0.767584 70:-0.590596 71:-1 72:-1 73:-1 74:-1 75:-1 76:-0.622543 77:-0.745158 78:-0.62422 79:-0.314985 80:-0.785213 81:-0.486239 82:-1 83:-0.298166 84:-0.266056 85:-1 86:-1 87:-0.440368 88:-0.376147 89:-0.666055 90:-1 91:-1 92:-0.0525452 93:-0.761468 94:-1 95:-1 96:-0.721713 97:-0.522937 98:-1 99:-1 100:-1 
1.069762108255476 1:-0.26263 2:-1 3:-1 4:-0.941322 5:-0.688364 6:-1 7:-1 8:-1 9:-1 10:-1 11:-1 12:-1 13:-0.711243 14:-1 15:-1 16:-0.76698 17:-0.96213 18:-0.786982 19:-0.350802 20:-0.498358 21:-1 22:-1 23:-0.337277 24:-0.555441 25:-0.479289 26:-0.0946738 27:-0.628065 28:-0.914116 29:-0.928994 30:0.483235 31:-0.765533 32:-0.680473 33:-1 34:-0.86055 35:-0.702828 36:-0.955671 37:-1 38:-0.479289 39:-0.688363 40:-1 41:-0.585799 42:-0.767259 43:-0.905325 44:-0.06742 45:-1 46:-0.780672 47:-0.55503 48:-0.521895 49:-1 50:-0.323354 51:-0.689992 52:-1 53:-0.757397 54:-1 55:-1 56:-1 57:-0.463511 58:-0.526628 59:-1 60:-0.806706 61:-0.428725 62:-0.739645 63:-0.583433 64:-0.51716 65:-1 66:-1 67:-0.737197 68:-0.7929 69:-0.850099 70:-1 71:-0.668639 72:-0.742574 73:-0.325443 74:-0.684418 75:-0.397526 76:-0.797126 77:-1 78:-0.757633 79:0.325446 80:-0.168812 81:-1 82:-1 83:-1 84:0.183432 85:-0.341223 86:-1 87:-1 88:-0.597634 89:-0.138464 90:-0.945024 91:-0.449703 92:-0.38892 93:-0.846154 94:-1 95:-1 96:-1 97:-0.692308 98:-0.970041 99:-0.928994 100:-0.66601 
2 1:-0.68345 2:-0.906859 3:-0.420829 4:-0.790079 5:-0.843918 6:-0.697996 7:-0.587516 8:-0.718532 9:-0.744285 10:-0.94968 11:-0.294664 12:-0.712955 13:-0.52481 14:-0.847361 15:-0.874981 16:-0.0329968 17:-0.978323 18:-0.756139 19:-0.566468 20:-0.95898 21:-0.872263 22:-0.573807 23:-0.917019 24:-0.904576 25:-0.850974 26:-0.438613 27:-0.70727 28:-0.901681 29:-0.878069 30:-0.734688 31:-0.396064 32:-0.786621 33:-0.847587 34:-0.920179 35:-0.489697 36:-0.923879 37:-0.862193 38:-0.801298 39:-0.152694 40:-0.861135 41:-0.974598 42:-0.766864 43:-0.918713 44:-0.733097 45:-0.712108 46:-0.795993 47:-0.554275 48:-0.828959 49:-0.820703 50:-0.22538 51:-0.423298 52:-0.268416 53:-0.61812 54:-0.345832 55:-0.898391 56:-0.507709 57:-0.30906 58:-0.915326 59:-0.664691 60:-0.695738 61:-0.700254 62:-0.403896 63:-0.94039 64:-0.55089 65:-0.470121 66:-0.703642 67:-0.736751 68:-0.703641 69:-0.806943 70:0.0580014 71:-0.0990668 72:-0.852651 73:-0.420831 74:-0.891617 75:-0.482718 76:-0.941938 77:-0.647192 78:-0.687858 79:-0.652272 80:-0.821587 81:-0.620661 82:-0.261895 83:-0.676122 84:-0.593564 85:-0.434376 86:-0.758171 87:-0.690093 88:-0.769687 89:-0.722608 90:-0.944931 91:-0.580018 92:-0.519052 93:-0.515664 94:-0.849658 95:-0.961389 96:-0.691786 97:-0.779848 98:-0.978565 99:-0.949196 100:-0.784928 
2 1:0.122662 2:-0.207208 3:-0.675676 4:-0.910661 5:-0.525526 6:-1 7:-1 8:-1 9:-1 10:-0.866152 11:-1 12:-0.66066 13:-0.78018 14:-1 15:-0.733969 16:-0.290446 17:-1 18:-0.675676 19:-1 20:-0.781783 21:-0.660232 22:-0.697697 23:-1 24:-0.830788 25:-0.735736 26:-0.540541 27:-1 28:-0.86924 29:-0.891892 30:0.129128 31:-0.643018 32:-1 33:-1 34:-1 35:-0.321322 36:-1 37:-1 38:-0.471472 39:-0.525526 40:-1 41:-1 42:-1 43:-1 44:-0.645031 45:-1 46:-1 47:-1 48:-1 49:-1 50:-1 51:-0.528007 52:-1 53:-1 54:-0.709996 55:-0.891892 56:-0.73811 57:-1 58:-0.63964 59:-1 60:-0.705706 61:-0.130222 62:0.585586 63:-1 64:-1 65:-0.686793 66:-0.802928 67:-0.199752 68:-0.0540557 69:-1 70:-1 71:0.513511 72:-1 73:-0.315316 74:-1 75:-0.541359 76:-0.69112 77:-1 78:-1 79:-0.327328 80:-0.36725 81:0.0090076 82:-0.0760995 83:-1 84:-0.27928 85:0.00300322 86:-0.632432 87:-0.725225 88:-0.693694 89:-0.344145 90:-1 91:-0.441442 92:-1 93:-1 94:-0.600105 95:-0.794595 96:-1 97:-0.765766 98:-1 99:-0.567569 100:-0.745746 
2 1:-0.679981 2:0.0169499 3:-0.611712 4:-0.98472 5:0.541858 6:-0.780175 7:-0.549637 8:-0.807927 9:-0.898841 10:-0.862646 11:-0.773497 12:-0.825886 13:-0.849615 14:-0.722239 15:-0.363003 16:-0.575252 17:-0.901387 18:-0.72265 19:-0.887299 20:-0.869372 21:-0.767554 22:-0.741482 23:-0.848999 24:-0.782944 25:-0.683616 26:-0.0570103 27:-0.709443 28:-0.865815 29:-0.815101 30:-0.903441 31:-0.877889 32:-0.83359 33:-0.88906 34:-0.673185 35:-0.574387 36:-0.942284 37:-0.856703 38:-0.819209 39:-0.675398 40:-0.957884 41:-0.938367 42:-0.69697 43:-0.654854 44:-0.635733 45:-0.318952 46:-0.600208 47:-0.768259 48:-0.813251 49:-0.627117 50:-0.706335 51:-0.677095 52:-0.88906 53:-0.936826 54:-0.8016 55:-0.85208 56:-0.910417 57:-0.930149 58:-0.784284 59:-0.728813 60:-0.899332 61:-0.652893 62:-0.79661 63:-0.945763 64:-0.811402 65:-0.517883 66:-0.865177 67:-0.828914 68:-0.730355 69:-0.921931 70:-0.587442 71:-0.568567 72:-0.731865 73:-0.59014 74:-0.950693 75:-0.68623 76:-0.904909 77:-0.614792 78:-0.936888 79:-0.59733 80:-1 81:-0.74114 82:-0.841983 83:-0.941063 84:-0.753467 85:-1 86:-0.68567 87:-0.859014 88:-0.0570095 89:-0.719569 90:-0.89979 91:-0.904468 92:-0.522622 93:-0.959938 94:-0.692222 95:-0.929738 96:-0.953262 97:-0.599384 98:-0.804968 99:-0.648691 100:-0.826057 
2 1:-0.944043 2:-0.960485 3:-0.676695 4:-0.799618 5:-0.86993 6:-0.327345 7:-0.365642 8:-0.776102 9:-0.781847 10:-1 11:-0.163898 12:-0.797036 13:-0.594611 14:-0.959527 15:-0.973481 16:-0.363409 17:-0.991379 18:-0.709026 19:-0.720829 20:-0.961932 21:-0.92097 22:-0.24662 23:-0.943422 24:-0.991566 25:-0.710223 26:-0.587787 27:-0.745975 28:-0.980448 29:-0.946116 30:-0.957791 31:-0.555174 32:-0.709026 33:-0.56354 34:-0.936506 35:-0.887242 36:-0.616509 37:-0.97912 38:-0.802425 39:0.229756 40:-0.742254 41:-0.955097 42:-0.894028 43:-0.978446 44:-0.239215 45:-0.679389 46:-0.941745 47:-0.729861 48:-0.564618 49:-0.9185 50:-0.640561 51:-0.388337 52:-0.531208 53:-0.613381 54:-0.956636 55:-0.924562 56:-0.464814 57:-0.389314 58:-0.946116 59:-0.822182 60:-0.559947 61:-0.580928 62:-0.249214 63:-0.510013 64:-0.487022 65:-0.781444 66:-0.833015 67:-0.970085 68:-0.87427 69:-0.738363 70:-0.378815 71:-0.119893 72:-0.492084 73:-0.590482 74:-0.952103 75:-0.268482 76:-0.987684 77:-0.850322 78:0.0851538 79:-0.547374 80:-0.926411 81:0.207007 82:-0.401352 83:-0.484734 84:-0.622811 85:0.274813 86:-0.633588 87:-0.602829 88:-0.12977 89:-0.607725 90:-0.987484 91:-0.665919 92:-0.327591 93:0.0624143 94:-0.930238 95:-0.79524 96:-0.700344 97:-0.381231 98:-0.997727 99:-0.983835 100:-0.885945 
1.301656868937535 1:-0.706441 2:-0.922261 3:-0.745583 4:-0.964959 5:-0.813899 6:-0.495877 7:-0.827865 8:-0.706348 9:-1 10:-0.947501 11:-0.826855 12:-0.733804 13:-0.396466 14:-0.840754 15:-0.895656 16:-0.443387 17:-0.95477 18:-0.745583 19:-0.741545 20:-0.700432 21:-0.333671 22:-0.881429 23:-0.95053 24:-0.800891 25:-0.689046 26:-0.819788 27:-0.666835 28:-0.897425 29:-0.703181 30:-0.778563 31:-0.159895 32:-0.681979 33:-0.745583 34:-0.583623 35:-0.645072 36:-0.973528 37:-0.835689 38:-0.792697 39:-1 40:-0.710247 41:-0.858657 42:-0.444051 43:-0.886926 44:-0.721544 45:-0.759717 46:-0.148648 47:-0.601414 48:-1 49:-0.358658 50:-0.730617 51:-1 52:-0.745583 53:-0.565371 54:-0.772505 55:-0.830389 56:-1 57:-0.519434 58:-0.929329 59:-0.222616 60:-0.422852 61:-0.886283 62:-0.37809 63:-0.751237 64:-0.567491 65:-0.262913 66:-0.613517 67:-0.843061 68:-0.381627 69:-0.731449 70:-0.684629 71:-0.80212 72:-0.692545 73:-0.597174 74:-0.886926 75:-0.640218 76:-0.92731 77:-0.803691 78:-0.855265 79:-0.86808 80:-0.751819 81:-0.80212 82:-0.818811 83:-0.729682 84:-0.717314 85:-1 86:-1 87:-0.892226 88:-0.879859 89:-0.614135 90:-1 91:-0.561837 92:0.094763 93:-0.908127 94:-0.921575 95:-1 96:-1 97:-0.816254 98:-1 99:-0.406361 100:-0.401649 
0.09413487615790242 1:-0.807692 2:-1 3:-0.733333 4:-0.816359 5:-0.707408 6:-0.669753 7:-0.909788 8:-0.846105 9:-0.756844 10:-0.965608 11:-0.274074 12:-0.79074 13:-0.774074 14:-0.833087 15:-1 16:-0.416589 17:-0.976296 18:-0.333335 19:-0.119576 20:-0.88786 21:-0.883598 22:-0.75144 23:-0.844444 24:-0.965217 25:-0.51111 26:-0.527778 27:-0.534392 28:-1 29:-0.866667 30:-0.767901 31:-0.559723 32:-0.9 33:-0.200001 34:-0.650859 35:-0.581481 36:-0.95838 37:-0.870833 38:-0.728395 39:0.0728406 40:-0.797531 41:-0.87037 42:-0.635803 43:-0.97037 44:-0.635171 45:-0.811111 46:-0.794075 47:-0.582223 48:-0.625926 49:-0.439815 50:-0.505881 51:-0.12681 52:-0.533332 53:-0.544445 54:-0.940388 55:-0.933333 56:-0.730835 57:-0.0765409 58:-0.888889 59:-0.837037 60:-0.758025 61:-0.70202 62:-0.592592 63:-0.934815 64:-0.697778 65:-0.742474 66:-0.675926 67:-0.835504 68:-0.611112 69:-0.718519 70:-0.0909703 71:-0.0666652 72:-0.516612 73:-0.437038 74:-0.980247 75:-0.0572397 76:-0.961905 77:-0.845679 78:-0.393185 79:-1 80:-0.739869 81:-0.377779 82:-0.430261 83:-0.645833 84:-0.555556 85:-0.587654 86:-0.848889 87:-0.378703 88:-0.244445 89:-0.73037 90:-0.965589 91:-0.712963 92:-0.521886 93:-0.951852 94:-0.794498 95:-0.831111 96:-0.213581 97:-0.662962 98:-1 99:-0.911111 100:-0.68642 
2 1:-0.931114 2:-0.720288 3:-0.661692 4:-0.895845 5:-0.810761 6:-0.487378 7:-0.488354 8:-0.425764 9:-0.81854 10:-0.975361 11:-0.620785 12:-0.812604 13:-0.487451 14:-0.925263 15:-0.755146 16:-0.52108 17:-0.985849 18:-0.601992 19:-0.757403 20:-0.886187 21:-0.902709 22:-0.666114 23:-0.938087 24:-0.968851 25:-0.643266 26:-0.436154 27:-0.669906 28:-0.815462 29:-0.933665 30:-0.930717 31:-0.605721 32:-0.781095 33:-0.522388 34:-0.908807 35:-0.764019 36:-0.925457 37:-0.575871 38:-0.805417 39:-0.446842 40:-0.758246 41:-0.950249 42:-0.630367 43:-0.902709 44:-0.520822 45:-0.586512 46:-0.91804 47:-0.66744 48:-0.486347 49:-0.665562 50:-0.515364 51:-0.420773 52:-0.502488 53:-0.818685 54:-0.839849 55:-0.880597 56:-0.453637 57:-0.398562 58:-0.889442 59:-0.635157 60:-0.674959 61:-0.590834 62:-0.416251 63:-0.747043 64:-0.481261 65:-0.673288 66:-0.794431 67:-0.717657 68:-0.787175 69:-0.677907 70:-0.481966 71:-0.0403564 72:-0.567115 73:-0.222775 74:-0.970518 75:-0.155739 76:-0.977257 77:-0.815736 78:-0.275446 79:-0.607888 80:-0.896465 81:-0.442786 82:-0.34806 83:-0.534827 84:-0.31454 85:0.169341 86:-0.548923 87:-0.713378 88:-0.624103 89:-0.577447 90:-0.948641 91:-0.708679 92:-0.229307 93:-0.856274 94:-0.914119 95:-0.823549 96:-0.547263 97:-0.726922 98:-0.932829 99:-0.893864 100:-0.781586 
1.093225838385623 1:-0.754695 2:-0.913386 3:-0.858268 4:-1 5:-0.274277 6:-0.297902 7:-1 8:-0.509233 9:-0.896611 10:-1 11:-0.614173 12:-1 13:-0.903937 14:-0.822572 15:-0.651228 16:-1 17:-0.974803 18:-0.574804 19:-1 20:-0.618548 21:-0.703038 22:-0.471567 23:-0.834646 24:-0.59329 25:-0.1916 26:-0.598425 27:-0.628797 28:-0.714286 29:-0.905512 30:-1 31:-0.687992 32:-0.858267 33:-0.858268 34:-0.907216 35:-0.802275 36:-0.970506 37:-0.542324 38:0.732283 39:-0.792651 40:-0.892388 41:-0.96063 42:-0.845144 43:-0.811024 44:-0.22438 45:-0.732283 46:-0.854069 47:-0.851968 48:-0.840945 49:-0.761811 50:0.0504888 51:-1 52:-0.716536 53:-0.0314982 54:-0.873266 55:-1 56:-0.771104 57:-0.821522 58:-0.68504 59:-0.480315 60:-0.742782 61:-0.239801 62:-0.480315 63:-0.722835 64:-0.83937 65:-0.863126 66:-0.913878 67:-1 68:-0.72441 69:-0.501314 70:-0.648622 71:-0.779528 72:-0.828721 73:-1 74:-1 75:-0.398713 76:-0.676041 77:-0.890639 78:-1 79:-0.559056 80:-0.907828 81:-0.559055 82:-0.192497 83:-0.698819 84:-0.52756 85:-0.78084 86:-0.67874 87:-0.879921 88:-0.464568 89:-0.713386 90:-0.670794 91:-0.877953 92:-0.390123 93:-0.897638 94:-0.912621 95:-0.820472 96:-0.402889 97:-0.692914 98:-0.980067 99:-1 100:-0.888889 
2 1:-0.807692 2:-0.898148 3:-0.75 4:-0.850791 5:-0.756173 6:-0.463349 7:-0.605324 8:-0.374801 9:-0.772041 10:-0.957011 11:-0.603009 12:-0.651234 13:-0.830556 14:-0.687037 15:-0.589869 16:-0.726526 17:-0.977778 18:-0.75 19:-0.830688 20:-0.873842 21:-0.869047 22:-0.6893 23:-0.886574 24:-0.923913 25:-0.320989 26:-0.350694 27:-0.599867 28:-0.916005 29:-0.930556 30:-0.818673 31:-0.541376 32:-0.75 33:-0.75 34:-0.945447 35:-0.854681 36:-0.88728 37:-0.838542 38:-0.660493 39:-0.207562 40:-0.588734 41:-0.849537 42:-0.817901 43:-0.685186 44:-0.270342 45:-0.567129 46:-1 47:-0.869445 48:-0.345371 49:-0.719907 50:-0.470587 51:-0.211705 52:-0.5 53:-0.810185 54:-0.70194 55:-0.888889 56:-0.663544 57:-0.0030872 58:-0.74537 59:-0.949074 60:-0.810957 61:-0.217802 62:-0.490739 63:-0.674074 64:-0.574999 65:-0.718331 66:-0.772135 67:-0.922893 68:-0.837963 69:-0.794753 70:-0.276909 71:-0.287036 72:-0.597177 73:-0.648148 74:-0.950617 75:0.119527 76:-0.976191 77:-0.903549 78:-0.620741 79:-0.52469 80:-0.891612 81:-0.675926 82:-0.703261 83:-0.51302 84:-0.537036 85:-0.291279 86:-0.669444 87:-0.788195 88:-0.488426 89:-0.494444 90:-0.795686 91:-0.748843 92:-0.521886 93:-0.789352 94:-0.974312 95:-0.868055 96:-0.894676 97:-0.699073 98:-0.95898 99:-0.847222 100:-0.869341 
1.338285708781541 1:-0.848951 2:-0.84 3:-1 4:-0.963939 5:-0.712727 6:-0.740606 7:-1 8:-1 9:-1 10:-0.783896 11:-0.821818 12:-0.72606 13:-0.467636 14:-1 15:-0.785241 16:-0.713598 17:-0.976727 18:-0.607273 19:-1 20:-0.823838 21:-0.817142 22:-1 23:-0.745455 24:-0.419447 25:-0.466667 26:-0.814546 27:-0.771429 28:-0.894441 29:-0.956364 30:-0.886061 31:-0.567727 32:-0.803636 33:-0.345456 34:-0.828604 35:-0.817374 36:-0.972758 37:-0.830909 38:-0.466667 39:-0.233937 40:-0.801212 41:-0.818182 42:-0.427877 43:-0.767272 44:-0.713443 45:-0.505453 46:-0.730424 47:-0.453089 48:-0.559273 49:-0.89 50:-0.445559 51:-0.809486 52:-1 53:-0.701818 54:-0.531774 55:-0.781819 56:-1 57:-1 58:-0.636364 59:-0.519999 60:-0.643636 61:-0.882975 62:-0.359997 63:-0.487999 64:-0.406544 65:-0.873578 66:-0.840909 67:-1 68:-0.618182 69:-1 70:-0.675454 71:-0.185452 72:-1 73:-0.723636 74:-1 75:-0.0743808 76:-0.775584 77:-0.595958 78:-0.553163 79:-0.185453 80:-0.744599 81:-0.389091 82:-0.81354 83:-0.582727 84:-0.272728 85:-0.595151 86:-0.554909 87:-0.556362 88:-0.62909 89:-1 90:-0.898644 91:-0.774545 92:-0.436694 93:-0.621817 94:-0.919294 95:-0.834182 96:-1 97:-0.905455 98:-1 99:-0.738182 100:-1 
0.8171777805633097 1:-0.524731 2:-0.84897 3:-0.83524 4:-0.90923 5:-0.517926 6:-0.918383 7:-0.554102 8:-0.904916 9:-1 10:-0.974501 11:-0.775744 12:-0.913806 13:-0.888329 14:-0.690618 15:-0.797281 16:-0.369194 17:-0.941419 18:-0.423342 19:-0.832625 20:-0.750572 21:-0.827394 22:-1 23:-0.775744 24:-0.591682 25:-0.66438 26:-0.883295 27:-0.568486 28:-0.933573 29:-0.83524 30:-0.569793 31:-0.546627 32:-0.71167 33:-0.50572 34:-0.838213 35:-0.310449 36:-1 37:-0.840389 38:-0.194506 39:-0.638444 40:-0.749809 41:-0.839817 42:-0.459954 43:-0.963387 44:-0.368854 45:-0.610985 46:-0.872769 47:-0.655835 48:-0.722655 49:-0.515446 50:-0.738323 51:-0.640334 52:-0.752861 53:-0.43707 54:-1 55:-0.97254 56:-0.933479 57:-0.585049 58:-0.633868 59:-0.69794 60:-0.775744 61:-0.41086 62:-0.798627 63:-1 64:-0.906636 65:-0.840888 66:-0.899886 67:-0.695099 68:-0.199085 69:-0.536233 70:-0.591533 71:-0.359271 72:-0.900446 73:-0.652174 74:-0.902365 75:-0.417518 76:-0.89016 77:-0.555047 78:-0.90627 79:-0.14569 80:-0.892852 81:-0.487414 82:-0.647987 83:-0.737414 84:-0.542336 85:-0.617848 86:-0.439816 87:-0.860412 88:-0.0663595 89:-0.666819 90:-0.957479 91:-0.64531 92:-0.763678 93:-0.881007 94:-0.898425 95:-0.895652 96:-0.722349 97:-0.583524 98:-0.907313 99:-0.97254 100:-0.741673 
2 1:-0.747486 2:-0.933131 3:-0.343465 4:-0.879432 5:-0.839919 6:-0.349544 7:0.184542 8:-0.873703 9:-0.92018 10:-0.909683 11:-0.255317 12:-0.771023 13:-0.777508 14:-1 15:-0.82049 16:-0.52121 17:-0.980547 18:-0.452887 19:-0.555361 20:-0.926376 21:-0.770734 22:-0.286051 23:-0.87234 24:-0.88582 25:-0.821682 26:-0.68997 27:-0.426834 28:-0.911767 29:-0.927052 30:-0.809524 31:-0.759119 32:-0.945289 33:-0.781155 34:-0.785103 35:-1 36:-0.954459 37:-1 38:-0.554204 39:-0.679838 40:-1 41:-0.787234 42:-0.402228 43:-1 44:-0.0419075 45:-0.896657 46:-0.887336 47:-0.2 48:-0.877204 49:-0.632217 50:-0.304844 51:-0.363022 52:-0.562309 53:-0.62614 54:-0.902157 55:-0.781155 56:-0.646567 57:-0.173251 58:-0.696048 59:-0.866261 60:-0.602835 61:-0.510914 62:-0.866261 63:-1 64:-0.255926 65:-0.682985 66:-0.734042 67:-0.730006 68:-0.787234 69:-0.537994 70:-0.457444 71:-0.489362 72:-0.074363 73:-0.653496 74:-0.902736 75:-0.845261 76:-0.833261 77:-0.746707 78:-0.626504 79:-0.432623 80:-0.92884 81:-0.489362 82:-0.688288 83:-0.418692 84:-0.513676 85:-0.323198 86:-0.875988 87:-0.907295 88:-0.793313 89:-0.889362 90:-0.94352 91:-0.528874 92:-0.3722 93:-0.920973 94:-0.865081 95:-0.930699 96:-0.631204 97:-0.762918 98:-0.984611 99:-0.890578 100:-0.485308 
0.5645735007461637 1:-0.786617 2:-1 3:-1 4:-1 5:-0.278538 6:-0.755708 7:-0.66634 8:-1 9:-0.910066 10:-0.872798 11:-1 12:-1 13:-0.498631 14:-1 15:-0.898872 16:-0.865136 17:-1 18:-0.876712 19:-0.874755 20:-0.668189 21:-0.483366 22:-0.540335 23:-0.616437 24:-0.51757 25:-0.598174 26:-0.301372 27:-0.461839 28:-0.900587 29:-0.671233 30:-1 31:-0.592893 32:-0.69178 33:-0.506851 34:-1 35:-0.828006 36:-0.974344 37:-0.840753 38:-0.296804 39:-0.639269 40:-0.625571 41:-1 42:-0.730594 43:-0.890411 44:-0.595188 45:-0.883562 46:-0.93653 47:-0.742466 48:-0.308219 49:-0.792808 50:-0.73892 51:-0.820578 52:-0.753425 53:-0.859589 54:-0.448793 55:-0.835617 56:-0.50223 57:-0.844749 58:-0.931507 59:-1 60:-0.776256 61:-0.448941 62:-0.69863 63:-0.879452 64:-1 65:-1 66:-0.925086 67:-0.771846 68:-0.760274 69:-0.739725 70:-0.847174 71:-0.616438 72:-0.85101 73:0.041097 74:-1 75:-0.128268 76:-0.835617 77:-0.904871 78:-0.298629 79:0.27854 80:-0.839645 81:-0.808219 82:-1 83:-0.476029 84:-0.315068 85:0.143834 86:-0.860274 87:-0.47774 88:-0.650684 89:-0.376712 90:-0.904545 91:-1 92:-0.646326 93:-1 94:-0.923992 95:-0.765753 96:-0.792237 97:-0.732876 98:-1 99:-0.630138 100:-0.903348 
0.2979729517127235 1:-0.712678 2:-0.913043 3:-0.715415 4:-0.980402 5:-0.375495 6:-0.647563 7:-0.807453 8:-0.835764 9:-1 10:-0.948617 11:-0.806324 12:-1 13:-0.421344 14:-0.732807 15:-0.474772 16:-0.455213 17:-0.962055 18:-0.857708 19:-0.421795 20:-0.569171 21:-0.677019 22:-0.933685 23:-0.86166 24:-0.740161 25:-0.942029 26:-0.798419 27:-0.565217 28:-0.827894 29:-0.810277 30:-1 31:-1 32:-0.715414 33:-0.359683 34:-0.953425 35:-0.70224 36:-0.955584 37:-0.586462 38:-0.0144936 39:-0.791831 40:-0.891963 41:-0.920949 42:-0.689065 43:-0.905138 44:-0.688525 45:-1 46:-0.633731 47:-0.554151 48:-0.281422 49:-0.641305 50:-0.924669 51:-0.79292 52:-0.786562 53:-0.513834 54:-0.872765 55:-0.857708 56:-0.770199 57:-0.820817 58:-0.960474 59:-0.565217 60:-0.741765 61:-0.363997 62:-0.478261 63:-0.652174 64:-0.596838 65:-0.656463 66:-0.913538 67:-0.38558 68:-0.584981 69:-0.899868 70:-0.911808 71:-0.557312 72:-0.742066 73:-0.849802 74:-0.915679 75:-0.496946 76:-0.91869 77:-0.83531 78:-0.676205 79:-0.48353 80:-0.352243 81:-0.557312 82:-0.493315 83:-0.773222 84:0.343872 85:-0.779973 86:-0.919368 87:-0.698617 88:-0.798419 89:-0.856127 90:-0.834746 91:-0.326088 92:-0.0815648 93:-1 94:-0.956138 95:-1 96:-0.820158 97:-0.84585 98:-0.979988 99:-0.667985 100:-0.88845 
1.041971230712402 1:-0.883428 2:-0.95884 3:-0.696913 4:-0.897958 5:-0.605861 6:-0.866542 7:-0.40759 8:-0.611303 9:-0.803473 10:-0.996525 11:-0.174928 12:-0.788587 13:-0.543498 14:-0.915684 15:-0.91713 16:-0.447423 17:-0.982039 18:-0.595886 19:-0.62368 20:-0.898036 21:-0.90592 22:-0.591934 23:-0.829747 24:-0.96486 25:-0.4512 26:-0.236668 27:-0.559001 28:-0.972845 29:-0.921422 30:-0.912067 31:-0.518124 32:-0.848456 33:-0.427503 34:-0.691357 35:-0.765097 36:-0.92992 37:-0.934752 38:-0.615839 39:-0.556595 40:-0.897724 41:-0.906455 42:-0.889617 43:-0.760523 44:-0.336549 45:-0.554722 46:-0.861304 47:-0.859308 48:-0.697662 49:-0.660432 50:-0.215538 51:-0.264856 52:-0.393825 53:-0.386341 54:-0.759098 55:-0.943873 56:-0.619291 57:-0.53352 58:-0.663236 59:-0.71188 60:-0.694418 61:-0.337698 62:-0.259118 63:-0.539007 64:-0.656501 65:-0.707302 66:-0.79537 67:-0.937679 68:-0.705332 69:-0.763018 70:-0.499066 71:-0.109449 72:-0.389548 73:-0.431243 74:-0.840349 75:-0.0475364 76:-1 77:-0.792121 78:-0.540207 79:-0.650764 80:-0.846695 81:-0.580917 82:-0.616265 83:-0.606408 84:-0.550984 85:-0.218896 86:-0.618335 87:-0.771749 88:-0.745556 89:-0.693546 90:-0.913088 91:-0.478016 92:-0.0339302 93:-0.756782 94:-0.833907 95:-0.744061 96:-0.744621 97:-0.73246 98:-0.981055 99:-0.966324 100:-0.735994 
2 1:-0.866436 2:-0.929261 3:-0.652733 4:-1 5:-0.237943 6:-0.885316 7:-1 8:-1 9:-1 10:-0.856684 11:-0.684887 12:-0.75777 13:-1 14:-1 15:-0.8101 16:-0.620126 17:-1 18:-0.536979 19:-0.764814 20:-0.727404 21:-0.717042 22:-1 23:-0.819936 24:-0.939606 25:-0.717042 26:-0.180063 27:-0.797887 28:-0.90666 29:-0.807074 30:-0.697749 31:-1 32:-0.71061 33:-0.768489 34:-0.772666 35:-0.515541 36:-0.951823 37:-0.700965 38:-0.434084 39:-0.661308 40:-0.912112 41:-0.935691 42:-0.747053 43:-0.845659 44:-0.366533 45:-0.453375 46:-0.523259 47:-0.8791 48:-1 49:-0.416399 50:-0.509742 51:-0.83154 52:-0.768489 53:-0.47267 54:-0.482467 55:-0.84566 56:-0.813056 57:-0.125401 58:-0.807074 59:-1 60:-0.789925 61:-0.689565 62:-0.858521 63:-0.66045 64:-0.606431 65:-1 66:-1 67:-0.928595 68:-1 69:-0.429798 70:-0.856511 71:-0.639871 72:-0.720225 73:-0.877814 74:-0.862809 75:-0.345222 76:-0.647222 77:-0.910682 78:-0.736591 79:-1 80:-0.623604 81:-0.819936 82:-0.835124 83:-0.754019 84:-0.485532 85:-0.463022 86:-0.86881 87:-0.705788 88:-0.890675 89:-0.29775 90:-0.850628 91:-0.501607 92:-0.833967 93:-0.916399 94:-0.64318 95:-0.853376 96:-0.902465 97:-0.832797 98:-1 99:0.00321359 100:-0.45552 
2 1:-0.888637 2:-0.911528 3:-0.324396 4:-0.63444 5:-0.98235 6:-0.713137 7:0.665167 8:-0.470856 9:-0.419164 10:-0.987553 11:-0.244635 12:-0.570822 13:-0.901877 14:-0.697945 15:-1 16:-0.445718 17:-0.99571 18:-0.782842 19:-0.803907 20:-0.926944 21:-0.983148 22:0.102026 23:-0.9437 24:-0.987411 25:-0.842717 26:-0.794906 27:-0.768288 28:-0.980544 29:-0.951743 30:-0.915996 31:-0.0439005 32:-0.855228 33:-0.758713 34:-0.842044 35:-0.814865 36:-0.944768 37:-0.937667 38:-0.823056 39:-0.258712 40:-0.853441 41:-0.979893 42:-0.710009 43:-1 44:-0.0228844 45:-0.977212 46:-0.950313 47:-0.848794 48:-0.837534 49:-0.918901 50:-0.74452 51:-0.122132 52:-0.710456 53:-0.450403 54:-0.935274 55:-0.935657 56:0.0131541 57:-0.635388 58:-0.986595 59:-0.764075 60:-0.75916 61:-0.827443 62:-0.262735 63:-0.929223 64:-0.535121 65:-0.580573 66:-0.428201 67:-0.985116 68:-0.765416 69:-0.796247 70:0.016924 71:-0.699732 72:0.807847 73:-0.69437 74:-0.814119 75:-0.5223 76:-0.990808 77:-0.702114 78:-0.560749 79:-0.774799 80:-1 81:-0.0991956 82:-0.484486 83:-0.307809 84:-0.597856 85:-0.0299348 86:0.367294 87:-0.775134 88:-0.680965 89:-0.56086 90:-1 91:-0.709115 92:-0.792347 93:-0.6689 94:-0.83637 95:-0.5874 96:-0.166443 97:-0.790885 98:-0.98982 99:-0.991957 100:-0.829759 
1.823999293336479 1:-0.520183 2:-0.854785 3:-0.643565 4:-1 5:-0.0440056 6:-0.646865 7:-0.678453 8:-0.588597 9:-0.869996 10:-0.791608 11:-0.838284 12:-1 13:-0.758416 14:-1 15:-1 16:-0.610096 17:-1 18:-0.0495072 19:-0.758604 20:-0.920059 21:-0.87553 22:-1 23:-0.907591 24:-0.845028 25:-0.612762 26:-0.663366 27:-1 28:-0.664686 29:-1 30:-0.689769 31:-0.0845716 32:-0.821782 33:-0.881188 34:-0.766663 35:-0.419875 36:-0.925826 37:-0.769802 38:-0.612762 39:-0.826183 40:-0.909791 41:-0.867987 42:0.0385014 43:-1 44:-0.739924 45:-0.775577 46:-0.510673 47:-0.503631 48:-0.866667 49:-0.201321 50:-0.622597 51:-0.654183 52:-0.643565 53:-1 54:-0.893761 55:-0.920792 56:-0.616241 57:-0.850385 58:-0.537954 59:0.0165022 60:-0.784378 61:-0.893789 62:-0.419142 63:-0.651485 64:-0.730693 65:-0.655782 66:-0.855611 67:-0.70684 68:-0.653466 69:-0.916392 70:-0.558168 71:0.108912 72:-0.425678 73:-0.749175 74:-0.788779 75:-0.831983 76:-0.932108 77:-0.816648 78:-0.729637 79:-0.753575 80:-0.922733 81:-0.815182 82:-1 83:-0.621287 84:-0.471948 85:-0.816281 86:-1 87:-0.79868 88:-0.663366 89:-0.639604 90:-0.846684 91:-0.89769 92:-0.659166 93:-0.570956 94:-0.707008 95:-1 96:-0.69967 97:-0.742574 98:-0.98329 99:-0.920792 100:-0.348001 
1.939713068449144 1:-0.512949 2:-0.926298 3:-0.155779 4:-0.916946 5:-0.779453 6:-0.761027 7:-0.755204 8:-0.582393 9:-0.956012 10:-0.956449 11:-0.917923 12:-0.81072 13:-0.673033 14:-0.245115 15:-0.455906 16:-0.802109 17:-0.903517 18:-0.457286 19:-0.509932 20:-0.918854 21:-0.873653 22:-0.887586 23:-0.929648 24:-0.921346 25:-0.950865 26:-0.829146 27:-0.842067 28:-0.635319 29:-0.939699 30:-0.737577 31:-0.402637 32:-1 33:-0.57789 34:-0.526291 35:-0.62144 36:-0.987451 37:-0.571607 38:-0.557788 39:-0.647125 40:-0.771077 41:-0.949749 42:-0.407035 43:-0.865997 44:-0.340008 45:-0.829145 46:-0.84478 47:-0.622109 48:-0.864657 49:-0.79732 50:-0.872303 51:-0.385697 52:-0.939699 53:-0.450588 54:-0.784318 55:-0.939699 56:-0.805228 57:-0.772194 58:-0.765494 59:-0.410386 60:-0.835846 61:-0.784376 62:0.0318274 63:-0.764154 64:-0.726633 65:-0.767062 66:-0.560302 67:-0.516434 68:-0.706868 69:-0.490788 70:-0.32726 71:-0.343383 72:-0.635637 73:-0.236181 74:-0.964266 75:-0.403075 76:-0.94257 77:-0.767355 78:-0.862781 79:-0.374651 80:-0.921569 81:-0.624791 82:-0.226986 83:-0.743719 84:-0.932998 85:-0.813512 86:0.435177 87:-0.693466 88:-0.60134 89:-0.634169 90:-0.937749 91:-0.532662 92:-0.567535 93:-0.956449 94:-0.665414 95:-0.809045 96:-0.390285 97:-0.738692 98:-0.983038 99:-0.939699 100:-0.716358 
1.904447338307393 1:-0.925291 2:-0.956035 3:-0.553957 4:-0.782008 5:-0.968425 6:-0.657874 7:0.148737 8:-0.784104 9:-0.800578 10:-0.992577 11:-0.490806 12:-0.759126 13:-0.824461 14:-0.855902 15:-0.964593 16:-0.716689 17:-0.994884 18:-0.482014 19:-0.751513 20:-0.975797 21:-0.949755 22:0.367974 23:-0.916067 24:-0.988739 25:-0.788969 26:-0.755396 27:-0.799018 28:-0.941989 29:-0.947242 30:-0.198509 31:-0.350669 32:-0.942446 33:-0.45324 34:-0.755099 35:-0.899636 36:-0.997006 37:-0.916367 38:-0.929656 39:-0.768452 40:-0.879829 41:-0.960032 42:-0.276845 43:-0.993605 44:1 45:-0.782574 46:-0.911111 47:-0.639328 48:-0.983853 49:-0.661472 50:-0.756242 51:-0.581205 52:-0.755396 53:-0.262591 54:-1 55:-0.971223 56:0.022439 57:-0.492674 58:-0.968026 59:-0.718625 60:-0.817213 61:-0.845651 62:0.0727431 63:-0.915588 64:-0.527099 65:-0.583142 66:-0.720223 67:-0.991124 68:-0.706235 69:-0.797496 70:-0.464928 71:-0.529976 72:0.860523 73:-0.331736 74:-0.667466 75:-0.0436724 76:-0.969853 77:-0.877876 78:-0.721695 79:-0.89555 80:-0.962571 81:0.253397 82:-0.733575 83:-0.571944 84:-0.984013 85:-0.822009 86:0.255637 87:-0.829337 88:-0.701039 89:-0.592648 90:-0.98886 91:-0.516787 92:-0.69043 93:-0.927258 94:-0.778235 95:0.0935245 96:-0.0786042 97:-0.864908 98:-0.997976 99:-0.928058 100:-0.774403 
1.883728597508573 1:-0.67033 2:-1 3:-0.714286 4:-0.645834 5:-0.477513 6:-1 7:-0.420066 8:0.3191 9:-0.89579 10:-0.955782 11:-0.416664 12:-1 13:-0.806349 14:-1 15:-0.88282 16:-1 17:-1 18:0.285714 19:-0.274375 20:-0.663581 21:-0.800454 22:-1 23:-0.61111 24:-0.813664 25:-0.883598 26:-0.595238 27:-1 28:-0.942404 29:-0.857143 30:-0.502646 31:-0.528272 32:-1 33:-0.714286 34:-0.625921 35:-0.701057 36:-1 37:-1 38:-0.417988 39:-0.791006 40:-0.783069 41:-0.960318 42:-0.531745 43:-1 44:-0.843645 45:-0.730159 46:-0.85291 47:-0.701587 48:-0.839683 49:-0.519842 50:-0.84874 51:0.455314 52:-0.714286 53:-1 54:-1 55:-0.904762 56:-1 57:-1 58:-0.920635 59:-0.825397 60:-0.870371 61:-0.872295 62:0.047619 63:-0.720635 64:-0.838095 65:-0.310198 66:-0.045139 67:-0.911877 68:-0.583332 69:-1 70:-0.822917 71:-0.555556 72:-0.827362 73:0.055556 74:-0.788359 75:-1 76:-0.755102 77:-0.889771 78:-1 79:-0.555554 80:-1 81:-0.555556 82:-0.389563 83:-0.392858 84:-0.84127 85:-0.7791 86:0.133334 87:-0.878968 88:-0.730159 89:-0.566666 90:-1 91:-0.753968 92:-1 93:-1 94:-0.647712 95:-0.457143 96:-0.398148 97:-0.896826 98:-1 99:-0.523811 100:-1 
1.311823243897187 1:-0.633649 2:-0.731343 3:-0.70692 4:-0.959634 5:-0.785618 6:-0.467661 7:-0.272919 8:-0.887241 9:-0.839655 10:-1 11:-0.667571 12:-0.744459 13:-0.668929 14:-1 15:-0.959933 16:-0.572535 17:-1 18:-0.755767 19:-0.75189 20:-0.737073 21:-0.607676 22:-0.40811 23:-0.810041 24:-0.821604 25:-0.840796 26:-0.861601 27:-0.317699 28:-0.881837 29:-0.886025 30:-0.829941 31:-0.623643 32:-0.829037 33:-0.85346 34:-0.872092 35:-0.693351 36:-0.95934 37:-0.842266 38:-0.442787 39:-0.428314 40:-0.925826 41:-0.877883 42:-0.786522 43:-0.826323 44:-0.304992 45:-0.769335 46:-0.622796 47:-0.744912 48:-0.83555 49:-0.630596 50:-0.79312 51:-0.715651 52:-0.85346 53:-0.388059 54:-0.868967 55:-0.85346 56:-0.211134 57:-0.446402 58:-0.864315 59:-1 60:-0.867028 61:-0.738004 62:-0.402985 63:-0.713433 64:-0.723202 65:-0.528278 66:-0.851594 67:-0.939737 68:-0.762551 69:-0.862506 70:-0.757802 71:-0.468114 72:-0.232612 73:-0.226594 74:-0.869742 75:-0.516467 76:-0.879046 77:-0.585406 78:-0.555387 79:-0.0375387 80:-0.777636 81:-0.316145 82:-0.860851 83:-0.481005 84:-0.511532 85:-0.773405 86:-0.612483 87:-0.296472 88:-0.723202 89:-0.753053 90:-0.949574 91:-0.411127 92:-0.0191209 93:-0.858887 94:-0.909657 95:-0.597829 96:-0.876526 97:-0.753053 98:-1 99:-0.918589 100:-0.731946 
0.1297040179731094 1:-0.704352 2:-0.960854 3:-1 4:-0.982355 5:-0.484578 6:-0.682681 7:-0.479916 8:-0.408516 9:-0.953272 10:-0.966955 11:-0.38968 12:-1 13:-0.609253 14:-0.91981 15:-0.737283 16:-0.789785 17:-1 18:-0.807829 19:-0.804779 20:-0.76295 21:-0.865785 22:-0.76117 23:-0.850533 24:-0.899737 25:-0.582443 26:-0.27402 27:-0.720386 28:-0.896695 29:-0.978648 30:-0.275207 31:-0.22442 32:-0.807828 33:-0.743772 34:-0.958066 35:-0.910637 36:-0.946679 37:-0.71041 38:-0.53025 39:-0.344011 40:-0.756821 41:-0.857651 42:-0.860024 43:-0.886121 44:-0.439123 45:-0.455517 46:-0.835113 47:-0.799288 48:-0.0654803 49:-0.730872 50:-0.7287 51:-0.533885 52:-0.487544 53:-0.854093 54:-0.942722 55:-0.957295 56:-0.586195 57:-0.758007 58:-0.822064 59:-0.921708 60:-0.941874 61:-0.656421 62:-0.765124 63:-0.561567 64:-0.637011 65:-0.876278 66:-0.727536 67:-0.920972 68:-0.875445 69:-0.729536 70:-0.682384 71:-0.202846 72:-0.458124 73:-0.459074 74:-0.715302 75:-0.0941437 76:-0.890188 77:-0.604586 78:-0.125409 79:-0.468563 80:-0.79171 81:-0.601424 82:0.0948718 83:-0.727758 84:-0.644128 85:-0.00948839 86:-0.637011 87:-0.728648 88:0.0284699 89:-0.48185 90:-0.917341 91:-0.724199 92:-0.356843 93:-0.537367 94:-1 95:-0.959431 96:-0.730131 97:-0.30605 98:-0.990991 99:-0.957295 100:-0.79913 
1.502075205747626 1:-0.785483 2:-0.814085 3:-0.729578 4:-0.906886 5:-0.579657 6:-0.832551 7:-0.451107 8:-0.72689 9:-0.839722 10:-0.944198 11:-0.723944 12:-0.752425 13:-0.793803 14:-0.788419 15:-0.445458 16:-0.593257 17:-0.915869 18:-0.830986 19:-0.828303 20:-0.931769 21:-0.752113 22:-0.747939 23:-0.855399 24:-0.850092 25:-0.531769 26:-0.473242 27:-0.675387 28:-0.931858 29:-0.898592 30:-0.794053 31:-0.813967 32:-0.830986 33:-0.695775 34:-0.845099 35:-0.622743 36:-0.90152 37:-0.890845 38:-0.504225 39:-0.802191 40:-0.871674 41:-0.981221 42:-0.261348 43:-0.489202 44:-0.630032 45:-0.553053 46:-0.843381 47:-0.788169 48:-0.468922 49:-0.886385 50:-0.677879 51:-0.557257 52:-0.560563 53:-0.653521 54:-0.727968 55:-0.887324 56:-0.69975 57:-0.616901 58:-0.868545 59:-0.380281 60:-0.754617 61:-0.546735 62:-0.752113 63:-0.603381 64:-0.770141 65:-0.869423 66:-0.876761 67:-0.770634 68:-0.572769 69:-0.714554 70:-0.45528 71:-0.631925 72:-0.468953 73:-0.607513 74:-0.849765 75:-0.139565 76:-0.832596 77:-0.791341 78:-0.538479 79:-0.579343 80:-0.956034 81:-0.053522 82:-0.662971 83:-0.604931 84:-0.661972 85:-0.425041 86:-0.616901 87:-0.656338 88:-0.521127 89:-0.760751 90:-0.825523 91:-0.85446 92:-0.515152 93:-0.829108 94:-0.833283 95:-0.785916 96:-0.658216 97:-0.829108 98:-0.938198 99:-0.853521 100:-0.735002 
2 1:-0.562241 2:-0.896956 3:-0.662764 4:-0.814208 5:-0.321625 6:-0.916472 7:-0.54366 8:-0.610757 9:-0.815498 10:-0.913014 11:-0.770492 12:-0.558938 13:-0.828571 14:-0.788915 15:-0.446755 16:-0.538872 17:-1 18:-0.915691 19:-0.657411 20:-0.858184 21:-0.676146 22:-0.764247 23:-0.770492 24:-0.780063 25:-0.793911 26:-0.880562 27:-0.852794 28:-0.898026 29:-0.634661 30:-1 31:-0.721604 32:-0.831382 33:-0.494146 34:-0.72404 35:-0.35311 36:-0.929822 37:-0.836651 38:-0.106946 39:-0.753318 40:-1 41:-0.836066 42:-0.539423 43:-0.962529 44:-0.630899 45:-0.681499 46:-0.826386 47:-0.823888 48:-0.71616 49:-0.574942 50:-0.821463 51:-1 52:-0.662764 53:-0.807963 54:-0.849225 55:-0.80328 56:-0.931921 57:-0.787666 58:-0.71897 59:-0.27869 60:-0.770492 61:-0.698531 62:-1 63:-0.670258 64:-0.808899 65:-0.511486 66:-1 67:-0.68796 68:-0.426231 69:-0.52537 70:-0.581967 71:-0.344263 72:-0.694345 73:-0.822014 74:-0.925059 75:-0.642325 76:-0.871529 77:-0.479572 78:-0.6163 79:-0.47541 80:-0.396887 81:-0.344263 82:-0.879914 83:-0.910422 84:-0.43794 85:-0.869633 86:-0.617799 87:-0.642857 88:-1 89:-0.744263 90:-0.956483 91:-0.709602 92:-0.516287 93:-0.93911 94:-0.48023 95:-0.946604 96:-0.928962 97:-0.93911 98:-1 99:-0.859485 100:-0.471245 
0.06987298708739705 1:-0.614365 2:-0.795756 3:-0.904509 4:-0.855327 5:-0.406278 6:-0.85809 7:-0.483136 8:-0.504026 9:-0.7562 10:-0.980296 11:-0.610079 12:-0.850132 13:-0.838196 14:-0.82069 15:-0.216727 16:-0.6344 17:-0.966048 18:-0.570294 19:-0.757484 20:-0.823313 21:-0.883289 22:-0.59947 23:-0.888594 24:-0.875447 25:-0.649868 26:0.149866 27:-0.66654 28:-0.98075 29:-0.920425 30:-0.833775 31:-0.264259 32:-0.928382 33:-0.4748 34:-0.906232 35:-0.866785 36:-0.980129 37:-0.814987 38:-0.416445 39:-0.790451 40:-0.782493 41:-0.920424 42:-0.843501 43:-0.363395 44:-0.68646 45:-0.639256 46:-0.72962 47:-0.850398 48:-0.892838 49:-0.719164 50:0.364956 51:-0.652578 52:-0.618037 53:-0.728117 54:-0.786535 55:-0.920425 56:-0.768676 57:-0.0380166 58:-0.867374 59:-0.766578 60:-0.870027 61:-0.487823 62:-0.708223 63:-1 64:-0.404773 65:-0.861674 66:-0.622844 67:-0.852739 68:-0.860743 69:-0.630415 70:-0.704078 71:-0.628647 72:-0.596108 73:-0.395226 74:-0.759505 75:-0.594888 76:-0.890868 77:-0.889478 78:-0.891353 79:-0.653404 80:-0.844749 81:-0.405835 82:-0.727976 83:-0.492706 84:-0.840849 85:-0.704686 86:-0.62122 87:-0.878647 88:-0.819629 89:-0.758621 90:-0.901422 91:-0.465516 92:-0.79455 93:-0.931035 94:-0.911694 95:-0.909284 96:-0.798851 97:-0.896552 98:-0.684401 99:-0.984085 100:-0.85028 
2 1:-0.715829 2:-1 3:-0.400356 4:-0.764029 5:-0.827682 6:-0.809042 7:-0.246536 8:-0.604505 9:-0.843778 10:-0.988952 11:-0.708507 12:-0.66389 13:-0.782272 14:-0.892762 15:-0.912167 16:-0.836013 17:-0.980964 18:-0.571683 19:-0.608397 20:-0.971181 21:-0.902779 22:-0.121686 23:-0.875074 24:-0.921786 25:-0.493953 26:-0.605592 27:-0.607376 28:-0.913657 29:-0.971446 30:-0.850883 31:-0.528554 32:-0.903629 33:-0.5931 34:-0.817745 35:-0.83568 36:-0.928695 37:-0.889352 38:-0.808051 39:-0.718025 40:-0.837398 41:-0.952409 42:-0.46183 43:-0.942891 44:0.640756 45:-0.838192 46:-0.856673 47:-0.753956 48:-0.831767 49:-0.676086 50:-0.750569 51:-0.470167 52:-0.678763 53:-0.585367 54:-0.885103 55:-0.95003 56:0.124055 57:-0.595478 58:-0.988102 59:-0.685901 60:-0.689074 61:-0.808556 62:-0.502676 63:-0.811541 64:-0.660202 65:-0.731138 66:-0.739738 67:-0.947158 68:-0.625224 69:-0.804085 70:-0.442517 71:-0.433672 72:0.242257 73:0.265912 74:-0.796946 75:0.0296927 76:-0.918416 77:-0.851279 78:-0.707602 79:-0.600238 80:-0.888582 81:0.89887 82:-0.633957 83:-0.772457 84:-0.762046 85:-0.536386 86:0.0193922 87:-0.81856 88:-0.797739 89:-0.696847 90:-0.94473 91:-0.631171 92:-0.508518 93:-0.814396 94:-0.894376 95:-0.43034 96:-0.242119 97:-0.752528 98:-0.996988 99:-0.971446 100:-0.798532 
1.241358226653589 1:-0.716782 2:-0.9 3:-0.427273 4:-0.932386 5:-0.640908 6:-0.756818 7:-0.889286 8:-0.527823 9:-0.970158 10:-0.991558 11:-0.777273 12:-0.828788 13:-0.889091 14:-0.897576 15:-0.463102 16:-0.910499 17:-0.912727 18:-0.754546 19:-0.667532 20:-0.697223 21:-0.514286 22:-0.618688 23:-0.840909 24:-0.701186 25:-0.599999 26:-0.536364 27:-0.642858 28:-0.835065 29:-0.672728 30:-0.928788 31:-0.909943 32:-0.918182 33:-0.754546 34:-0.946439 35:-0.429292 36:-1 37:-0.36591 38:-0.599999 39:-0.401517 40:-0.751515 41:-0.909091 42:-0.821212 43:-0.781818 44:-0.820902 45:-0.922727 46:-0.873637 47:-0.487271 48:-0.816364 49:-0.725 50:-0.913369 51:-0.166502 52:-0.754546 53:-1 54:-0.707359 55:-0.890909 56:-0.867865 57:-0.690909 58:-0.954545 59:-0.7 60:-0.925757 61:-0.853719 62:-1 63:-0.280002 64:-0.814546 65:-0.841973 66:-0.801136 67:-0.293416 68:-0.681818 69:-0.712122 70:-0.492899 71:-0.109091 72:-0.802251 73:-0.0500004 74:-0.975758 75:-0.305783 76:-0.735065 77:-0.810606 78:-1 79:-0.151514 80:-0.574332 81:-0.618182 82:-0.0677004 83:-1 84:-0.818182 85:-0.367425 86:-0.536365 87:-0.58409 88:-0.768182 89:-0.917273 90:-0.70438 91:-0.859091 92:-0.295866 93:-1 94:-0.697351 95:-0.948182 96:-0.793182 97:-0.881818 98:-0.953973 99:-0.945455 100:-0.807576 
2 1:-0.33916 2:-0.9 3:-0.836364 4:-0.819697 5:-0.760606 6:-0.513635 7:-0.778572 8:-0.0556419 9:-1 10:-1 11:-0.777273 12:-0.657575 13:-0.556364 14:-1 15:-1 16:-1 17:-0.970909 18:-0.672728 19:-0.667532 20:-0.779799 21:-0.771429 22:-1 23:-0.745455 24:-0.61581 25:-0.866667 26:-0.768182 27:-0.285714 28:-0.934026 29:-0.563638 30:-1 31:-0.459658 32:-0.590908 33:-0.181818 34:-0.892877 35:-0.885859 36:-0.931895 37:-0.788636 38:-0.333332 39:-0.760606 40:-1 41:-0.727273 42:-1 43:-0.927273 44:-0.104509 45:-0.690909 46:-0.663032 47:-0.829091 48:-0.632728 49:-0.725 50:-0.826738 51:-1 52:-0.836364 53:-0.254546 54:-1 55:-0.890909 56:-1 57:-0.381816 58:-0.727272 59:-1 60:-0.70303 61:-0.707438 62:-0.399998 63:-0.68 64:-0.629091 65:-0.525917 66:-1 67:-0.89906 68:-1 69:-0.769697 70:-1 71:-0.236362 72:-0.802251 73:-1 74:-1 75:-0.53719 76:-0.781818 77:-0.747475 78:-0.0690893 79:-0.660606 80:-0.787166 81:-0.490909 82:-0.300773 83:-0.478408 84:0.636364 85:-0.74697 86:-0.814546 87:-0.722727 88:-0.690909 89:-0.338183 90:-1 91:-0.859091 92:-0.295866 93:-0.645454 94:-1 95:-0.896364 96:-0.724243 97:-0.763636 98:-1 99:-0.890909 100:-0.61515 
1.630032620067837 1:-0.631514 2:-0.893548 3:-0.767742 4:-0.856049 5:-0.872581 6:-0.597313 7:0.257146 8:-0.731925 9:-0.703507 10:-1 11:-0.604838 12:-0.878494 13:-0.842581 14:-1 15:-0.952372 16:-0.491868 17:-1 18:-0.245163 19:-0.705069 20:-0.843728 21:-0.71613 22:-0.783512 23:-0.796774 24:-0.893969 25:-0.810753 26:-0.835484 27:-0.442398 28:-0.97659 29:-0.845162 30:-0.747312 31:-0.488711 32:-0.796774 33:-0.303228 34:-0.657899 35:-0.635485 36:-0.987917 37:-0.8875 38:-0.621506 39:-0.0655937 40:-0.867742 41:-0.870968 42:-0.555915 43:-1 44:-0.364492 45:-0.890322 46:-0.850538 47:-0.454195 48:-0.869677 49:-0.512098 50:-0.44668 51:-0.661992 52:-0.535485 53:-0.40484 54:-1 55:-0.96129 56:-0.57802 57:-0.707527 58:-0.903226 59:-0.361291 60:-0.841935 61:-0.377127 62:-0.432259 63:-0.943226 64:-0.868387 65:-0.831777 66:-0.576614 67:-0.964182 68:-0.887097 69:-0.877419 70:0.295567 71:-0.458065 72:-0.22814 73:0.103227 74:-0.552688 75:-0.753666 76:-0.95576 77:-0.820789 78:-0.801806 79:-0.39785 80:-0.886717 81:-0.548387 82:-0.834592 83:-0.629839 84:-0.741936 85:-0.82043 86:-0.27613 87:-0.754032 88:-0.835484 89:-0.882581 90:-0.985015 91:-0.450001 92:-0.000588654 93:-0.916129 94:-0.749421 95:-0.705807 96:-0.706452 97:-0.832258 98:-0.991834 99:-0.96129 100:-0.544804 
2 1:-0.871144 2:-1 3:-0.77665 4:-0.91051 5:-0.806919 6:-0.658019 7:-0.835146 8:-0.367234 9:-0.489002 10:-0.997905 11:0.326568 12:-0.936266 13:-0.724761 14:-0.949163 15:-0.833449 16:-0.355876 17:-1 18:-0.695432 19:-0.793731 20:-0.993169 21:-0.936186 22:-0.697186 23:-0.944726 24:-0.984109 25:-0.586388 26:-0.0507628 27:-0.929095 28:-0.991814 29:-0.972927 30:-0.982328 31:0.497393 32:-0.77665 33:-0.77665 34:-0.946831 35:-0.900859 36:-0.902817 37:-0.934433 38:-0.801466 39:0.36642 40:-0.414175 41:-0.949239 42:-1 43:-0.891709 44:-0.599983 45:-0.0411723 46:-0.916375 47:-0.809137 48:-0.45313 49:-0.812324 50:-0.0755435 51:0.507024 52:-0.370559 53:-0.722504 54:-0.927376 55:-0.966159 56:-0.68848 57:0.304006 58:-0.909757 59:-0.652566 60:-0.834179 61:-0.65513 62:-0.8511 63:-0.444108 64:-0.838917 65:-0.901957 66:-0.247391 67:-0.97495 68:-0.960519 69:-0.771386 70:0.182951 71:-0.115626 72:-0.70555 73:-0.614213 74:-0.945855 75:-0.397017 76:-0.988397 77:-0.843329 78:0.132004 79:-0.810491 80:-0.947182 81:-0.305135 82:0.446039 83:-0.223349 84:-0.729272 85:0.915214 86:-0.631811 87:-0.896785 88:-0.539762 89:-0.774168 90:-0.910916 91:-0.895093 92:-0.796134 93:-0.237451 94:-0.924893 95:-0.909983 96:-0.692047 97:-0.780034 98:-0.980011 99:-1 100:-0.85674 
2 1:-0.958627 2:-0.649401 3:-0.569721 4:-0.980246 5:-0.318062 6:-0.644755 7:-0.708878 8:-0.751683 9:-0.921531 10:-0.970404 11:-0.609561 12:-0.924967 13:-0.708366 14:-0.910226 15:-0.705882 16:-0.529319 17:-0.974502 18:-0.784861 19:-0.854297 20:-0.782869 21:-0.72453 22:-0.799468 23:-0.860558 24:-0.887753 25:-0.766268 26:-0.593626 27:-0.686967 28:-0.739783 29:-0.83267 30:-0.937583 31:-0.842132 32:-0.78486 33:-0.498009 34:-0.859161 35:-0.0996007 36:-0.970153 37:-0.675797 38:-0.59097 39:-0.265606 40:-0.891102 41:-0.880478 42:-0.686587 43:-0.936255 44:-0.843022 45:-0.864542 46:-0.815406 47:-0.550597 48:-0.678088 49:-0.578188 50:-0.696273 51:-0.58254 52:-0.784861 53:-0.591634 54:-0.935876 55:-0.856574 56:-0.884184 57:-0.00663681 58:-0.920319 59:-0.123506 60:-0.869854 61:-0.615357 62:-0.386455 63:-0.228684 64:-0.593625 65:-0.86149 66:-0.825697 67:-0.646104 68:-0.30279 69:-0.596281 70:-0.111056 71:-0.776893 72:-0.913337 73:-0.394421 74:-1 75:-0.492937 76:-0.890723 77:-0.391322 78:-0.592032 79:-0.479416 80:-0.300444 81:-1 82:-0.591422 83:-0.619024 84:-0.681275 85:-0.77822 86:-0.6749 87:-0.696215 88:-0.458166 89:-0.92749 90:-0.981492 91:-0.752988 92:-0.0742479 93:-0.741036 94:-0.911577 95:-1 96:-0.63745 97:-0.741036 98:-0.979829 99:-0.83267 100:-0.718902 
1.184845403526426 1:-0.819622 2:-0.918114 3:-0.687345 4:-0.864662 5:-0.836642 6:-0.0707198 7:-0.637362 8:-0.742235 9:-0.967418 10:-0.981567 11:-0.69603 12:-0.719603 13:-0.606452 14:-0.832258 15:-0.926726 16:-0.560268 17:-1 18:-0.955335 19:-0.364765 20:-0.624346 21:-0.859624 22:-0.500414 23:-0.791564 24:-0.860179 25:-0.490489 26:-0.683623 27:-0.337115 28:-0.981992 29:-0.806452 30:-0.961125 31:-0.705025 32:-0.486351 33:-0.553352 34:-0.941521 35:-0.875379 36:-0.916347 37:-0.942308 38:-0.526883 39:0.110834 40:-0.864351 41:-0.888337 42:-0.804797 43:-0.841191 44:-0.413378 45:-0.831265 46:-0.724071 47:-0.533501 48:0.102729 49:-0.699752 50:-0.668953 51:-0.544989 52:-0.955335 53:-0.796526 54:-0.840246 55:-0.851117 56:-0.711466 57:-0.493794 58:-0.776674 59:-0.508682 60:-0.675765 61:-0.361156 62:-0.508682 63:-0.257569 64:-0.595037 65:-0.827464 66:-0.94572 67:-0.944896 68:-0.826303 69:-0.748553 70:-0.501704 71:-0.166256 72:-0.784095 73:0.0843676 74:-0.93383 75:-0.557862 76:-0.957462 77:-0.862145 78:-0.339356 79:-0.258892 80:-0.883813 81:-0.166256 82:-0.745526 83:-0.85763 84:0.240696 85:-0.447476 86:-1 87:-0.772953 88:-0.451614 89:-0.683871 90:-0.976946 91:-0.500001 92:-0.103092 93:-0.806452 94:-0.972464 95:-0.943424 96:-0.849462 97:-0.645163 98:-1 99:-1 100:-0.894955 
2 1:-0.807692 2:-0.816667 3:-0.533332 4:-0.843905 5:-0.829321 6:-0.240432 7:-0.323412 8:-0.230525 9:-0.756844 10:-0.979365 11:-0.727777 12:-0.79074 13:-0.593332 14:-0.165433 15:-0.644555 16:-0.817684 17:-0.97037 18:-0.666667 19:-0.593651 20:-0.854219 21:-0.778836 22:-0.40967 23:-0.87037 24:-0.834783 25:-0.809877 26:-0.905556 27:-0.650794 28:-0.919365 29:-0.888889 30:-0.506791 31:-0.743171 32:-0.95 33:-0.566668 34:-0.607216 35:-0.372222 36:-0.993063 37:-0.80625 38:-0.809877 39:-0.756173 40:-0.822839 41:-0.972222 42:-0.417285 43:-0.955556 44:-0.671654 45:-0.905555 46:-0.862716 47:-0.582223 48:-0.812963 49:-0.495832 50:-0.647059 51:-0.175325 52:-0.633333 53:-0.772222 54:-0.85097 55:-0.944445 56:-0.730835 57:-0.832099 58:-0.888889 59:-0.714815 60:-0.727778 61:-0.791414 62:-0.592592 63:-0.771852 64:-0.622222 65:-0.356186 66:-0.635416 67:-0.609323 68:-0.416666 69:-0.671604 70:-0.586805 71:-0.585185 72:-0.274916 73:-0.225925 74:-0.841975 75:-0.575758 76:-0.92381 77:-0.588478 78:-0.886222 79:-0.792592 80:-0.718192 81:-0.274072 82:-0.620174 83:-0.645833 84:-0.851852 85:-0.742284 86:-0.773333 87:-0.576389 88:-0.622222 89:-0.797778 90:-0.90537 91:-0.655556 92:-0.760943 93:-0.855555 94:-0.732849 95:-0.704444 96:-0.606789 97:-0.855555 98:-0.967184 99:-0.9 100:-0.660289 
1.986263907676868 1:-0.711038 2:-0.885217 3:-0.812174 4:-0.965507 5:0.0991292 6:-0.689855 7:-0.745838 8:-0.638681 9:-0.977164 10:-0.883727 11:-0.829565 12:-0.934493 13:-0.490782 14:-0.372987 15:-0.281024 16:-0.863025 17:-0.877565 18:-0.937391 19:-0.681988 20:-0.747247 21:-0.80323 22:-0.941642 23:-0.951304 24:-0.624348 25:-0.438841 26:-0.911304 27:-0.890683 28:-0.394186 29:-0.686957 30:-0.782029 31:-0.862174 32:-0.906087 33:-0.812174 34:-0.836056 35:-0.475941 36:-1 37:-0.231739 38:-0.336811 39:-0.908406 40:-0.952464 41:-0.982609 42:-0.589565 43:-0.86087 44:-1 45:-0.881739 46:-0.871073 47:-0.803826 48:-0.437915 49:-0.789565 50:-0.867417 51:-0.179961 52:-0.812174 53:-0.786087 54:-0.83205 55:-0.874783 56:-0.848332 57:-0.842319 58:-0.895652 59:-0.540868 60:-0.943188 61:-0.720158 62:-0.540868 63:-0.510263 64:-0.716174 65:-0.939537 66:-0.771739 67:-0.613793 68:-0.756522 69:-0.911884 70:-0.689565 71:-0.902609 72:-0.924339 73:-0.471306 74:-0.981449 75:-0.64585 76:-0.821118 77:-0.806763 78:-0.85753 79:-0.220868 80:-0.837136 81:-0.707826 82:-0.73247 83:-0.667392 84:-0.513044 85:-0.709565 86:-1 87:-0.310435 88:-0.586087 89:-0.936696 90:-0.919209 91:-0.838261 92:-0.730593 93:-1 94:-0.922803 95:-0.920696 96:-0.788986 97:-0.819131 98:-0.709427 99:-0.833044 100:-0.852754 
2 1:-0.887386 2:-0.812548 3:-0.442292 4:-0.861735 5:-0.755229 6:-0.419829 7:-0.547195 8:-0.613772 9:-0.898293 10:-0.982738 11:-0.544539 12:-0.708236 13:-0.678698 14:-0.755642 15:-0.611154 16:-0.328916 17:-0.970256 18:-0.637491 19:-0.71672 20:-0.887426 21:-0.863672 22:-0.584129 23:-0.934934 24:-0.86906 25:-0.409244 26:-0.683966 27:-0.61049 28:-0.820117 29:-0.814098 30:-0.975729 31:-0.508908 32:-0.707203 33:-0.832688 34:-0.780942 35:-0.610981 36:-0.953577 37:-0.711851 38:-0.613736 39:-0.510457 40:-0.894139 41:-0.922541 42:-0.786729 43:-0.826491 44:-0.572718 45:-0.815647 46:-0.928221 47:-0.534004 48:-0.655771 49:-0.67196 50:-0.616166 51:-0.310107 52:-0.525949 53:-0.650658 54:-0.775589 55:-0.841983 56:-0.527137 57:-0.578621 58:-0.891557 59:-0.591014 60:-0.746966 61:-0.401734 62:-0.556933 63:-0.454685 64:-0.620759 65:-0.676846 66:-0.813613 67:-0.776383 68:-0.783114 69:-0.744901 70:-0.516073 71:-0.392719 72:-0.76411 73:-0.558482 74:-0.958688 75:-0.487361 76:-0.930951 77:-0.569669 78:-0.650999 79:-0.421635 80:-0.891192 81:-0.175832 82:-0.443942 83:-0.585206 84:-0.380324 85:-0.568809 86:-0.652362 87:-0.598373 88:-0.473275 89:-0.689853 90:-0.906443 91:-0.615801 92:-0.680022 93:-0.838885 94:-0.896851 95:-0.911696 96:-0.624064 97:-0.738188 98:-0.968626 99:-0.907049 100:-0.672089 
2 1:-0.703297 2:-0.937143 3:-0.691429 4:-0.801667 5:-0.774286 6:-0.286667 7:-0.0257138 8:-0.0502485 9:-0.737392 10:-0.936326 11:-0.0900008 12:-0.730952 13:-0.860571 14:-0.678095 15:-0.789076 16:-0.381166 17:-0.926857 18:-0.382856 19:-0.738775 20:-0.948095 21:-0.856326 22:-0.712381 23:-0.88 24:-0.919503 25:-0.706667 26:-0.198571 27:-0.59592 28:-0.896326 29:-0.948572 30:-0.552381 31:-0.547142 32:-0.922857 33:-0.485715 34:-0.898999 35:-0.713015 36:-0.967893 37:-0.667857 38:-0.664761 39:-0.699048 40:-0.726667 41:-0.971429 42:-0.325713 43:-0.817142 44:-0.268258 45:-0.902857 46:-1 47:-0.838857 48:-0.826857 49:-0.567858 50:-0.782185 51:-0.476087 52:-0.382856 53:-0.707143 54:-0.678095 55:-1 56:-0.127907 57:-0.546666 58:-0.971429 59:-0.748571 60:-0.813333 61:-0.632207 62:-0.937143 63:-0.949714 64:-0.766857 65:-0.851003 66:-0.500001 67:-0.746206 68:-0.550002 69:-0.927619 70:-0.745 71:-0.76 72:-0.00560344 73:-0.185714 74:-0.756191 75:-0.490909 76:-0.980408 77:-0.722222 78:-0.5904 79:-0.68 80:-0.933109 81:0.12 82:-0.780244 83:-0.672143 84:-0.714286 85:-0.363807 86:-0.358856 87:-0.869286 88:-0.757143 89:-0.688 90:-0.960182 91:-0.822857 92:-0.631169 93:-0.851429 94:-0.968294 95:-0.609142 96:0.039999 97:-0.962857 98:-0.971068 99:-0.982857 100:-0.83873 
2 1:-0.880823 2:-0.90819 3:-0.305165 4:-0.886194 5:-0.876369 6:-0.79534 7:-0.390116 8:-0.371414 9:-0.87671 10:-0.9845 11:-0.539906 12:-0.84281 13:-0.910902 14:-0.435783 15:-0.553285 16:-0.712402 17:-0.946583 18:-0.812207 19:-0.771071 20:-0.936823 21:-0.954095 22:-0.719933 23:-0.90506 24:-0.941213 25:-0.37263 26:-0.521127 27:-0.721291 28:-0.810716 29:-0.981221 30:-0.73848 31:-0.0491667 32:-0.953052 33:-0.511736 34:-0.680363 35:-0.698719 36:-0.984368 37:-0.866588 38:-0.663362 39:-0.725266 40:-0.700574 41:-0.973918 42:-0.363937 43:-0.749608 44:-0.342281 45:-0.343766 46:-0.970996 47:-0.921544 48:-0.662807 49:-0.747522 50:-0.781276 51:0.093191 52:-0.248828 53:-0.657799 54:-0.76491 55:-0.99374 56:-0.438924 57:-0.668927 58:-0.89567 59:-0.449137 60:-0.829595 61:-0.815337 62:-0.678664 63:-0.412417 64:-0.553052 65:-0.637287 66:-0.429448 67:-0.918911 68:-0.470527 69:-0.841419 70:-0.371479 71:-0.795514 72:-0.568809 73:-0.663015 74:-0.844201 75:0.115378 76:-0.985692 77:-0.840607 78:-0.508566 79:-0.785776 80:-0.975574 81:0.285339 82:0.310669 83:-0.720657 84:-0.958268 85:0.103459 86:0.255714 87:-0.904538 88:-0.680751 89:-0.753156 90:-0.927301 91:-0.789776 92:-0.838384 93:-0.932186 94:-0.698983 95:-0.607512 96:0.012693 97:-0.796557 98:-0.957742 99:-0.956182 100:-0.867501 
2 1:-0.93791 2:-0.769805 3:-0.569509 4:-0.955531 5:-0.606377 6:-0.413551 7:-0.635917 8:-0.751559 9:-0.882238 10:-0.877856 11:-0.633782 12:-0.493274 13:-0.854111 14:-0.663179 15:-0.823442 16:-0.705678 17:-0.980867 18:-0.569509 19:-0.398674 20:-0.674142 21:-0.661756 22:-0.749211 23:-0.790732 24:-0.775395 25:-0.780767 26:-0.7713 27:-0.483236 28:-0.913218 29:-0.874439 30:-0.953164 31:-0.822309 32:-0.892377 33:-0.569509 34:-0.788637 35:-0.737252 36:-0.955208 37:-0.860987 38:0.052316 39:-0.685102 40:-0.877429 41:-0.880419 42:-0.529648 43:-0.832586 44:-0.764415 45:-0.898356 46:-0.833782 47:-0.437967 48:-0.818834 49:-0.819133 50:-0.943023 51:-0.295186 52:-0.838565 53:-0.754858 54:-0.470708 55:-0.946188 56:-0.739285 57:-0.728949 58:-0.820628 59:-0.605381 60:-0.707025 61:-0.759478 62:-0.736921 63:-0.684305 64:-0.81704 65:-0.168526 66:-0.83651 67:-0.933612 68:-0.476831 69:-0.84853 70:-0.799888 71:-0.581465 72:-0.86994 73:0.420029 74:-0.952167 75:-0.391224 76:-0.836003 77:-0.667831 78:-0.755097 79:-0.609366 80:-0.790029 81:-0.832586 82:-0.77006 83:-0.599775 84:-0.701046 85:-0.750373 86:-0.81704 87:-0.544095 88:-0.695067 89:-0.619133 90:-0.847234 91:-0.490282 92:-0.305341 93:-0.80568 94:-0.800949 95:-0.863677 96:-0.909317 97:-0.844544 98:-0.969728 99:-0.784754 100:-0.746886 
0.09007534699078711 1:-0.643446 2:-0.905579 3:-0.690987 4:-0.85813 5:-0.660945 6:-0.948975 7:-0.581851 8:-0.524445 9:-0.924862 10:-0.984059 11:-0.509299 12:-0.83834 13:-0.720744 14:-0.742108 15:-0.619794 16:-0.774648 17:-0.990844 18:-0.845494 19:-0.372164 20:-0.86139 21:-0.874106 22:-0.423938 23:-0.899857 24:-0.811905 25:-0.244634 26:-0.489271 27:-0.640303 28:-0.937707 29:-0.965665 30:-0.955174 31:-0.546496 32:-0.768241 33:-0.639485 34:-0.932569 35:-0.676682 36:-0.946412 37:-0.634119 38:-0.37053 39:-0.24654 40:-0.765379 41:-0.928469 42:-0.831187 43:-0.885551 44:-0.210842 45:-0.610873 46:-0.628804 47:-0.784836 48:-0.537627 49:-0.783619 50:-0.781873 51:-0.700193 52:-0.433476 53:-0.589414 54:-0.585532 55:-0.965665 56:-0.625712 57:-0.15689 58:-1 59:-0.811158 60:-0.532664 61:-0.309404 62:-0.370527 63:-0.59714 64:-0.824892 65:-0.70158 66:-0.812232 67:-0.745844 68:-1 69:-0.492609 70:-0.744635 71:-0.198853 72:-0.439852 73:-0.510731 74:-0.98474 75:0.165299 76:-0.872471 77:-0.761564 78:-0.531217 79:-0.305674 80:-0.698562 81:-0.439199 82:-0.266428 83:-0.616953 84:-0.48498 85:0.2742 86:-0.591416 87:-0.781831 88:-0.610873 89:-0.739628 90:-0.906958 91:-0.866953 92:-0.55677 93:-0.925608 94:-0.968249 95:-1 96:-0.739628 97:-0.851216 98:-0.971027 99:-0.948498 100:-0.878874 
0.332633421762788 1:-0.883319 2:-0.752808 3:-0.730337 4:-0.907147 5:0.134208 6:-0.666043 7:-0.635099 8:-0.766563 9:-0.950822 10:-0.979133 11:-0.357678 12:-0.858926 13:-0.588765 14:-0.578027 15:-0.668208 16:-0.778762 17:-0.92809 18:-0.595504 19:-0.657571 20:-0.773201 21:-0.741038 22:-0.622969 23:-0.973783 24:-0.771372 25:-0.505619 26:-0.235954 27:-0.88229 28:-0.891278 29:-0.887641 30:-0.941323 31:-0.628979 32:-0.764045 33:-0.865169 34:-0.911734 35:-0.717851 36:-0.915825 37:-0.782303 38:-0.780275 39:-0.309614 40:-0.795256 41:-0.906367 42:-1 43:-0.790262 44:-0.557284 45:-0.554307 46:-0.89588 47:-0.64794 48:-0.470413 49:-0.773408 50:-0.785856 51:-0.509445 52:-1 53:-0.462548 54:-0.758873 55:-0.932584 56:-0.836687 57:-0.405743 58:-0.88764 59:-0.670412 60:-0.449439 61:-0.578141 62:-0.588014 63:-0.934082 64:-0.847191 65:-0.86979 66:-0.836142 67:-0.875242 68:-1 69:-0.857678 70:-0.498593 71:-0.580524 72:-0.59265 73:-0.288389 74:-0.940075 75:-0.332653 76:-0.717496 77:-0.687889 78:-0.769887 79:-0.370787 80:-0.868473 81:-0.580524 82:-0.711929 83:-0.713483 84:-0.400748 85:-0.583021 86:-0.541571 87:-0.771536 88:-0.745318 89:-0.795506 90:-0.808614 91:-0.76779 92:-0.32312 93:-0.902622 94:-0.833751 95:-0.957303 96:-0.488765 97:-0.659177 98:-0.800893 99:-0.910112 100:-0.894299 
