svm_type c_svc
kernel_type rbf
gamma 0.03125
nr_class 2
total_sv 595
rho 5.88722
label 1 0
probA -2.29555
probB 0.273857
nr_sv 301 294
SV
2 2:0.0403671 7:0.172783 23:0.175459 24:0.40367 28:0.276758 31:0.174312 34:0.321101 37:0.183486 39:0.0802752 40:0.155963 46:0.207951 53:0.259634 54:0.147936 56:0.183486 61:0.160551 62:0.231651 66:0.00903532 70:0.341284 79:0.22477 86:0.0412845 87:0.125382 94:0.249541 97:0.087156 99:0.106651 100:0.263762 105:0.178899 106:0.0749236 116:0.126147 117:0.0254787 121:0.2789 122:0.350918 132:0.168196 133:0.127676 137:0.0825688 140:0.262233 142:0.0305811 146:0.087156 149:0.303669 150:0.137615 151:0.648623 152:0.0372707 163:0.117956 165:0.330275 168:0.532109 172:0.0802752 182:0.143731 183:0.175331 185:0.201835 194:0.106651 198:0.247707 199:0.336391 203:0.201835 206:0.478374 214:0.201835 219:0.139908 225:0.201835 233:0.321102 235:0.139144 236:0.261468 237:0.415424 246:0.403669 248:0.181193 249:0.380734 252:0.286697 256:0.0535169 261:0.165137 262:0.252294 263:0.165137 274:0.926603 275:0.117431 277:0.270642 284:0.087156 287:0.172477 289:0.472478 290:0.222149 295:0.0963303 297:0.0979687 305:0.308868 311:0.213303 313:0.202753 314:0.233946 320:0.155963 321:0.288991 324:0.186544 328:0.139908 333:0.208716 340:0.472476 342:0.474007 346:0.119266 353:0.44954 357:0.38838 359:0.417432 362:0.165137 369:0.299313 374:0.0476666 388:0.238532 392:0.238532 393:0.168196 399:0.21101 401:0.293578 405:0.167431 407:0.250001 412:0.563073 414:0.587156 415:0.0298166 420:0.0917432 427:0.342508 428:0.293578 429:0.138762 437:0.215596 448:0.379206 450:0.181193 452:0.605505 464:1 467:0.112058 468:0.236238 470:0.442333 471:0.220184 473:0.0889909 474:0.374313 476:0.141546 481:0.155963 483:0.419726 484:0.310092 494:0.252294 499:0.386851 500:0.163609 
2 1:0.198493 2:0.00737021 3:0.041876 5:0.0494136 6:0.284459 7:0.0630932 8:0.0556951 9:0.155061 10:0.0544389 13:0.045645 14:0.120603 15:0.0108479 16:0.112898 17:0.106407 18:0.190954 19:0.0634495 20:0.074958 21:0.0318258 22:0.0455053 23:0.0320352 24:0.0921273 25:0.080402 26:0.241207 28:0.0505304 29:0.201005 30:0.0481574 31:0.0318258 32:0.0142379 33:0.018565 34:0.0586265 35:0.0208255 36:0.0625349 37:0.0502512 38:0.066164 41:0.0505304 42:0.0167504 43:0.0912898 44:0.0603014 48:0.0185185 50:0.158794 51:0.0134841 52:0.194723 55:0.144472 56:0.0335008 57:0.0494137 58:0.100503 59:0.0636515 60:0.0527639 62:0.211474 63:0.0339195 65:0.129815 66:0.00164966 67:0.156406 68:0.388945 70:0.0623114 71:0.030303 72:0.0713986 73:0.0335008 74:0.0954771 75:0.0443887 76:0.416248 77:0.0422948 80:0.00574845 81:0.0457286 82:0.151439 83:0.0630758 84:0.105528 87:0.0457844 88:0.294807 89:0.195421 90:0.110553 91:0.422948 92:0.0485762 93:0.175879 97:0.0159129 98:0.0347571 99:0.0194723 100:0.0481575 101:0.328308 102:0.388191 103:0.0247069 104:0.158082 105:0.130653 106:0.0683975 107:0.058068 108:0.0298157 109:0.0213369 110:0.228644 112:0.123395 114:0.390286 115:0.135678 117:0.0139556 118:0.0529313 119:0.329146 121:0.0339475 122:0.192211 123:0.143216 124:0.0167504 125:0.0301507 126:0.0362926 127:0.218746 128:0.0603014 129:0.122836 130:0.127303 131:0.0845894 132:0.0614182 134:0.241206 135:0.0718174 136:0.0540798 137:0.045226 138:0.0567838 139:0.405359 140:0.0957565 141:0.247068 142:0.0167504 143:0.136935 144:0.252931 145:0.203016 146:0.0159129 147:0.0272195 148:0.0059557 149:0.0277219 151:0.0507537 152:0.00680485 153:0.0862645 154:0.0915688 155:0.0301507 156:0.0934675 159:0.144053 161:0.0515075 162:0.0339195 163:0.0990671 164:0.179648 165:0.045226 167:0.293132 168:0.0485762 169:0.0854272 170:0.159548 171:0.224455 172:0.0293132 173:0.126465 174:0.0575097 175:0.0494136 176:0.0443887 177:0.104522 178:0.0435511 180:0.716921 181:0.0951981 182:0.0262423 183:0.016006 185:0.0368509 186:0.145827 187:0.0299414 188:0.0348967 189:0.0168621 190:0.404243 191:0.0424345 192:0.0597989 193:0.159129 194:0.0389446 195:0.204355 196:0.162479 197:0.218035 198:0.0452261 199:0.184254 200:0.133166 201:0.0481575 202:0.130095 203:0.147403 204:0.0824956 207:0.423067 208:0.0517168 209:0.0603014 211:0.0174018 212:0.010804 213:0.0477386 214:0.0368509 215:0.170854 216:0.237856 217:0.30779 219:0.0383165 222:0.205192 224:0.159687 226:0.0366835 227:0.0469013 228:0.0513681 229:0.211534 230:0.04732 232:0.127303 234:0.157035 235:0.0254048 236:0.0477386 237:0.0421377 238:0.114322 239:0.045226 240:0.043551 241:0.101172 242:0.350084 243:0.0194723 244:0.145728 245:0.127303 246:0.0368509 247:0.261306 249:0.139028 251:0.0586265 252:0.0523451 253:0.0261725 254:0.322446 255:0.466777 256:0.0390843 257:0.0251256 259:0.139196 260:0.0305695 261:0.0150754 263:0.0150754 264:0.17253 265:0.0479062 266:0.0965942 267:0.0862645 268:0.163317 269:0.0743719 270:0.164154 271:0.140704 272:0.0603014 273:0.0410385 276:0.0862645 277:0.0494136 278:0.263985 280:0.0991625 281:0.144053 282:0.0636515 283:0.254606 285:0.02366 287:0.0629815 288:0.0194914 289:0.115019 290:0.0405599 291:0.0544389 292:0.0477386 293:0.0388158 295:0.0351758 297:0.0178871 298:0.042881 301:0.120603 303:0.226131 304:0.0709103 305:0.0281965 306:0.0741204 307:0.0286235 308:0.0954771 311:0.0778893 312:0.436768 313:0.148074 315:0.114322 316:0.0278476 317:0.0603014 318:0.102895 319:0.0954772 322:0.0349665 323:0.268006 324:0.0510887 326:0.095268 328:0.0383165 329:0.328308 330:0.256282 331:0.0505862 333:0.114322 334:0.153267 335:0.442212 336:0.0368509 337:0.0152429 338:0.0686768 340:0.0431323 342:0.0865439 343:0.0793251 344:0.166109 345:0.0339195 347:0.0573703 348:0.120184 349:0.177973 350:0.147961 351:0.0402011 353:0.0410385 354:0.233109 358:0.0510887 359:0.152429 360:0.0816583 361:0.0494136 363:0.0583872 365:0.0904522 366:0.126187 367:0.205192 368:0.0565327 370:0.0168621 371:0.155779 372:0.341351 374:0.0174059 375:0.0184255 376:0.247068 379:0.492464 380:0.059185 381:0.160134 382:0.139308 384:0.0508096 387:0.0315466 388:0.043551 389:0.071608 391:0.0184255 392:0.0871019 393:0.0921273 395:0.0845894 396:0.0234506 397:0.0510889 398:0.0264656 399:0.115578 400:0.0542713 401:0.0804019 402:0.045645 403:0.080402 404:0.0523451 405:0.0305695 406:0.144472 407:0.0912898 409:0.0337401 411:0.0917083 413:0.050977 414:0.107203 415:0.0217755 417:0.234506 419:0.137354 420:0.0167504 421:0.0230319 422:0.0259631 423:0.253769 424:0.162866 425:0.0540394 426:0.148074 427:0.0938023 430:0.0307091 431:0.072864 433:0.103015 434:0.044221 435:0.149079 436:0.0429529 437:0.0787269 438:0.131367 439:0.190954 440:0.136097 441:0.0748744 443:0.0759352 444:0.129816 446:0.39866 449:0.10134 450:0.066164 453:0.0378559 454:0.0988271 455:0.0904523 456:0.0741208 457:0.0181463 458:0.0871019 459:0.0494137 460:0.100503 462:0.033082 464:0.0331963 465:0.348408 466:0.043272 467:0.0409188 468:0.172529 469:0.0512981 470:0.0161522 471:0.080402 472:0.48995 473:0.0487437 474:0.0683416 475:0.363484 476:0.0839914 477:0.225369 478:0.0753767 479:0.234171 480:0.0387652 481:0.0854269 483:0.0510887 484:0.0283082 487:0.0887772 488:0.217755 491:0.282431 494:0.0460636 495:0.0431323 496:0.118593 497:0.066583 498:0.0674202 499:0.070631 500:0.0896146 
2 1:0.270549 2:0.0301371 7:0.0644978 11:0.186644 15:0.133073 16:0.461644 22:0.558221 24:0.0753426 25:0.328768 29:0.0821918 30:0.098459 34:0.119863 36:0.127854 38:0.135274 39:0.179795 40:0.116438 45:0.130993 46:0.465755 47:0.130137 48:0.0757231 49:0.148402 55:0.196918 56:0.0684932 59:0.130137 62:0.172945 64:0.147945 65:0.212329 68:0.530137 70:0.254794 72:0.291952 73:0.0684932 74:0.39041 75:0.181507 76:0.243151 77:0.34589 78:0.167809 82:0.137609 83:0.25792 88:0.401826 90:0.30137 92:0.19863 96:0.057363 98:0.0710617 99:0.0796233 100:0.393836 102:0.17637 103:0.101027 105:0.133562 109:0.261743 110:0.155822 111:0.260274 113:0.165362 114:0.245522 117:0.133152 118:0.108219 121:0.0694065 128:0.0616438 131:0.34589 136:0.221135 137:0.0616438 142:0.0456621 150:0.0342466 151:0.0691781 152:0.0556507 153:0.17637 154:0.748856 158:0.907536 160:0.0390411 167:0.239726 168:0.19863 169:0.349315 170:0.434933 174:0.11758 175:0.202054 177:0.142466 178:0.178082 179:0.0963797 183:0.065449 187:0.367296 193:0.130137 198:0.0924659 205:0.311644 206:0.178571 208:0.317209 209:0.123288 211:0.0711569 212:0.0883562 214:0.150685 219:0.104452 220:0.0662101 222:0.167808 226:0.15 228:0.210046 235:0.103881 238:0.155822 240:0.178082 243:0.0796233 244:0.19863 245:0.130137 247:0.534247 250:0.0684932 256:0.0399544 258:0.218323 260:0.125 263:0.0616438 265:0.195891 266:0.592469 268:0.111302 269:0.152055 270:0.167808 271:0.191781 272:0.246575 276:0.17637 277:0.202054 279:0.140411 282:0.130137 283:0.130137 287:0.0643836 288:0.0797011 290:0.165851 299:0.100457 301:0.328768 302:0.104452 305:0.115297 307:0.117043 308:0.195205 314:0.349316 316:0.22774 317:0.123288 318:0.0841487 319:0.130137 321:0.431508 324:0.0696348 325:0.11387 326:0.0556507 336:0.0753426 338:0.280823 342:0.176941 344:0.0399544 347:0.23459 349:0.145548 350:0.605021 352:0.0278253 358:0.104452 359:0.311644 362:0.123288 363:0.119374 365:0.147945 367:0.167808 369:0.0744864 371:0.212329 374:0.0355867 378:0.119863 379:0.251713 381:0.654793 384:0.103881 386:0.0821918 387:0.128995 389:0.0976029 392:0.178082 393:0.125571 394:0.219178 396:0.191781 406:0.196918 410:0.0399544 411:0.25 415:0.0222603 419:0.140411 420:0.136986 421:0.0941782 422:0.106164 424:0.166491 425:0.0736565 426:0.15137 429:0.103596 430:0.125571 431:0.297944 432:0.219178 433:0.280823 437:0.160959 439:0.260274 443:0.155251 445:0.14298 447:0.0673516 448:0.141553 449:0.276256 450:0.135274 457:0.074201 460:0.10274 463:0.174658 464:0.203612 468:0.17637 469:0.0419521 471:0.164384 473:0.0664384 476:0.105675 478:0.0616438 481:0.232877 482:0.178705 483:0.104452 486:0.0630031 488:0.222603 489:0.0681507 490:0.155822 494:0.0941782 499:0.288813 500:0.122146 
2 1:0.252801 2:0.01408 3:0.32 5:0.0943997 6:0.108686 7:0.0301334 8:0.1064 10:0.0693334 12:0.0307199 15:0.124343 16:0.32352 17:0.13552 20:0.1432 22:0.0869334 23:0.5508 25:0.1536 29:0.4224 31:0.0608 32:0.1088 33:0.0354667 34:0.0560001 36:0.119467 40:0.0543999 41:0.193066 42:0.032 43:0.0872001 44:0.0576 45:0.4284 46:0.145067 48:0.0353778 50:0.606719 54:0.0515999 56:0.032 57:0.0472 58:0.032 59:0.0608 62:0.3232 64:0.1728 65:0.0495999 66:0.00315152 69:0.0536889 71:0.0289454 74:0.0911998 75:0.0848001 77:0.0807999 79:0.0196 80:0.0109818 81:0.02912 84:0.1008 86:0.0144 87:0.174933 89:0.0746666 93:0.336 94:0.0870398 95:0.155734 96:0.2412 97:0.152 104:0.0603999 105:0.0624001 106:0.0522667 110:0.0728001 111:0.0608 112:0.1768 116:0.132 117:0.195513 118:0.07584 119:0.179657 124:0.064 125:0.0288 126:0.0693334 129:0.117333 130:0.0608 131:0.0807999 132:0.0586667 135:0.0686 136:0.0516571 142:0.032 145:0.03232 147:0.104 149:0.58256 150:0.032 152:0.013 154:0.2624 155:0.1152 156:0.17856 157:0.1792 158:0.0848001 160:0.03648 164:0.1144 165:0.0288 167:0.560001 168:0.1856 170:0.2032 172:0.028 173:0.0805331 174:0.274667 175:0.0943997 176:0.0848001 178:0.2496 179:0.0450286 183:0.244622 187:0.0572001 188:0.133333 189:0.0322133 190:0.193066 193:0.0608 196:0.0775998 198:0.0432 200:0.1272 202:0.124267 203:0.0703999 208:0.0493999 209:0.1152 210:0.1672 213:0.0912 214:0.0704001 215:0.1088 216:0.2272 217:0.235201 218:0.163698 219:0.0244 220:0.0309334 221:0.1152 222:0.1568 225:0.0703999 228:0.196267 231:0.00959998 236:0.0911998 240:0.0831999 241:0.0966399 242:0.0668801 243:0.0372 246:0.0703999 247:0.1664 251:0.0560001 252:0.1 254:0.2464 255:0.111466 258:0.136 262:0.0880001 263:0.0576 264:0.0549334 265:0.36608 266:0.553601 267:0.1648 268:0.0520001 271:0.358401 272:0.0576 273:0.0783999 274:0.1616 275:0.12288 276:0.2472 279:0.0656001 281:0.275199 282:0.0608 283:0.0608 286:0.0284235 289:0.0549334 291:0.416 292:0.0911998 295:0.0336 296:0.114133 297:0.0341715 298:0.04096 299:0.0938667 301:0.0768001 306:0.0707999 309:0.2184 310:0.1634 311:0.0743999 313:0.14144 314:0.244801 315:0.2184 316:0.1596 317:0.1152 318:0.0393143 319:0.1824 321:0.2016 322:0.5344 325:0.2128 327:0.0548 329:0.0783999 333:0.1456 334:0.0976003 338:0.0656001 340:0.0823999 342:0.0826668 345:0.1944 347:0.1096 353:0.0783999 354:0.178133 355:0.0607245 357:0.0677335 358:0.0488 359:0.1456 363:0.111543 366:0.120534 367:0.313599 368:0.216 369:0.0348 370:0.0322133 371:0.1984 372:0.217372 374:0.0166261 375:0.1056 376:0.0943997 380:0.113067 383:0.0884002 384:0.0970668 385:0.0373333 386:0.0767999 390:0.147782 391:0.0704001 393:0.117333 394:0.1024 396:0.0896 397:0.0976003 399:0.0736001 400:0.03456 401:0.0512 402:0.3488 404:0.1 405:0.0583999 407:0.3488 408:0.0768001 410:0.0186667 411:0.0583999 413:0.292159 414:0.1024 415:0.0208 418:0.0512 419:0.721601 421:0.044 422:0.0495999 423:0.2424 424:0.155569 427:0.1792 428:0.0512 429:0.0968002 430:0.0586667 432:0.1024 433:0.0656001 434:0.02816 435:0.1424 437:0.1504 439:0.3648 440:0.208 441:0.0476801 442:0.030125 443:0.0725334 445:0.7348 450:0.0631999 451:0.29376 452:0.2112 457:0.0346667 458:0.0831999 459:0.0472 460:0.192 461:0.0743999 466:0.165334 468:0.1648 469:0.0588 470:0.0308571 471:0.0768001 472:0.0936001 473:0.06208 475:0.231466 476:0.0123428 477:0.086109 481:0.0543999 483:0.0488 486:0.0735876 488:0.104 489:0.03184 491:0.107911 492:0.2128 493:0.0837817 496:0.22656 497:0.1272 499:0.4048 500:0.228267 
2 2:0.126924 5:0.283653 8:0.159856 20:0.430288 22:0.783655 24:0.105769 30:0.138221 33:0.10657 36:0.179487 37:0.0961538 42:0.0961538 44:0.173077 52:0.223557 57:0.141827 58:0.192308 60:0.302885 61:0.168269 63:0.194711 68:0.372115 72:0.204928 78:0.157051 79:0.0588942 81:0.175 82:0.193182 86:0.0432693 94:0.261538 95:0.233975 98:0.0997595 103:0.141827 107:0.333333 108:0.171154 112:0.354167 116:0.264423 118:0.0759615 120:0.0568338 124:0.0961538 127:0.0965908 128:0.173077 129:0.352563 132:0.352564 136:0.465659 138:0.325961 140:0.27484 142:0.0320513 152:0.15625 154:0.26282 159:0.27564 160:0.0548077 162:0.194711 163:0.0741761 165:0.0865384 171:0.966346 172:0.0841345 173:0.241986 177:1 185:0.211538 193:0.548078 196:0.233172 199:0.352563 200:0.382212 202:0.373398 205:0.21875 206:0.501373 213:0.0913461 219:0.0733172 232:0.182692 233:0.336539 234:0.600961 236:0.548075 239:0.173077 240:0.249999 246:0.211538 247:0.249999 249:0.399038 253:0.15024 254:0.370193 260:0.17548 262:0.264423 267:0.247596 271:0.269231 273:0.235576 274:0.242788 279:0.197116 284:0.0913461 289:0.165064 299:0.141026 305:0.323717 306:0.21274 308:0.274038 311:0.223557 313:0.425 314:0.245193 318:0.236263 321:0.908656 323:0.307692 324:0.195513 325:0.479568 327:0.329327 329:0.235576 333:0.21875 337:0.0874999 341:0.21875 343:0.151786 344:0.0560897 346:0.125 349:0.204327 352:0.0390625 353:0.471153 354:0.267628 357:0.203526 358:0.146634 362:0.173077 367:0.471153 371:0.298077 374:0.0499582 381:0.229808 387:0.362179 389:0.137019 393:0.176282 396:0.134615 399:0.221154 401:0.153846 402:0.262019 406:0.276442 411:0.17548 413:0.292627 414:0.307692 415:0.0625 416:0.183894 419:0.197116 420:0.0961538 424:0.233728 425:0.103402 426:0.2125 427:0.179487 428:0.153846 433:0.197116 443:0.217949 447:0.0945512 449:0.19391 450:0.379807 454:0.283653 458:0.249999 461:0.223557 470:0.185439 472:0.28125 473:0.0932692 474:0.130769 478:0.173077 479:0.224039 481:0.163461 485:0.270833 486:0.0442233 492:0.319711 494:0.132212 497:0.382212 498:0.774036 
0.3273074523777233 3:0.0825085 4:0.0102362 5:0.292079 7:0.0932345 8:0.219472 9:0.101839 10:0.0715072 11:0.0899344 14:0.237624 15:0.0641207 18:0.376237 19:0.125015 20:0.14769 22:0.0896593 23:0.189357 24:0.0726073 25:0.316832 27:0.273927 28:0.0995602 30:0.0474424 32:0.0280529 33:0.0365788 37:0.0330034 39:0.0577557 40:0.0561057 41:0.0995602 42:0.0660066 43:0.0899344 45:0.126238 46:0.224423 47:0.125412 49:0.0715074 52:0.0767328 53:0.186799 54:0.0532179 56:0.0660066 57:0.04868 59:0.0627064 61:0.115512 66:0.00975099 67:0.102723 68:0.127723 70:0.122772 71:0.059706 73:0.0330034 74:0.0940595 75:0.262377 76:0.234324 77:0.0833335 78:0.0269528 79:0.0606436 82:0.0331534 83:0.124279 84:0.103961 85:0.0518535 86:0.0148515 87:0.0902089 88:0.193619 89:0.0770078 90:0.145214 94:0.089769 95:0.0803085 96:0.0276403 97:0.0940595 100:0.0948848 101:0.161716 103:0.04868 104:0.0622938 105:0.257426 106:0.0539054 108:0.176238 110:0.0750828 111:0.125412 112:0.0607813 116:0.0907592 117:0.0824905 118:0.0782179 120:0.0390146 121:0.0334434 123:0.376237 124:0.09901 125:0.029703 126:0.0357537 130:0.0627064 131:0.25 133:0.0918593 134:0.237624 135:0.0707511 136:0.0532768 139:0.0798681 140:0.188669 142:0.0440044 143:0.0899344 144:0.0830583 145:0.0333334 148:0.0117345 149:0.0546206 150:0.049505 151:0.133333 152:0.067038 153:0.0849836 154:0.0902092 156:0.0920797 157:0.0924097 160:0.0188119 161:0.101485 163:0.0424329 164:0.117987 165:0.0594059 167:0.115512 168:0.382838 170:0.104786 172:0.0577557 173:0.0830583 176:0.174918 178:0.257426 179:0.0464405 180:0.117712 182:0.310231 183:0.0946095 184:0.107261 185:0.290429 186:0.0574648 187:0.176981 188:0.137514 189:0.0332234 193:0.125412 194:0.153465 195:0.134214 196:0.0800331 198:0.0445546 200:0.524753 206:0.172088 208:0.101898 209:0.0594061 210:0.0862212 213:0.0627062 214:0.0726073 217:0.121288 218:0.018759 219:0.05033 223:0.181518 224:0.39329 230:0.0932347 231:0.009901 233:0.231023 234:0.103136 235:0.0500552 236:0.0940595 237:0.0498144 239:0.0594059 243:0.0383664 245:0.0627064 247:0.171617 249:0.136964 251:0.057756 252:0.206271 253:0.0515678 256:0.0385038 257:0.0330033 259:0.0914196 260:0.0602311 261:0.029703 262:0.0907594 263:0.029703 264:0.0566559 266:0.190319 271:0.0924097 273:0.40429 274:0.25 275:0.0422444 276:0.339934 277:0.584157 282:0.0627064 283:0.125412 284:0.0940595 288:0.0384039 292:0.188118 293:0.0764789 295:0.0693069 296:0.117712 297:0.105729 298:0.0422444 299:0.193619 301:0.0792083 302:0.0503302 303:0.445545 304:0.419143 305:0.0555557 309:0.0750828 310:0.0561745 311:0.230198 312:0.122938 313:0.437624 314:0.0841589 316:0.164604 317:0.0594061 318:0.0810938 319:0.0627064 320:0.0561057 323:0.316832 326:0.0536303 328:0.0251651 334:0.100661 335:0.0792083 337:0.150165 338:0.0676571 340:0.169967 341:0.0375414 342:0.085259 343:0.0520982 345:0.0668318 346:0.0858087 350:0.291528 351:0.158416 352:0.0268152 353:0.161716 356:0.0594061 357:0.209572 358:0.0503302 359:0.150166 360:0.0536306 361:0.0973598 362:0.0594059 365:0.106931 368:0.334159 371:0.102311 375:0.0726073 378:0.115512 380:0.116612 381:0.157756 384:0.250275 385:0.019252 388:0.0858087 390:0.0381039 391:0.0363038 392:0.171617 393:0.302531 394:0.211221 396:0.0462047 397:0.201321 399:0.151815 400:0.0712871 404:0.206271 406:0.0948848 407:0.0899344 408:0.237624 409:0.0664783 410:0.019252 411:0.120462 412:0.101279 413:0.20088 414:0.105611 415:0.0214522 416:0.126238 418:0.0528054 419:0.270628 420:0.0330034 421:0.226898 422:0.0511552 423:0.0833335 425:0.106474 426:0.218812 427:0.0616064 428:0.0528054 429:0.149753 430:0.0605063 432:0.316832 433:0.0676571 434:0.0871288 437:0.077558 439:0.376238 440:0.107261 441:0.0491751 442:0.0103565 443:0.149615 444:0.341035 447:0.0324533 448:0.0682072 449:0.19967 450:0.0651816 451:0.10099 452:0.108911 457:0.0357537 459:0.04868 460:0.19802 462:0.325907 464:0.19622 465:0.0858087 466:0.085259 468:0.169967 469:0.080858 470:0.0636492 471:0.0792083 472:0.096535 474:0.089769 475:0.238724 477:0.0888091 478:0.029703 479:0.153796 480:0.076379 482:0.0861087 484:0.334653 485:0.185918 486:0.0455369 487:0.262377 488:0.107261 489:0.0328384 491:0.111295 492:0.109736 493:0.00720073 494:0.136139 495:0.169967 496:0.233664 500:0.058856 
0.7031560403602931 2:0.0157706 3:0.0896055 6:0.121736 7:0.0675031 8:0.119176 9:0.110599 10:0.155317 12:0.0172042 13:0.0976701 14:0.387096 15:0.0232121 16:0.362365 18:0.10215 19:0.135768 20:0.320788 21:0.204301 22:0.292115 23:0.137097 25:0.0860214 27:0.148745 28:0.108124 29:0.215054 34:0.0627239 36:0.0669055 40:0.182795 41:0.108124 42:0.0358422 43:0.0976701 45:0.0685482 46:0.162485 48:0.0396256 50:0.226523 52:0.166667 53:0.304302 54:0.0577955 55:0.206093 57:0.0528673 59:0.0681002 60:0.112903 62:0.0905015 64:0.0387096 65:0.166666 66:0.00352992 70:0.266666 73:0.0716846 74:0.204301 75:0.094982 76:0.38172 78:0.0292711 82:0.0360051 84:0.112903 85:0.0563137 86:0.016129 87:0.0489843 88:0.420549 89:0.167264 90:0.0788527 91:0.0905015 93:0.188172 94:0.0974905 98:0.0371863 99:0.125 102:0.184588 104:0.0676521 105:0.0698924 107:0.186379 108:0.0637991 111:0.136201 112:0.0660094 114:0.192721 116:0.0492831 117:0.0696782 119:0.301843 122:0.137096 125:0.0645161 128:0.032258 129:0.131421 130:0.0681002 131:0.271505 132:0.0657108 133:0.0498805 134:0.0645159 135:0.0768368 136:0.115719 139:0.0867379 141:0.211469 143:0.0976701 145:0.0362006 146:0.0681003 147:0.0582436 149:0.0593188 150:0.0537634 151:0.253405 156:0.1 159:0.205495 163:0.0184332 164:0.256273 165:0.0645161 167:0.125448 168:0.103942 169:0.731183 170:0.113799 172:0.0313619 173:0.0902026 178:0.139785 179:0.10087 180:0.127837 181:0.101852 182:0.168459 184:0.174731 185:0.157706 186:0.124816 187:0.064068 188:0.149343 190:0.108124 192:0.191935 193:0.0681002 194:0.0416665 196:0.173835 199:0.262843 200:0.142473 201:0.103046 202:0.139188 203:0.315412 204:0.0882613 205:0.0815411 207:0.169739 208:0.0553313 210:0.280913 211:0.0372361 213:0.0340501 214:0.0788531 216:0.25448 217:0.13172 218:0.0203726 219:0.0273297 223:0.394266 224:0.256272 225:0.157706 226:0.235484 228:0.109916 229:0.113159 232:0.204301 233:0.125448 234:0.112007 235:0.0543607 236:0.10215 239:0.0645161 240:0.0931896 242:0.0749103 243:0.0416665 244:0.103942 246:0.157706 247:0.55914 248:0.141577 249:0.148745 250:0.0358422 251:0.0627239 252:0.224014 253:0.0560034 255:0.12485 258:0.0380824 259:0.0992831 260:0.32706 262:0.197133 263:0.032258 264:0.184588 265:0.102509 266:0.310036 268:0.116488 270:0.0878132 271:0.200717 272:0.0645159 273:0.0878132 274:0.0905015 275:0.137634 279:0.146954 282:0.0681002 284:0.0681003 290:0.173579 291:0.349462 292:0.204301 293:0.0830573 294:0.13172 296:0.0639186 299:0.0525686 300:0.0633212 301:0.172043 302:0.0546593 304:0.303465 306:0.0793008 308:0.10215 313:0.158423 314:0.0913978 316:0.119176 317:0.0645159 318:0.0440347 319:0.136201 320:0.121864 321:0.33871 322:0.299283 324:0.0728794 326:0.0291218 327:0.0613797 328:0.0819891 329:0.0878132 330:0.182796 334:0.109319 336:0.0788531 338:0.146954 339:0.114297 340:0.184588 341:0.0815413 342:0.277778 343:0.0565795 344:0.0209079 351:0.0860214 352:0.0145609 353:0.0878132 354:0.0997606 357:0.0758661 358:0.163978 359:0.163082 361:0.105734 362:0.032258 363:0.124936 366:0.270013 367:0.175627 368:0.120968 370:0.0360811 374:0.0372448 375:0.0788531 377:0.26344 378:0.0627239 380:0.126643 381:0.0856629 383:0.297044 384:0.108722 385:0.0209079 386:0.0860215 387:0.0675027 391:0.157706 393:0.0657108 395:0.0603343 396:0.150537 397:0.218639 399:0.247312 401:0.172043 402:0.390682 403:0.0860214 405:0.196236 406:0.103046 407:0.195341 409:0.0721964 411:0.0654119 413:0.109079 417:0.376344 418:0.0573475 419:0.22043 420:0.0358422 421:0.147849 422:0.0555553 423:0.271505 425:0.115633 426:0.0792114 427:0.0669055 428:0.0573475 429:0.162635 431:0.155913 433:0.0734766 434:0.0630824 435:0.0797489 436:0.0919097 437:0.0842292 438:0.0562192 439:0.272401 440:0.232975 441:0.10681 443:0.0812424 444:0.0925925 445:0.374104 447:0.0352448 450:0.141577 451:0.0548386 452:0.354839 453:0.0810033 454:0.105734 456:0.317205 458:0.55914 460:0.0537634 461:0.083333 464:0.0710329 465:0.0931896 466:0.0925925 467:0.175115 468:0.0922935 469:0.0878136 471:0.172043 472:0.314516 474:0.194982 476:0.0276497 477:0.192897 478:0.032258 481:0.182795 483:0.0546593 484:0.0605733 486:0.0164846 490:0.244624 491:0.120868 494:0.0492831 495:0.0922935 496:0.0845878 497:0.284947 498:0.28853 499:0.151135 500:0.127837 
0.6898818699563315 1:0.0761814 3:0.144648 5:0.227579 6:0.26202 7:0.0726455 8:0.0320636 9:0.238049 10:0.0835745 11:0.0525555 12:0.00925744 13:0.0525555 14:0.347155 16:0.12999 17:0.204194 18:0.164898 19:0.146111 20:0.25892 21:0.146577 22:0.209579 23:0.0368852 24:0.0848602 25:0.0925749 26:0.138862 28:0.0581806 30:0.0277242 31:0.0732883 33:0.0427515 34:0.168756 35:0.00599463 36:0.0720026 37:0.0385728 38:0.0380906 39:0.0168756 40:0.0327868 41:0.174542 42:0.0771456 43:0.0525555 44:0.243008 45:0.110656 46:0.0874318 48:0.0213222 49:0.0417872 52:0.0896817 53:0.218323 54:0.0621985 55:0.0554484 56:0.0771456 58:0.0192864 59:0.146577 60:0.121504 61:0.0337512 62:0.0973962 64:0.0208293 65:0.209257 66:0.00379884 67:0.120058 68:0.223915 70:0.14349 72:0.0822083 73:0.0578592 74:0.0549661 76:0.136934 77:0.0973962 78:0.0787528 79:0.0590646 80:0.0132375 81:0.0351012 82:0.019374 83:0.145251 84:0.182257 85:0.0909058 86:0.00867889 87:0.0263581 88:0.113147 89:0.0900031 90:0.21215 91:0.194792 92:0.0559305 93:0.202507 94:0.104918 95:0.0938607 96:0.0161524 97:0.0183221 98:0.0200096 99:0.112102 100:0.0554484 102:0.0993248 104:0.145612 105:0.0376085 106:0.126004 107:0.0668594 108:0.0343298 109:0.0737017 110:0.219383 111:0.0732883 112:0.0710383 114:0.103701 115:0.0520733 116:0.106075 118:0.0457088 119:0.433118 122:0.221311 123:0.439729 124:0.0192864 125:0.0173577 127:0.0581221 128:0.0347155 130:0.109932 131:0.0486981 132:0.176792 133:0.0536805 134:0.0347155 135:0.165381 136:0.0311337 137:0.0173577 138:0.130761 139:0.233365 140:0.165381 141:0.113789 142:0.0257152 143:0.210222 144:0.194149 145:0.175313 146:0.0549662 150:0.0192864 151:0.0194792 153:0.0496624 154:0.263581 155:0.069431 156:0.0538092 157:0.162006 158:0.204436 159:0.0552876 161:0.0593057 162:0.0781098 163:0.0247969 164:0.137898 165:0.069431 166:0.135005 167:0.135005 168:0.279652 169:0.196721 170:0.0612344 171:0.0646093 173:0.145612 174:0.0331083 176:0.153327 178:0.0250723 179:0.0271387 180:0.206364 181:0.0548055 182:0.0302154 185:0.0848601 186:0.100743 187:0.0344745 188:0.04018 190:0.349084 191:0.048859 193:0.146577 194:0.0448408 195:0.235294 197:0.125522 199:0.141433 200:0.229991 201:0.166345 202:0.149791 203:0.16972 204:0.0474927 205:0.0438766 206:0.301694 207:0.0608899 208:0.148867 209:0.104146 210:0.0503856 211:0.0200364 212:0.0124397 213:0.0366441 214:0.0424301 215:0.131147 216:0.2054 217:0.496144 219:0.0735294 221:0.0520732 222:0.28351 223:0.106075 224:0.045966 226:0.0844746 227:0.108004 228:0.11829 229:0.030445 230:0.0544841 232:0.0732883 234:0.12054 235:0.117004 236:0.0549661 237:0.00970347 238:0.0438766 240:0.200578 241:0.203857 242:0.241852 243:0.0224204 244:0.279652 245:0.146577 246:0.16972 247:0.0501446 249:0.160077 250:0.0771456 251:0.101254 253:0.12054 254:0.148505 255:0.0671808 256:0.0225008 258:0.0409836 259:0.373964 260:0.0351976 262:0.0530377 263:0.069431 264:0.0662167 265:0.330955 266:0.222437 267:0.148987 269:0.0428159 270:0.0945032 271:0.054002 272:0.0347155 274:0.146094 275:0.0246866 276:0.0496624 277:0.0568947 278:0.303953 279:0.0395372 280:0.0761171 283:0.0732883 284:0.0183221 286:0.0171309 287:0.0362584 289:0.0331083 291:0.0626809 292:0.219864 293:0.0893849 295:0.0405014 296:0.103182 297:0.0411903 298:0.0987464 299:0.141434 300:0.0340726 301:0.18515 302:0.0294117 303:0.0867889 305:0.0649308 309:0.0438766 310:0.032827 311:0.0896817 312:0.215526 313:0.042623 314:0.344263 315:0.13163 316:0.128255 320:0.0327868 321:0.121504 323:0.0617165 324:0.0196079 325:0.0320636 326:0.0156702 327:0.0330279 328:0.0294117 329:0.141755 330:0.196722 331:0.0291224 334:0.0588237 335:0.138862 336:0.0424301 337:0.0526518 338:0.158149 339:0.0307511 340:0.148987 342:0.0996466 343:0.030445 345:0.117165 346:0.100289 347:0.264224 348:0.0790742 349:0.163934 351:0.231437 353:0.141755 356:0.138862 357:0.163292 358:0.0588235 359:0.0877532 360:0.0313404 361:0.113789 362:0.0520732 363:0.10084 364:0.0121229 365:0.0416586 366:0.145291 367:0.330761 368:0.0650917 369:0.0629219 371:0.478304 372:0.327525 373:0.0607522 374:0.0100205 375:0.0212151 376:0.227579 378:0.202507 379:0.0708777 380:0.204436 381:0.138284 382:0.160399 383:0.159836 384:0.0585021 385:0.0225008 386:0.0231437 387:0.0726454 388:0.0501446 389:0.164899 390:0.00742236 391:0.0212151 392:0.150434 393:0.0707169 394:0.0617165 395:0.162327 398:0.182835 400:0.0416586 401:0.185149 402:0.157667 403:0.138862 405:0.0351976 406:0.277242 407:0.157667 409:0.0776966 410:0.0337512 411:0.0703953 413:0.0586948 414:0.308582 416:0.110656 419:0.0790744 420:0.0578592 421:0.0265188 422:0.0896817 423:0.0486981 424:0.140643 425:0.0207403 426:0.085246 427:0.0360013 428:0.0308582 429:0.0291707 430:0.0707169 431:0.251686 432:0.185149 433:0.197686 435:0.0858245 436:0.0494559 437:0.226615 438:0.121004 440:0.0626809 441:0.0287368 443:0.0437159 445:0.120781 447:0.0568948 448:0.0797173 449:0.0388942 450:0.0761811 452:0.12729 453:0.0871745 454:0.0568947 455:0.0520733 458:0.0501446 460:0.144648 461:0.179363 462:0.0380906 464:0.0191111 465:0.100289 467:0.0235569 468:0.148987 469:0.0708775 470:0.0371952 472:0.169238 474:0.052459 475:0.139505 476:0.0297561 477:0.259489 478:0.0867887 479:0.179749 481:0.163934 483:0.0588235 484:0.195564 485:0.16297 486:0.0177405 487:0.051109 488:0.0626809 490:0.0877532 491:0.0650381 492:0.0641273 493:0.00420794 495:0.148987 496:0.091032 497:0.0766635 498:0.388138 499:0.0813244 500:0.103182 
0.07955907733146751 2:0.0589288 3:0.111607 4:0.0138462 6:0.151627 12:0.085714 14:0.160714 15:0.0289115 17:0.283593 18:0.127232 19:0.169104 20:0.998881 22:0.24256 25:0.107143 28:0.134672 29:0.107143 30:0.064174 32:0.0379464 36:0.25 39:0.15625 40:0.0758927 41:0.134672 45:0.256138 46:0.10119 48:0.0493551 49:0.0967262 50:0.141071 51:0.107813 52:0.103794 53:0.252679 56:0.133929 57:0.0658481 60:0.140625 61:0.078125 62:0.225446 64:0.144643 65:0.0691963 66:0.0175866 67:0.13895 71:0.0403814 73:0.0446428 74:0.127232 75:0.118304 76:0.158482 77:0.338169 81:0.0406249 83:0.168108 84:0.140625 85:0.210423 86:0.0401787 89:0.104166 90:0.098214 91:0.225446 94:0.242857 96:0.0747768 98:0.0463169 99:0.0518972 101:0.21875 103:0.0658481 104:0.0842632 106:0.0364583 108:0.158929 109:0.0568665 110:0.304688 111:0.0848213 112:0.246652 114:0.0800136 118:0.0352678 119:0.125319 121:0.045238 124:0.0892858 125:0.0803572 127:0.0448457 129:0.16369 131:0.112723 133:0.124256 134:0.080357 138:0.151339 139:0.108035 140:0.127604 141:0.131696 142:0.0148809 143:0.121652 144:0.112351 150:0.0669643 151:0.0901786 155:0.080357 156:0.124554 158:0.118304 161:0.0457589 163:0.0114796 164:0.159598 165:0.0803572 166:0.078125 167:0.15625 168:0.129464 169:0.227678 171:0.299107 172:0.078125 173:0.112351 174:0.306548 175:0.131696 178:0.0580357 179:0.0628188 180:0.159226 182:0.0699404 184:0.0725446 188:0.0930058 191:0.452382 193:0.0848213 195:0.181547 196:0.216518 197:0.290551 198:0.0602678 201:0.256697 202:0.520091 203:0.196429 205:0.304688 206:0.349171 209:0.160714 210:0.233259 214:0.0982145 216:0.316965 217:0.492189 218:0.0253748 219:0.136161 221:0.0401785 222:0.109375 224:0.106399 225:0.294643 226:0.48884 227:0.125 228:0.136905 230:0.126116 231:0.0133928 232:0.0848213 233:0.312501 236:0.254464 237:0.0224609 239:0.0401785 243:0.0518972 246:0.196429 251:0.078125 253:0.0697544 255:0.155505 256:0.0260416 258:0.047433 260:0.081473 262:0.245536 263:0.0803572 265:0.127679 266:0.386162 268:0.14509 269:0.198215 270:0.109375 271:0.125 273:0.21875 274:0.112723 276:0.229911 278:0.175892 279:0.0915179 282:0.169643 290:0.108099 292:0.381696 298:0.228571 299:0.392859 300:0.0788689 301:0.107143 304:0.377977 305:0.150298 306:0.0987721 307:0.0762867 308:0.127232 310:0.0759857 311:0.103794 314:0.113839 316:0.0742186 317:0.160714 319:0.0848213 320:0.0758927 321:0.140625 325:0.0742186 327:0.0764507 333:0.203125 336:0.0982145 337:0.08125 338:0.366072 343:0.0704719 344:0.0260416 346:0.232143 347:0.152902 348:0.0457589 350:0.197172 351:0.107143 353:0.21875 354:0.124256 355:0.021179 356:0.080357 357:0.188989 358:0.0680802 363:0.0778061 365:0.0482142 366:0.168155 367:0.109375 368:0.15067 371:0.138393 373:0.140625 374:0.0695846 375:0.147322 379:0.164063 380:0.157738 381:0.213393 386:0.0535713 388:0.232143 389:0.127232 390:0.0515423 391:0.0491071 393:0.163691 396:0.0624999 399:0.102679 400:0.0482142 401:0.142857 405:0.081473 406:0.256697 408:0.107143 409:0.179847 411:0.162946 414:0.285715 418:0.0714285 419:0.0915179 420:0.0446428 422:0.207589 428:0.0714285 429:0.27009 430:0.0818452 431:0.194195 433:0.183036 435:0.0993303 436:0.114477 440:0.0725446 441:0.0665179 442:0.014009 447:0.0438987 448:0.092262 450:0.0881694 451:0.0683036 457:0.0483631 460:0.200893 461:0.311384 462:0.0881694 463:0.113839 465:0.116071 467:0.218112 468:0.114955 469:0.0546875 470:0.172194 471:0.107143 472:0.261161 473:0.129911 474:0.0607142 475:0.322917 478:0.0401785 479:0.312054 482:0.232954 483:0.0680802 484:0.0754463 485:0.251488 486:0.0205322 487:0.118304 489:0.266518 490:0.304688 496:0.105357 497:0.177455 498:0.539061 499:0.376489 500:0.238839 
0.2850353332267032 1:0.272415 2:0.012138 3:0.137931 4:0.0684484 5:0.162758 6:0.234237 7:0.0519541 8:0.0917241 9:0.127685 10:0.0298851 11:0.0751725 13:0.0375862 14:0.0993102 15:0.00893267 16:0.139449 17:0.116827 18:0.0786205 19:0.156743 21:0.157241 22:0.149885 23:0.0263793 26:0.0993107 27:0.0572413 28:0.124828 29:0.0827587 31:0.0786208 32:0.175862 33:0.0305747 34:0.0241379 35:0.00857439 36:0.0514943 37:0.0137931 39:0.0362069 40:0.211034 41:0.124828 42:0.0137931 43:0.0375862 44:0.223448 45:0.316552 46:0.250115 48:0.0762454 49:0.0896555 50:0.0435862 51:0.0888276 52:0.0641378 53:0.0780691 54:0.0889654 55:0.0396552 56:0.0551724 57:0.0610346 58:0.0275862 59:0.0524138 60:0.130345 61:0.0241379 62:0.104483 64:0.223448 65:0.149655 66:0.00815047 67:0.171724 68:0.160138 69:0.0347127 70:0.153931 71:0.0374295 72:0.0587931 74:0.117931 75:0.292414 76:0.0979311 77:0.313448 78:0.0788506 79:0.00844827 80:0.0189342 81:0.0125517 82:0.0138558 83:0.311638 84:0.130345 85:0.0216711 86:0.0186207 87:0.0377011 88:0.0404597 89:0.16092 93:0.144828 94:0.0750343 96:0.115517 97:0.0262069 98:0.0286207 99:0.0962068 100:0.118966 102:0.0710344 103:0.0203448 104:0.0260344 105:0.134483 106:0.0337932 107:0.023908 108:0.0245517 109:0.0702792 110:0.0313793 111:0.131035 112:0.101609 113:0.133202 114:0.0247215 115:0.26069 116:0.0758621 118:0.0326897 119:0.348473 122:0.211034 123:0.0393102 124:0.0137931 125:0.0248276 128:0.062069 129:0.0505746 130:0.104828 131:0.13931 132:0.0505748 133:0.0575864 134:0.0248276 135:0.325259 136:0.0667981 137:0.0124138 140:0.0788506 141:0.0406895 143:0.0751725 144:0.0347125 145:0.013931 146:0.0131034 147:0.0896552 148:0.00490421 149:0.0228276 150:0.00689655 152:0.00560344 153:0.0710344 155:0.19862 156:0.461794 157:0.154483 158:0.109656 159:0.0790803 160:0.0157241 162:0.027931 164:0.0493104 165:0.0248276 166:0.0482759 167:0.724137 168:0.16 169:0.14069 170:0.0437932 172:0.012069 174:0.213104 175:0.162758 176:0.0365518 177:0.086069 178:0.125517 179:0.0388177 181:0.117587 182:0.108046 183:0.105441 184:0.0448276 185:0.0606896 186:0.0240162 187:0.123276 188:0.0862071 189:0.0277701 190:0.0832183 191:0.104828 192:0.0738622 193:0.0524138 194:0.0320689 195:0.0560919 196:0.0668964 197:0.17954 198:0.0558622 199:0.101149 200:0.219311 201:0.0396552 202:0.107127 203:0.0303448 204:0.101897 205:0.188276 206:0.0359605 207:0.0217734 208:0.0638794 209:0.297931 210:0.180172 211:0.028659 213:0.0262069 214:0.0151724 215:0.093793 216:0.146897 217:0.202759 218:0.266559 219:0.0105172 220:0.253333 221:0.0744827 222:0.033793 223:0.0379311 224:0.131494 226:0.181242 227:0.0386208 228:0.338392 230:0.0389655 232:0.0786208 233:0.0965518 234:0.0862069 237:0.00693965 238:0.0313793 239:0.0372414 240:0.143448 241:0.0208276 243:0.112241 244:0.24 245:0.209655 246:0.0303448 247:0.035862 250:0.0275862 251:0.072414 253:0.0215517 254:0.0531035 255:0.0480459 256:0.024138 258:0.0586207 259:0.114621 260:0.0755173 261:0.0248276 262:0.151724 264:0.0236782 265:0.23669 266:0.0795404 267:0.0355172 268:0.0448276 269:0.0918624 270:0.0675861 271:0.0386208 272:0.0248276 273:0.033793 274:0.13931 275:0.088276 276:0.106552 277:0.0813791 278:0.0543446 279:0.169655 280:0.0544368 281:0.0395401 282:0.0262069 283:0.0524138 284:0.0524138 286:0.024503 287:0.0129655 288:0.0802508 291:0.0448276 292:0.0786205 293:0.127851 294:0.0506898 295:0.0289655 296:0.196781 298:0.0176552 299:0.0606898 300:0.121839 301:0.331035 302:0.0631036 303:0.186207 305:0.0464367 306:0.0915518 307:0.02357 308:0.196552 310:0.0704311 314:0.211035 316:0.045862 317:0.322758 319:0.0524138 320:0.093793 321:0.0868966 322:0.115172 325:0.022931 327:0.0472413 328:0.0105172 330:0.0351725 331:0.0416551 332:0.0215517 334:0.0420691 336:0.0606897 338:0.197932 339:0.131954 340:0.142069 341:0.0470691 342:0.0356322 343:0.0217734 345:0.027931 346:0.0358621 347:0.094483 348:0.0282758 349:0.0586207 350:0.243677 351:0.165518 353:0.168965 355:0.0719795 356:0.173793 357:0.0291955 358:0.0420689 359:0.125517 362:0.0124138 363:0.0721184 364:0.00866994 365:0.163862 366:0.155863 367:0.101379 368:0.0931035 369:0.03 370:0.0416552 371:0.128276 372:0.140543 373:0.0434483 374:0.0286657 375:0.0455174 377:0.0675861 378:0.072414 380:0.341151 381:0.164828 382:0.229426 383:0.152414 384:0.167356 385:0.0160919 386:0.0993102 387:0.025977 388:0.17931 389:0.0393104 390:0.0477744 391:0.0758622 392:0.143448 393:0.0758623 394:0.0882758 395:0.0232184 396:0.0193103 398:0.0435862 399:0.0634483 400:0.0148965 401:0.0882758 402:0.0751725 403:0.198621 404:0.0862069 405:0.0503447 406:0.198276 407:0.0375862 409:0.0833499 411:0.151034 412:0.0423275 413:0.0839538 414:0.132414 415:0.00448276 416:0.158276 418:0.176552 419:0.0848279 420:0.0827586 421:0.0379311 422:0.0855171 423:0.104483 424:0.134112 426:0.121931 428:0.132414 429:0.0625864 430:0.10115 431:0.239999 432:0.0441379 433:0.0848279 434:0.0121379 435:0.0306897 436:0.141478 437:0.129655 438:0.0432695 440:0.0224138 441:0.082207 442:0.0649244 444:0.0712645 445:0.172759 446:0.0468965 447:0.0271264 449:0.0556321 450:0.0544826 451:0.147724 452:0.0455173 453:0.155862 454:0.203448 455:0.0744828 456:0.305174 457:0.0149425 458:0.17931 459:0.0203448 460:0.0620692 461:0.128276 462:0.0272413 463:0.105518 466:0.106897 467:0.0168473 468:0.106552 469:0.00844827 470:0.0399015 471:0.066207 472:0.0403449 473:0.0133793 475:0.149655 476:0.00532018 477:0.0371159 479:0.0642759 480:0.079803 481:0.093793 482:0.215924 483:0.0420689 484:0.0932414 485:0.194253 486:0.0888126 488:0.0896552 489:0.0274482 490:0.282414 491:0.139541 493:0.0391222 494:0.0189655 495:0.0710344 496:0.0651036 497:0.109655 498:0.055517 499:0.0581609 500:0.172184 
0.7576314113484733 1:0.193746 2:0.0431639 3:0.183936 5:0.325566 6:0.208242 8:0.101931 9:0.0378383 10:0.106274 11:0.0668302 12:0.0176578 13:0.100245 14:0.0882892 16:0.289271 17:0.0778967 18:0.139791 19:0.185797 20:0.219497 21:0.116493 23:0.0469037 25:0.0294299 26:0.0294299 27:0.101778 28:0.0369916 29:0.132434 30:0.0352544 33:0.0135908 35:0.0114343 36:0.0686695 37:0.0245248 38:0.0726546 40:0.145923 41:0.0369916 42:0.0245248 43:0.13366 44:0.0441446 45:0.0234519 46:0.0555896 47:0.0465971 49:0.0265686 50:0.0774983 51:0.00987125 52:0.0285101 53:0.173513 54:0.0197731 55:0.0705088 56:0.061312 58:0.0122624 59:0.0698957 60:0.154506 61:0.0643777 62:0.0928876 63:0.0248314 64:0.0132434 65:0.152054 66:0.00120766 67:0.0381667 68:0.094911 70:0.410545 71:0.0110919 72:0.0261343 73:0.0122624 74:0.209687 75:0.0974862 76:0.130595 77:0.12385 78:0.0400572 79:0.00751073 80:0.00841649 81:0.0669526 82:0.0492725 83:0.0923513 84:0.11588 85:0.0577984 86:0.0165543 87:0.0167586 88:0.251788 89:0.0572245 90:0.215818 91:0.12385 92:0.106683 93:0.193133 94:0.133415 95:0.0895157 96:0.0102698 98:0.0127223 99:0.0427651 100:0.141018 101:0.150214 102:0.157878 104:0.092581 105:0.0239117 106:0.0801145 107:0.0212548 108:0.109135 109:0.03124 110:0.139485 111:0.0698957 112:0.0451665 113:0.0148025 114:0.10989 115:0.0331086 116:0.0843041 118:0.0581238 119:0.103267 120:0.0289918 121:0.0248518 122:0.0938073 123:0.104843 124:0.061312 125:0.0331085 126:0.0398528 127:0.0369544 128:0.0551808 129:0.134886 130:0.0931942 131:0.0928876 132:0.0449622 133:0.0341304 134:0.0662169 135:0.10515 136:0.059385 138:0.166278 139:0.17805 140:0.17525 141:0.18087 142:0.0204373 143:0.100245 144:0.123441 145:0.04954 146:0.0232986 147:0.0398528 149:0.0202943 150:0.0183936 152:0.00498161 153:0.0315757 154:0.0670344 155:0.154506 156:0.171061 157:0.171674 158:0.0974862 160:0.0279583 161:0.0502758 162:0.074494 163:0.00945959 164:0.263029 165:0.0220723 166:0.0429184 167:0.171674 168:0.177805 169:0.500307 170:0.194666 172:0.0214592 173:0.246883 174:0.0842019 175:0.108522 176:0.194972 177:0.0255058 180:0.437359 181:0.0696913 182:0.115267 184:0.119559 185:0.107909 186:0.064053 187:0.0657572 188:0.127733 189:0.0246883 190:0.332924 191:0.0621296 192:0.13133 193:0.0698957 194:0.0570201 195:0.249335 196:0.178418 197:0.159616 198:0.0331085 199:0.179848 200:0.292459 201:0.0705088 202:0.428573 203:0.0539545 204:0.0603922 205:0.083691 206:0.0319699 207:0.0774283 208:0.0757202 209:0.110362 210:0.0961063 211:0.0127393 214:0.0674433 215:0.166768 216:0.391785 217:0.315452 219:0.0374003 220:0.0237073 222:0.240343 223:0.134887 224:0.0584508 225:0.134886 226:0.0268548 227:0.0343349 228:0.150419 229:0.0774283 230:0.0346414 231:0.00367872 232:0.232986 233:0.171674 234:0.0383201 235:0.055794 236:0.0698955 237:0.0308476 238:0.083691 239:0.0110362 240:0.318822 241:0.0925811 242:0.0768854 243:0.0855301 244:0.0711218 245:0.139791 247:0.127529 250:0.0122624 251:0.0429184 252:0.07664 253:0.0958 254:0.330473 255:0.170856 256:0.0429184 257:0.00613121 258:0.0130288 259:0.203802 260:0.111894 262:0.0337217 263:0.0110362 264:0.147354 265:0.175352 266:0.0707133 267:0.157878 268:0.119559 269:0.0272226 270:0.150214 271:0.206009 272:0.110362 273:0.120171 274:0.0619251 275:0.141263 276:0.0947269 277:0.108522 278:0.0483138 279:0.0502759 280:0.120989 281:0.105456 282:0.0465971 283:0.16309 284:0.0349478 285:0.0346413 287:0.0461066 289:0.0210505 291:0.119559 292:0.139791 293:0.19891 294:0.315452 295:0.025751 296:0.0437359 297:0.0392835 298:0.0313917 299:0.0179849 300:0.0649907 301:0.206009 302:0.168302 303:0.165543 304:0.051911 305:0.0412834 306:0.054261 307:0.0419086 308:0.0698955 310:0.0208716 311:0.0570201 312:0.319743 313:0.1084 314:0.0625384 315:0.111588 317:0.154506 318:0.0753261 319:0.0465971 320:0.0416921 321:0.309013 322:0.0767933 323:0.0784794 324:0.0124668 325:0.0203863 326:0.0597792 328:0.00935009 329:0.120171 330:0.0938076 332:0.01916 333:0.111588 334:0.336604 335:0.176579 336:0.0269773 337:0.0892704 338:0.0502759 339:0.0586551 340:0.284181 341:0.027897 342:0.126712 343:0.0193571 344:0.00715308 345:0.17382 346:0.0318823 347:0.209994 348:0.012569 349:0.0781728 350:0.216635 351:0.206009 353:0.180257 354:0.0341303 356:0.110362 357:0.0259555 359:0.167382 360:0.0996321 361:0.108522 362:0.0772532 363:0.170973 365:0.0397302 366:0.230942 367:0.240343 368:0.331086 369:0.0133354 370:0.0123442 371:0.152054 372:0.208242 373:0.0772532 374:0.0127422 375:0.0539546 376:0.144696 377:0.150214 378:0.0643777 379:0.270387 380:0.216636 381:0.117229 382:0.203965 383:0.1355 385:0.0143061 386:0.0294297 387:0.0692825 388:0.0318822 389:0.017474 391:0.0809319 392:0.0956466 393:0.0224811 394:0.196198 395:0.0412834 396:0.0343347 397:0.112201 398:0.213121 399:0.0282036 400:0.105947 401:0.0196199 402:0.200491 403:0.0882894 404:0.22992 405:0.0223789 406:0.0352545 407:0.334151 408:0.0294299 410:0.0143061 411:0.0895154 412:0.150521 413:0.111955 414:0.117719 416:0.0703555 417:0.171674 418:0.0588595 419:0.100552 420:0.0490496 421:0.0168608 422:0.152054 423:0.0619251 424:0.149035 426:0.1355 427:0.114449 428:0.0784794 430:0.0449622 431:0.160024 432:0.156959 433:0.276518 434:0.0215818 435:0.109135 436:0.125777 437:0.144083 438:0.0577014 439:0.32618 440:0.0199265 441:0.127897 442:0.00769594 443:0.0277948 444:0.031678 445:0.153587 446:0.0833842 447:0.0482321 448:0.0253424 449:0.0494583 450:0.0242182 451:0.0562845 452:0.121398 454:0.253218 455:0.132434 456:0.162784 457:0.0531371 458:0.0318822 459:0.0542611 460:0.0183936 461:0.14255 462:0.0968728 463:0.0625384 464:0.0121509 465:0.127529 466:0.0633559 467:0.0449329 468:0.189454 469:0.0600858 470:0.0591222 471:0.0588596 472:0.14347 473:0.0475781 474:0.100061 475:0.266094 476:0.0189191 477:0.395964 478:0.0110362 479:0.171429 480:0.0283787 481:0.0833842 482:0.0639873 484:0.0828938 485:0.0345391 487:0.0974862 488:0.398529 489:0.0244022 490:0.083691 491:0.0827032 492:0.0815449 494:0.0168608 497:0.194972 498:0.148068 499:0.155119 500:0.0437359 
2 2:0.0351299 3:0.0998005 7:0.0751831 8:0.0663673 10:0.0432469 12:0.0191616 14:0.143713 15:0.0258531 16:0.134531 17:0.0845308 18:0.113772 20:0.178643 22:0.10845 24:0.0439123 26:0.0958086 27:0.165669 29:0.0479042 31:0.151697 32:0.0339322 33:0.0442449 34:0.139721 36:0.149035 37:0.0798404 38:0.0788423 39:0.0349301 40:0.203592 45:0.305389 46:0.0904859 47:0.151697 49:0.0864939 51:0.0321358 54:0.0643712 57:0.0588823 58:0.0399202 60:0.251498 61:0.0698604 62:0.100798 65:0.123752 66:0.00393154 67:0.124251 70:0.148503 71:0.0722192 72:0.17016 73:0.199601 74:0.113772 75:0.105789 78:0.0326015 79:0.0978043 81:0.0363274 82:0.0802032 83:0.150325 85:0.0627209 86:0.0179641 90:0.0878243 93:0.104791 94:0.108583 95:0.194279 96:0.200598 97:0.189621 98:0.0414172 99:0.0464072 100:0.114771 108:0.0710579 109:0.0508508 110:0.0908185 116:0.109781 117:0.0332596 118:0.031537 124:0.0798404 126:0.0432469 128:0.0359282 129:0.146374 130:0.151697 132:0.146374 133:0.0555557 134:0.0718563 136:0.0644425 138:0.270658 139:0.0966067 141:0.117764 142:0.0266135 146:0.0379242 147:0.0648704 148:0.0141938 150:0.0199601 151:0.0403194 154:0.109115 155:0.0718563 158:0.317365 159:0.114438 161:0.0409182 162:0.161677 163:0.0307956 166:0.0698604 167:0.139721 168:0.115768 173:0.100466 174:0.205589 175:0.235529 177:0.0830339 178:0.103793 179:0.112347 182:0.125083 183:0.0762919 186:0.0695082 188:0.166334 190:0.120426 191:0.101131 192:0.0712576 193:0.0758483 197:0.259814 200:0.158683 201:0.114771 203:0.175649 205:0.0908185 212:0.051497 213:0.0379242 214:0.131737 216:0.141717 217:0.146707 218:0.363047 219:0.0304391 221:0.0359282 223:0.219561 224:0.0951432 225:0.0878243 227:0.111777 228:0.122422 229:0.0630169 230:0.112775 232:0.0758483 237:0.0602544 239:0.0359282 243:0.139221 246:0.0878243 247:0.103792 249:0.497005 253:0.124751 255:0.27811 258:0.0848305 259:0.110579 261:0.0359282 263:0.0359282 265:0.114172 269:0.0886229 270:0.195609 271:0.111777 272:0.0718563 273:0.0978043 275:0.102196 277:0.235529 278:0.157285 280:0.157552 283:0.0758483 284:0.0379242 287:0.07505 288:0.0464525 290:0.193328 291:0.129741 293:0.185014 296:0.071191 298:0.204391 299:0.292748 301:0.191617 305:0.134398 307:0.136433 308:0.113772 309:0.181637 311:0.0928144 313:0.0882238 314:0.203593 317:0.143713 318:0.0980896 320:0.0678643 321:0.251498 322:0.166667 323:0.255489 324:0.0405856 325:0.0663673 328:0.0304391 335:0.191617 336:0.0878245 340:0.205589 341:0.0908185 342:0.309382 346:0.103793 349:0.254491 350:0.176314 351:0.0958086 352:0.0162176 353:0.195609 354:0.333333 356:0.0718563 357:0.0844979 358:0.121757 359:0.54491 361:0.117764 362:0.0359282 363:0.139151 364:0.0501854 365:0.0431138 366:0.451099 367:0.0978043 368:0.134731 369:0.130239 370:0.0803726 371:0.123753 373:0.251498 375:0.0439123 377:0.391217 378:0.139721 380:0.282104 381:0.0954093 382:0.166002 383:0.11028 385:0.0232868 386:0.0479042 388:0.103792 389:0.0568863 390:0.153633 391:0.131737 392:0.103792 393:0.365935 398:0.0630739 400:0.0431138 401:0.191617 402:0.217565 403:0.0958086 405:0.145709 406:0.114771 407:0.217565 409:0.160821 410:0.0698602 411:0.0728543 412:0.122505 414:0.127745 417:0.139721 419:0.245509 420:0.0399202 421:0.109781 422:0.185628 423:0.201597 424:0.0970369 425:0.0858591 427:0.149035 429:0.0603794 430:0.146374 431:0.173652 432:0.127745 433:0.0818366 435:0.177645 437:0.0938125 441:0.118962 442:0.012527 444:0.103127 445:0.0833334 446:0.135729 448:0.0825019 449:0.0805057 450:0.157685 451:0.061078 452:0.131737 453:0.0902196 455:0.107785 456:0.353295 457:0.0432469 458:0.103792 460:0.119761 461:0.0928144 463:0.203593 464:0.0395573 465:0.103792 466:0.103127 467:0.0487596 468:0.308383 469:0.0489022 470:0.0769889 471:0.0958086 472:0.116767 474:0.162874 475:0.144378 476:0.0461932 477:0.107422 482:0.104155 483:0.0608783 484:0.13493 485:0.337325 486:0.0367204 487:0.105789 488:0.389222 489:0.0794411 491:0.13462 492:0.132735 493:0.0870985 495:0.205589 497:0.317366 498:0.321357 499:0.16833 500:0.071191 
1.893042153806532 1:0.262024 2:0.0437812 6:0.112651 7:0.0312327 8:0.0551408 9:0.204691 11:0.0903813 12:0.0796017 13:0.0903813 18:0.0945269 21:0.063018 23:0.0634326 24:0.0364842 28:0.100055 29:0.0796019 31:0.252073 32:0.0281923 34:0.174129 35:0.0103091 36:0.185738 37:0.0331674 41:0.100055 43:0.0903813 44:0.119403 45:0.253731 46:0.0751795 48:0.146674 49:0.0718628 51:0.0533997 52:0.462686 53:0.187729 54:0.267412 56:0.0331674 57:0.195688 58:0.0331674 59:0.063018 61:0.232173 62:0.0837476 64:0.0716418 65:0.0514094 66:0.052264 67:0.206467 71:0.060003 72:0.0706881 73:0.165837 74:0.189054 75:0.0878937 76:0.235489 78:0.135434 79:0.020315 81:0.0905471 83:0.124896 84:0.208955 85:0.0521112 88:0.291873 89:0.0773905 90:0.0729682 91:0.251243 92:0.192371 93:0.0870645 94:0.270646 95:0.161416 98:0.0344112 99:0.0771144 101:0.08126 102:0.0854059 103:0.195688 104:0.0626034 105:0.19403 108:0.0590379 109:0.042249 110:0.0754559 113:0.0400378 116:0.228027 118:0.0524047 121:0.0672195 122:0.126865 124:0.13267 125:0.0298506 126:0.0359314 128:0.0895521 130:0.063018 131:0.251243 132:0.060807 133:0.230791 134:0.119403 136:0.0535416 138:0.112437 139:0.0802649 140:0.0948035 141:0.0978436 142:0.0221117 143:0.0903813 145:0.033499 146:0.031509 149:0.054892 150:0.066335 151:0.167496 152:0.0134742 153:0.0854059 154:0.181315 155:0.179104 156:0.0925373 159:0.0950797 162:0.0671639 163:0.0170576 164:0.474296 165:0.0895521 166:0.058043 167:0.116086 169:0.169154 171:0.111111 172:0.0290215 173:0.0834711 174:0.113875 175:0.0978436 177:0.137977 178:0.0431177 179:0.0466713 181:0.0942507 182:0.0519622 185:0.0729682 186:0.115501 187:0.118574 188:0.138198 189:0.0333885 191:0.0840243 193:0.063018 194:0.0385571 195:0.134881 196:0.0804308 198:0.134328 199:0.243228 202:0.1288 206:0.259417 209:0.0597013 212:0.021393 213:0.0945272 216:0.117744 217:0.121891 219:0.101161 225:0.0729682 226:0.0726368 228:0.101714 231:0.109452 232:0.252073 233:0.348259 234:0.103648 235:0.0503039 237:0.0166873 238:0.0754559 240:0.0862351 242:0.277281 245:0.063018 246:0.145937 247:0.0862351 249:0.27529 250:0.0331674 251:0.116086 252:0.103648 253:0.103648 255:0.115533 256:0.0193476 257:0.0497512 258:0.0352404 260:0.0605304 262:0.182421 263:0.119403 264:0.0569374 265:0.0948589 266:0.0956329 267:0.0854059 269:0.147264 271:0.0928689 272:0.119403 275:0.0424543 276:0.256218 279:0.135987 280:0.0654504 281:0.38032 289:0.22775 290:0.160625 293:0.230577 295:0.0348257 296:0.236595 297:0.0708364 299:0.0486455 301:0.0796019 302:0.101161 304:0.140409 305:0.167496 307:0.113355 310:0.169361 311:0.0771141 313:0.219901 315:0.0754559 317:0.298507 319:0.063018 320:0.0563845 321:0.208955 322:0.0692369 323:0.106136 325:0.0551408 328:0.0252901 329:0.08126 332:0.0518241 333:0.0754559 336:0.0364842 337:0.0301823 338:0.0679933 340:0.0854059 342:0.0856826 343:0.261786 346:0.215589 347:0.113599 348:0.0339966 350:0.146489 351:0.0796019 352:0.0134742 353:0.08126 356:0.119403 357:0.210614 358:0.101161 360:0.0538971 361:0.195688 362:0.0597015 363:0.173419 364:0.0416963 365:0.0716418 367:0.08126 368:0.11194 369:0.0721393 371:0.205639 372:0.112651 373:0.313433 374:0.206792 375:0.109453 376:0.0978436 382:0.137922 383:0.183251 384:0.0503039 386:0.119403 388:0.258706 390:0.051058 393:0.121614 394:0.106136 396:0.139303 397:0.101161 398:0.104809 399:0.152571 401:0.0530678 402:0.0903813 406:0.190713 408:0.0796019 409:0.200426 411:0.242122 412:0.101782 413:0.100939 417:0.116086 418:0.0530678 420:0.0331674 421:0.0912107 422:0.102819 426:0.219901 427:0.495302 429:0.0501658 432:0.106136 433:0.0679933 434:0.0583748 435:0.221393 437:0.233831 440:0.0538971 442:0.010408 443:0.225539 444:0.0856826 446:0.112769 447:0.0326146 448:0.274185 450:0.131011 453:0.149917 454:0.0978436 455:0.0895521 457:0.0359314 459:0.0489219 460:0.0497511 463:0.0845771 465:0.258706 467:0.24307 468:0.0854059 469:0.0406302 470:0.127932 471:0.0796019 474:0.315754 475:0.119955 478:0.0298506 479:0.0772801 480:0.0383794 483:0.151741 484:0.0560529 486:0.030509 489:0.0330015 490:0.226368 491:0.111848 492:0.110282 494:0.0912107 495:0.0854059 496:0.0782752 500:0.118297 
0.3211434526112715 1:0.349249 2:0.031123 3:0.0884175 5:0.0521661 6:0.360365 7:0.033304 8:0.146994 9:0.163698 10:0.0766284 11:0.0481875 13:0.289125 14:0.318302 17:0.187223 18:0.352784 19:0.267935 20:0.395667 21:0.23519 22:0.0480401 23:0.0338196 24:0.0389037 25:0.0848809 26:0.0424404 27:0.0733863 28:0.10669 30:0.02542 31:0.0671973 33:0.0195992 34:0.0618923 35:0.0219856 36:0.0990275 37:0.0707338 38:0.0349248 40:0.150309 41:0.21338 42:0.0176835 43:0.144563 44:0.0954906 45:0.101459 46:0.16033 47:0.134394 49:0.114943 50:0.279399 51:0.0284704 53:0.0500443 55:0.10168 56:0.0530504 57:0.0260831 59:0.0335986 60:0.167109 61:0.0618923 62:0.178603 64:0.0572944 65:0.219275 68:0.205305 69:0.0148345 70:0.0657823 71:0.0159955 72:0.075376 74:0.302387 75:0.140584 77:0.133952 78:0.0577659 79:0.0108311 82:0.0177638 83:0.199768 84:0.055703 85:0.0833505 86:0.00795756 87:0.0725021 88:0.259357 89:0.0825229 90:0.116711 91:0.223254 92:0.153846 94:0.144297 95:0.12909 96:0.0296199 97:0.0503979 98:0.0366932 99:0.123342 100:0.05084 101:0.0433244 104:0.100133 105:0.0689657 108:0.0314765 109:0.0225254 110:0.20115 112:0.0977012 114:0.0316942 115:0.143236 116:0.0972591 118:0.0558797 119:0.19856 120:0.0104522 121:0.0179192 122:0.202918 123:0.0503977 124:0.0530504 125:0.0318303 126:0.0191571 127:0.0177638 128:0.0795756 129:0.0648392 130:0.0335986 131:0.223254 132:0.0972592 133:0.0246095 134:0.0954906 135:0.113727 137:0.0159151 138:0.119894 139:0.128382 140:0.151636 141:0.208664 142:0.0235779 143:0.144563 144:0.178013 145:0.0714411 146:0.0503979 147:0.0287357 148:0.0251498 149:0.0877984 150:0.0176835 151:0.0178603 154:0.0966697 156:0.0986742 157:0.247569 158:0.0468612 159:0.0506925 160:0.0201592 161:0.0906278 162:0.0358089 164:0.126437 165:0.0477453 166:0.154731 167:0.0618922 168:0.153846 169:0.450929 170:0.22458 171:0.0592395 172:0.015473 173:0.13351 174:0.0910699 175:0.104332 176:0.0937227 178:0.0459771 180:0.063071 181:0.0502505 182:0.138521 183:0.0168975 184:0.0574714 185:0.272325 186:0.18474 187:0.0316092 188:0.0368405 189:0.0356028 190:0.426761 191:0.223991 192:0.094695 193:0.0671973 194:0.082228 195:0.215738 196:0.0428823 197:0.11509 198:0.0238727 199:0.129679 200:0.0702918 201:0.05084 202:0.137342 203:0.0778073 204:0.130636 205:0.0402299 206:0.0922067 207:0.0279146 208:0.0818965 209:0.0954906 210:0.0923961 211:0.0918559 213:0.0671971 214:0.0389037 215:0.0601237 216:0.125553 217:0.0649869 219:0.0943854 220:0.017094 222:0.173297 223:0.145889 224:0.0842914 226:0.116181 228:0.216918 229:0.0279146 230:0.0999119 232:0.100796 233:0.123785 234:0.221043 235:0.0268199 236:0.0503977 237:0.017794 238:0.20115 239:0.0318303 240:0.0459769 241:0.0534041 242:0.110876 243:0.185013 244:0.051282 246:0.116711 247:0.0459769 249:0.146773 251:0.185677 252:0.110522 254:0.340407 255:0.0615972 256:0.0412614 259:0.14695 260:0.0645447 262:0.0972593 263:0.0795756 264:0.0910699 265:0.151724 266:0.101975 267:0.227675 268:0.0574714 269:0.117772 270:0.0433244 272:0.0954906 273:0.173297 274:0.0893016 275:0.0905393 276:0.227675 277:0.0521661 278:0.209018 279:0.0362512 280:0.139582 281:0.20277 282:0.0671973 283:0.0671973 284:0.0335986 285:0.0249779 287:0.033245 291:0.287357 292:0.100796 293:0.0819561 294:0.0649869 295:0.0742704 296:0.0315355 298:0.0905393 299:0.0518716 300:0.0312408 301:0.0848809 302:0.0809018 303:0.238727 304:0.0748601 305:0.119068 306:0.156498 308:0.100796 309:0.0402299 311:0.0822282 312:0.065871 313:0.0781612 314:0.090186 315:0.08046 316:0.0587976 317:0.0954906 318:0.0434509 319:0.134394 321:0.111406 322:0.258399 323:0.113174 324:0.0179782 325:0.0587976 326:0.0143678 327:0.0302829 328:0.0269673 329:0.086649 330:0.090186 331:0.026702 333:0.0402299 334:0.10787 335:0.0424404 338:0.0725025 339:0.0563907 340:0.273209 341:0.020115 342:0.137047 343:0.0279146 344:0.0309461 345:0.179045 346:0.0229885 347:0.060566 348:0.0362512 349:0.0375774 350:0.312406 351:0.0848809 352:0.0143678 353:0.086649 354:0.098438 356:0.127321 357:0.11229 358:0.0539347 359:0.16092 360:0.0287357 361:0.0521661 362:0.0318303 363:0.154099 364:0.0111153 365:0.0763925 366:0.133216 367:0.086649 368:0.179045 369:0.0192308 371:0.164457 372:0.240243 373:0.055703 374:0.00918771 375:0.0583555 376:0.260831 377:0.0433244 378:0.0618923 380:0.0624818 381:0.253581 382:0.073534 384:0.10728 385:0.0206307 386:0.0212201 387:0.0666078 388:0.0459769 389:0.125995 390:0.00680547 391:0.0194518 392:0.137931 393:0.0648396 394:0.0565871 395:0.178603 396:0.0495138 397:0.10787 398:0.0838196 399:0.122016 400:0.0572944 401:0.0565872 402:0.19275 403:0.212202 404:0.0552608 405:0.0645447 406:0.05084 407:0.0963752 409:0.106859 410:0.0309461 411:0.161362 412:0.162798 413:0.16145 414:0.0565871 416:0.0676394 417:0.247569 418:0.0282935 419:0.108754 420:0.0530504 421:0.0243148 422:0.109637 423:0.0446507 424:0.300891 425:0.0190165 426:0.0390805 427:0.0990275 428:0.141468 429:0.0534927 430:0.162099 431:0.0769227 433:0.145005 434:0.031123 435:0.0393457 437:0.124668 438:0.0832106 439:0.403183 440:0.086207 441:0.105394 442:0.00554911 443:0.0400826 444:0.137047 445:0.295314 446:0.240495 447:0.0521662 448:0.109638 449:0.106985 451:0.108223 452:0.116711 453:0.0399646 454:0.208664 456:0.234749 458:0.0919541 459:0.0260831 460:0.132626 461:0.123342 463:0.0450929 464:0.0350455 465:0.183908 466:0.182729 467:0.0215991 468:0.0910699 469:0.0216623 470:0.0341039 471:0.169761 472:0.155173 473:0.034306 474:0.0721486 475:0.639551 476:0.0204622 477:0.0951693 478:0.0159151 479:0.0824052 480:0.0409246 481:0.0901856 482:0.0461377 483:0.0269673 484:0.029885 485:0.249042 486:0.0243991 487:0.187445 488:0.172414 489:0.017595 490:0.08046 491:0.0596326 493:0.0038582 494:0.0486297 495:0.0455349 496:0.0834663 497:0.0702918 498:0.0711757 500:0.0946065 
0.2036400155120123 1:0.288981 2:0.0120714 3:0.0457247 5:0.10791 6:0.341663 7:0.0258345 8:0.0760174 9:0.282187 10:0.00990703 11:0.0747599 12:0.00438956 13:0.17444 14:0.296296 15:0.00592244 16:0.123274 17:0.0774576 18:0.156378 19:0.277124 20:0.327389 21:0.0695016 22:0.0745312 23:0.0174897 24:0.0301783 25:0.0877917 26:0.175583 27:0.075903 28:0.193111 29:0.0987654 30:0.0525835 31:0.0695016 32:0.0388661 34:0.0160037 35:0.0170547 36:0.0682823 37:0.0823046 38:0.0903063 39:0.0160037 40:0.17101 41:0.0275872 42:0.0274348 43:0.0747599 44:0.0493826 45:0.0699588 46:0.1451 47:0.0695016 48:0.0202205 49:0.0396282 50:0.057796 51:0.0147234 52:0.021262 53:0.155281 54:0.0737311 55:0.184042 56:0.0823046 57:0.0269776 58:0.0365798 59:0.0868771 60:0.115226 61:0.0320074 62:0.254001 63:0.037037 64:0.0197531 65:0.0708734 67:0.113854 68:0.283128 69:0.00767159 70:0.204114 71:0.016544 72:0.0389804 73:0.0548696 74:0.208504 75:0.169639 76:0.227252 77:0.254001 78:0.0149367 79:0.0168038 81:0.00832189 82:0.055119 83:0.103309 84:0.172839 85:0.114945 86:0.00411523 87:0.0499923 88:0.0804752 89:0.0853528 90:0.18107 91:0.184728 92:0.106081 93:0.048011 94:0.0746225 96:0.0306356 98:0.00948787 99:0.042524 100:0.131459 101:0.0896203 102:0.0941929 103:0.0134888 104:0.189872 105:0.0891634 106:0.0522786 107:0.0792562 108:0.032556 109:0.0465957 110:0.124828 111:0.0868771 112:0.0842099 113:0.0220785 114:0.0655622 115:0.123457 116:0.0251486 117:0.0101589 118:0.00722451 119:0.0513424 120:0.0378372 121:0.101936 122:0.174897 123:0.156378 124:0.00914494 125:0.0246913 126:0.0396282 127:0.0275595 128:0.0658436 129:0.167657 130:0.156379 131:0.0692728 132:0.0502972 133:0.0127267 134:0.0329218 135:0.0980226 136:0.0442875 137:0.0164609 138:0.155007 139:0.0663921 140:0.130697 141:0.10791 142:0.0121933 143:0.02492 144:0.0920589 145:0.0369456 146:0.0781893 147:0.0891632 148:0.0097546 149:0.0151349 150:0.0137174 152:0.00371513 153:0.0706445 154:0.0499923 155:0.0164609 156:0.153087 157:0.12803 158:0.0727023 159:0.157292 160:0.00521262 161:0.0843622 162:0.148148 163:0.00705468 164:0.163466 165:0.00823044 166:0.0480109 167:0.192044 168:0.106081 169:0.279835 170:0.145177 171:0.0612711 172:0.00800182 173:0.115074 174:0.0784943 175:0.0809324 176:0.169639 177:0.0190214 178:0.0118884 179:0.0643413 180:0.260936 181:0.155921 182:0.0859624 183:0.017477 184:0.0594422 185:0.0603565 186:0.206999 187:0.163466 188:0.09526 189:0.0276177 190:0.220698 191:0.208505 192:0.0163237 193:0.0173754 194:0.042524 195:0.111568 196:0.0887058 197:0.178555 198:0.0493828 199:0.167657 200:0.218107 201:0.105167 202:0.177565 203:0.201188 204:0.225194 205:0.104024 207:0.0433078 208:0.0705876 209:0.0823046 210:0.0716733 211:0.0285017 212:0.011797 213:0.00868769 214:0.0402378 215:0.0932782 216:0.0973936 217:0.235254 218:0.00519795 219:0.0418381 220:0.0353605 222:0.179241 223:0.17604 224:0.152568 225:0.0603565 226:0.16022 227:0.256059 228:0.140223 229:0.0721799 230:0.103338 231:0.00548696 232:0.0868771 233:0.256059 234:0.14289 235:0.0416095 236:0.156378 237:0.00460105 238:0.166438 239:0.0493826 240:0.190215 241:0.151897 242:0.0573388 243:0.0318929 244:0.238683 245:0.121628 246:0.0804755 247:0.166438 249:0.26566 250:0.00914494 251:0.0160037 252:0.0571559 253:0.0857337 254:0.246456 255:0.159274 256:0.0426764 257:0.00457247 258:0.0291495 259:0.202653 260:0.0834476 262:0.100595 263:0.0164609 264:0.0470964 265:0.0784636 266:0.026368 267:0.117741 268:0.104024 269:0.0406036 270:0.0672151 271:0.102424 272:0.131687 273:0.0896203 274:0.046182 275:0.0585277 276:0.0706445 277:0.188843 278:0.288248 279:0.0562414 280:0.162415 281:0.183508 282:0.0868771 283:0.139003 284:0.0173754 285:0.0258345 286:0.00812286 287:0.0257887 288:0.0106414 289:0.0313977 290:0.0221438 291:0.237769 292:0.0521261 293:0.105958 294:0.235254 295:0.0288065 296:0.114159 298:0.0702331 299:0.0134126 300:0.0969362 301:0.131687 302:0.111568 303:0.123457 304:0.116141 305:0.015394 306:0.0202332 307:0.0156271 309:0.0208048 310:0.0466963 311:0.0850479 312:0.238455 313:0.0404207 314:0.0932787 315:0.0832191 316:0.0152035 317:0.148148 318:0.0337056 319:0.0521261 320:0.0621856 321:0.115226 322:0.0763603 323:0.0585277 324:0.0185947 326:0.0371514 327:0.0626429 328:0.020919 329:0.112026 330:0.0932787 331:0.0414265 332:0.0428669 333:0.124828 334:0.0557843 335:0.0658436 337:0.0582532 338:0.112483 339:0.0437432 340:0.0706445 341:0.0208048 342:0.236245 343:0.0144359 344:0.0160036 345:0.074074 346:0.0475538 347:0.250572 348:0.0187471 349:0.0971652 350:0.16156 351:0.175583 352:0.00371513 353:0.0224051 354:0.101814 355:0.0303692 356:0.0658436 357:0.174212 358:0.013946 359:0.166438 360:0.0297211 361:0.188843 362:0.00823044 363:0.127507 365:0.0691358 366:0.34446 367:0.0448102 368:0.246914 370:0.0092059 371:0.141747 372:0.310602 373:0.115226 374:0.0285083 375:0.0704161 376:0.161865 377:0.156835 378:0.112026 379:0.168039 380:0.0646245 381:0.152995 382:0.0760558 383:0.0757888 384:0.0970889 385:0.0160036 386:0.0438957 387:0.0516688 388:0.118884 389:0.0912209 391:0.0402378 392:0.118884 393:0.0502972 394:0.146319 395:0.138546 396:0.0512117 397:0.139461 398:0.101143 399:0.0631001 400:0.0691358 401:0.0585277 402:0.14952 403:0.0877917 404:0.0857337 405:0.0500684 406:0.15775 407:0.14952 408:0.0438958 409:0.0368411 411:0.133516 412:0.140318 413:0.027831 414:0.175583 415:0.026749 416:0.122428 417:0.160037 418:0.0731597 420:0.0548696 421:0.0754458 422:0.0708734 423:0.138546 424:0.200064 425:0.0786747 426:0.0404207 427:0.0512117 428:0.131687 429:0.0276635 430:0.0502972 431:0.358024 432:0.0877914 433:0.093736 434:0.0321902 435:0.0610425 436:0.187602 437:0.0429813 438:0.043032 439:0.0695016 440:0.133745 441:0.0817558 442:0.0086091 443:0.0414572 444:0.0708734 445:0.0954505 446:0.186556 447:0.0179851 449:0.0553268 450:0.072245 451:0.0839506 452:0.150892 453:0.0206676 454:0.21582 455:0.148148 456:0.0809331 458:0.118884 459:0.0809327 460:0.0274349 461:0.148834 462:0.072245 463:0.163238 464:0.00906181 465:0.118884 466:0.212621 467:0.0446796 468:0.141289 469:0.0112026 470:0.0352733 471:0.0877917 472:0.026749 473:0.0354824 474:0.0746227 475:0.0661484 477:0.147649 478:0.0905349 479:0.149154 480:0.0846561 481:0.0777321 482:0.19088 483:0.0418381 484:0.0463648 485:0.128791 486:0.0210299 488:0.26749 489:0.0272976 490:0.187243 491:0.154194 492:0.0608139 493:0.00598577 494:0.0880202 495:0.164837 496:0.0431642 497:0.29081 498:0.110425 499:0.192806 500:0.0489254 
1.966736787332407 2:0.238915 5:0.266968 7:0.426093 8:0.150453 11:0.739822 15:0.0586081 24:0.0995477 30:0.130091 31:0.171946 34:0.158371 36:0.168929 39:0.0791855 41:0.546002 42:0.0904978 44:0.162896 45:0.173077 46:0.205129 48:0.10005 52:0.631223 55:0.260181 57:0.266968 58:0.0904978 60:0.285068 61:0.158371 63:0.183258 64:0.0977376 71:0.0818593 72:0.192874 73:0.180995 78:0.0739065 81:0.164706 87:0.12368 88:0.26546 92:0.262443 94:0.246153 107:0.156863 108:0.805428 112:1 116:0.248869 118:0.0714933 129:0.663648 132:0.331825 134:0.162896 142:0.120663 146:0.0859729 147:0.147059 152:0.0367647 154:0.49472 155:0.162896 159:0.518852 163:0.0930834 165:0.488687 167:0.316743 168:0.524886 175:0.533935 179:0.127343 185:0.796377 193:0.515838 203:0.199095 210:0.472849 219:0.138009 226:0.198191 229:0.142857 230:0.255657 235:0.137255 237:0.182126 239:0.081448 248:0.178733 250:0.0904978 253:0.141403 260:0.165158 263:0.325791 266:0.260936 269:0.200905 271:0.506788 272:0.162896 274:0.457013 276:0.233032 290:0.219134 291:0.294118 295:0.0950226 296:0.161388 297:0.193277 298:0.347512 299:0.26546 302:0.138009 304:0.766215 308:0.257918 311:0.210407 317:0.162896 318:0.111183 321:0.285068 325:0.150453 336:0.298644 340:0.466063 344:0.0527904 346:0.117647 352:0.0735293 353:0.221719 357:0.191554 359:0.411765 362:0.081448 364:0.113768 369:0.393664 375:0.0995477 386:0.108597 387:0.170437 388:0.470587 389:0.128959 393:0.165913 396:0.126697 413:0.275414 416:0.173077 420:0.271494 421:0.124435 422:0.420815 430:0.165913 433:0.185521 437:0.638011 454:0.266968 462:0.178733 464:0.17935 466:0.233786 467:0.110537 468:0.466063 469:0.221719 470:0.261798 473:0.0877829 483:0.138009 486:0.041622 489:0.18009 492:0.300905 500:0.322775 
2 1:0.176208 2:0.0196283 3:0.148699 5:0.394794 6:0.606056 7:0.0140025 8:0.0247212 9:0.367074 10:0.128873 13:0.0405205 14:0.32119 15:0.00963002 17:0.377843 19:0.45061 20:0.133085 21:0.113011 22:0.0403965 23:0.0568773 26:0.214127 27:0.12342 28:0.224287 29:0.0356877 33:0.0494423 34:0.0260223 35:0.0184875 36:0.0555143 37:0.0148699 38:0.14684 40:0.0505576 41:0.089715 43:0.0405205 44:0.107063 48:0.0164395 50:0.140966 52:0.0345724 53:0.0420819 55:0.342008 56:0.0892194 58:0.0594796 59:0.113011 60:0.374722 62:0.0375464 64:0.0160595 65:0.184387 67:0.138847 68:0.230186 69:0.0124742 70:0.165947 72:0.063383 73:0.0148699 74:0.0847582 76:0.105576 77:0.262825 78:0.0242875 80:0.0255154 81:0.0270632 82:0.0149375 83:0.111989 84:0.234201 87:0.0203222 88:0.174473 90:0.098141 91:0.187732 92:0.0862453 93:0.1171 99:0.0518586 101:0.109293 102:0.22974 103:0.0219331 104:0.0842005 105:0.0579927 106:0.121437 108:0.0264684 109:0.0757658 110:0.135316 112:0.0547708 114:0.159909 115:0.281041 116:0.0204461 119:0.333936 120:0.0351567 122:0.341264 123:0.127137 124:0.0446096 125:0.0133829 126:0.0322181 127:0.0448123 128:0.0133829 129:0.218091 132:0.0817843 133:0.0206939 134:0.0267658 135:0.0956319 136:0.0240042 137:0.0133829 139:0.323866 140:0.595043 141:0.21933 142:0.00495663 143:0.121561 144:0.374224 145:0.135167 146:0.0423791 147:0.144982 149:0.0246096 151:0.0300372 152:0.00604088 154:0.0406443 156:0.0414871 157:0.29145 158:0.275837 159:0.0426269 161:0.0304833 162:0.060223 164:0.10632 165:0.0267658 166:0.0780669 167:0.364313 168:0.172491 169:0.151673 170:0.330484 172:0.0130111 173:0.14969 174:0.0255266 175:0.043866 176:0.315242 177:0.0309293 179:0.020924 180:0.159107 181:0.0422553 182:0.186369 184:0.0241636 186:0.155347 187:0.0797397 188:0.0619579 190:0.35886 191:0.226023 192:0.106171 193:0.0565056 194:0.0518586 195:0.241883 197:0.725836 198:0.0200744 199:0.163568 201:0.0427509 202:0.0577449 203:0.0327137 204:0.292937 205:0.033829 207:0.0234732 208:0.183643 209:0.0802972 210:0.0388475 211:0.0308964 213:0.0282528 215:0.20223 216:0.316729 217:0.491823 219:0.0113383 220:0.0287485 222:0.182156 223:0.163569 224:0.10632 225:0.0654275 226:0.0325651 227:0.0832716 228:0.182405 229:0.0469464 232:0.197769 233:0.104089 234:0.0464684 235:0.0225527 236:0.254275 238:0.101487 239:0.0133829 240:0.193308 241:0.359256 242:0.186469 244:0.215613 245:0.113011 247:0.115985 248:0.029368 250:0.0148699 252:0.0464684 253:0.0464684 254:0.343495 256:0.0607187 259:0.411897 262:0.0817845 264:0.331847 265:0.127584 266:0.128625 267:0.0382899 268:0.0966544 270:0.255018 271:0.0416358 272:0.240892 275:0.171301 276:0.11487 277:0.043866 278:0.761633 279:0.0914498 280:0.0293433 281:0.213134 282:0.0565056 283:0.197769 284:0.0141264 285:0.0210037 286:0.013208 287:0.0139777 289:0.0765798 291:0.144981 292:0.169516 293:0.103374 294:0.218588 296:0.0795537 298:0.0190334 300:0.105081 301:0.0713756 302:0.0453532 303:0.200743 304:0.251797 305:0.0500619 306:0.0986986 307:0.02541 308:0.0423791 309:0.0676581 310:0.0253097 311:0.069145 312:0.221562 314:0.0379183 315:0.033829 316:0.0247212 319:0.0282528 321:0.234201 322:0.155204 323:0.0475836 326:0.0845724 328:0.0113383 329:0.182156 330:0.265428 333:0.033829 334:0.0907066 335:0.178439 336:0.0163569 337:0.0135316 338:0.121933 340:0.11487 342:0.268898 343:0.0469464 344:0.0086741 345:0.180669 347:0.101859 348:0.0457248 349:0.189591 350:0.065675 351:0.285503 352:0.0120818 353:0.218587 354:0.0413878 355:0.0141089 356:0.0802972 359:0.33829 361:0.043866 363:0.0777482 365:0.176654 366:0.39207 367:0.109293 368:0.301116 369:0.016171 370:0.014969 371:0.460967 372:0.353533 373:0.0468402 375:0.0163569 376:0.701856 377:0.0364311 378:0.130112 379:0.273235 380:0.210162 381:0.0710781 382:0.247337 383:0.328626 385:0.0086741 386:0.0535315 387:0.0840147 388:0.0386616 389:0.190706 391:0.0327138 392:0.270631 393:0.0272615 395:0.175217 396:0.0624534 397:0.27212 398:0.117472 400:0.0802973 401:0.0475837 402:0.162082 403:0.178439 404:0.0929369 407:0.121561 408:0.0356878 410:0.0173482 412:0.136896 413:0.0452539 414:0.142751 416:0.113755 417:0.104089 418:0.0475837 420:0.0892194 422:0.115241 424:0.433743 425:0.0959452 426:0.0657251 428:0.118959 430:0.0817843 431:0.129368 432:0.0475836 433:0.0914498 435:0.0992564 436:0.0762614 437:0.24461 438:0.116618 439:0.282528 440:0.0966544 441:0.0221562 443:0.101115 444:0.0384139 445:0.186245 446:0.606691 448:0.0307311 449:0.0599752 451:0.0227509 452:0.147212 453:0.0336059 454:0.131598 455:0.0802975 456:0.197398 458:0.0773234 459:0.0877324 460:0.0446097 461:0.207435 462:0.117472 463:0.0758367 465:0.270631 466:0.0384139 467:0.0181625 468:0.191449 470:0.0286776 471:0.107063 472:0.173978 473:0.0288476 474:0.0606691 475:0.591573 477:0.12004 478:0.0133829 479:0.346469 480:0.0860328 481:0.126394 482:0.0775937 483:0.0453532 485:0.083767 486:0.020517 487:0.0394052 488:0.0483272 491:0.0501446 492:0.0988848 495:0.0765799 496:0.035093 497:0.0591078 498:0.179553 499:0.250806 500:0.0530359 
2 3:0.323974 6:0.146715 7:0.0406768 11:0.117711 14:0.311015 18:0.246219 20:0.193305 21:0.24622 23:0.0826135 24:0.142549 25:0.103672 28:0.13031 31:0.164147 34:0.0755941 35:0.0268528 36:0.161267 37:0.086393 38:0.170626 41:0.13031 42:0.172786 47:0.0820735 52:0.301295 53:0.244493 56:0.0431966 57:0.063715 58:0.086393 65:0.200864 67:0.134449 68:0.167171 70:0.160691 73:0.0431966 74:0.12311 76:0.153348 78:0.0352772 79:0.0793736 85:0.135737 86:0.0194385 88:0.253419 89:0.100792 90:0.0950324 91:0.109071 92:0.250539 93:0.113391 94:0.117494 95:0.105112 97:0.0820733 100:0.12419 102:0.111231 105:0.2527 106:0.0352772 108:0.0768899 114:0.0774216 116:0.0593954 118:0.341253 120:0.0255323 122:0.49568 123:0.12311 125:0.0388769 127:0.0433929 128:0.0388769 129:0.316773 130:0.0820735 131:0.109071 133:0.0601153 134:0.0777538 137:0.0777536 139:0.209071 140:0.12347 141:0.382288 142:0.0143989 143:0.117711 147:0.0701945 150:0.0431965 152:0.0526457 153:0.111231 154:0.118071 155:0.0777538 160:0.049244 161:0.0442765 162:0.087473 163:0.0333231 164:0.308855 165:0.0388769 166:0.151188 167:0.151188 169:0.220303 170:0.137149 171:0.144708 172:0.037797 174:0.148308 175:0.12743 176:0.114471 177:0.359395 181:0.12275 182:0.0676747 184:0.280778 185:0.190064 186:0.225638 188:0.0899929 191:0.218863 193:0.410366 195:0.175666 196:0.209503 198:0.0583155 199:0.158387 202:0.335494 203:0.0950324 204:0.319114 207:0.0681889 211:0.0448765 213:0.12311 214:0.0475163 215:0.146868 216:0.153348 217:0.158748 219:0.131749 223:0.237581 224:0.205904 225:0.190064 227:0.120951 230:0.12203 234:0.134989 236:0.12311 238:0.0982724 240:0.336932 242:0.180562 247:0.224621 249:0.179266 250:0.12959 251:0.0755941 253:0.134989 254:0.665228 257:0.0647948 259:0.119655 260:0.315334 262:0.118791 263:0.116631 264:0.222462 265:0.123542 266:0.12455 267:0.222462 275:0.165875 276:0.111231 277:0.12743 278:0.170194 281:0.12383 282:0.410366 284:0.164147 287:0.0812094 289:0.222462 291:0.140389 292:0.36933 298:0.110583 300:0.152628 301:0.103672 303:0.194385 307:0.0738154 308:0.12311 309:0.0982724 310:0.0735241 312:0.321814 314:0.110152 316:0.0718143 318:0.0530701 321:0.272138 326:0.0350972 329:0.317494 330:0.440606 333:0.0982724 334:0.13175 335:0.311016 338:0.265659 339:0.0688745 340:0.222462 342:0.111591 343:0.0681889 344:0.025198 345:0.174946 346:0.0561556 347:0.147949 348:0.0442765 349:0.183585 350:0.190784 352:0.0526457 358:0.131749 362:0.0388769 366:0.488122 367:0.211662 368:0.437365 371:0.267819 372:0.146715 375:0.0950324 376:0.254859 377:0.423325 378:0.0755941 379:0.158748 383:0.357992 385:0.025198 388:0.561552 390:0.0166242 391:0.0950324 393:0.0791938 396:0.0604752 401:0.0691146 403:0.207344 404:0.269978 405:0.0788337 406:0.12419 407:0.117711 408:0.103672 412:0.265118 414:0.276458 417:0.302376 420:0.0431966 421:0.0593954 422:0.133909 423:0.436285 425:0.046453 428:0.0691146 431:0.187904 433:0.177106 435:0.288337 436:0.332305 437:0.507558 440:0.140389 441:0.257452 443:0.195824 452:0.285097 453:0.0976243 454:0.254859 455:0.349892 458:0.112311 459:0.12743 461:0.100432 462:0.255939 463:0.110152 464:0.214019 466:0.111591 467:0.105523 470:0.0833075 476:0.233261 477:0.116238 478:0.0777536 483:0.131749 484:0.292009 485:0.12167 487:0.228942 491:0.291337 494:0.0593954 495:0.222462 496:0.305832 499:0.182146 
2 1:0.0725438 2:0.0242425 3:0.229569 5:0.054178 6:0.249509 7:0.0172942 8:0.0610653 9:0.226682 11:0.100092 13:0.25023 14:0.198347 16:0.185675 17:0.233333 19:0.0695673 21:0.104683 22:0.149679 23:0.035124 26:0.176309 28:0.22161 29:0.0661156 30:0.0792011 31:0.0348944 32:0.0624426 33:0.0407102 34:0.0321396 35:0.0171251 36:0.102847 38:0.145087 40:0.156106 41:0.0554025 42:0.0183655 43:0.100092 44:0.0991734 45:0.070248 46:0.166514 49:0.318335 50:0.11607 51:0.0147842 52:0.170798 53:0.0519744 56:0.0734618 58:0.0550964 59:0.104683 60:0.231405 61:0.0642793 62:0.0463728 64:0.0198347 65:0.0853993 67:0.171487 68:0.0710744 69:0.0308133 70:0.478236 71:0.0166124 72:0.0391414 73:0.036731 75:0.0973373 76:0.0651975 77:0.32461 78:0.0449954 79:0.0112489 80:0.0126054 81:0.0167126 82:0.0922447 83:0.27663 84:0.115703 85:0.086565 86:0.0413224 87:0.0250995 88:0.26936 89:0.128558 90:0.0808081 91:0.231864 92:0.159779 93:0.0482094 94:0.24977 95:0.178757 96:0.0615242 97:0.0174472 98:0.0190542 100:0.158402 102:0.0472911 103:0.0270891 104:0.0346648 105:0.107438 106:0.029997 108:0.130762 109:0.0701824 110:0.250689 111:0.0348944 112:0.135292 114:0.0658332 115:0.0495868 116:0.0757576 117:0.0204016 119:0.257773 120:0.0108553 122:0.140496 123:0.366391 124:0.036731 126:0.019896 127:0.0184489 128:0.0495867 129:0.13468 130:0.0697889 131:0.5101 132:0.10101 133:0.0255587 134:0.132231 135:0.275597 138:0.0622588 139:0.177777 140:0.10499 141:0.054178 142:0.0244873 143:0.150138 144:0.138659 145:0.0741963 146:0.0348944 147:0.0895317 149:0.0303948 150:0.0275482 151:0.0370983 152:0.00746097 154:0.100398 155:0.0330578 156:0.10248 157:0.15427 158:0.194674 159:0.315885 161:0.0188246 164:0.131313 166:0.128558 168:0.159779 170:0.233242 171:0.0615242 172:0.0321396 173:0.138659 174:0.0630549 175:0.108356 176:0.0973373 177:0.1146 178:0.0238751 179:0.0258429 180:0.0655035 181:0.0521886 182:0.0575452 183:0.0701968 184:0.0596879 185:0.0808081 186:0.0959326 187:0.0328283 188:0.0382614 189:0.0184879 190:0.277012 191:0.046526 192:0.0983471 193:0.0697889 194:0.0426997 195:0.224058 196:0.0890725 197:0.239057 198:0.0495869 199:0.0673399 200:0.219008 202:0.213958 203:0.121212 204:0.0452249 205:0.0835631 206:0.239407 207:0.0579825 208:0.0283517 209:0.0991734 210:0.143939 211:0.0572391 213:0.0348944 214:0.0404041 215:0.312213 216:0.195592 217:0.337467 219:0.0140037 220:0.0355067 221:0.0165289 222:0.224977 223:0.252526 224:0.0875423 225:0.040404 226:0.0804411 227:0.0514235 228:0.112642 229:0.115965 230:0.0518825 232:0.209366 233:0.0642792 234:0.0573921 235:0.0557087 238:0.0417815 239:0.0165289 240:0.429751 241:0.110927 242:0.153535 243:0.0640495 244:0.159779 245:0.0348944 246:0.0808081 247:0.0955004 249:0.304866 252:0.114784 253:0.200873 254:0.424243 256:0.0642791 258:0.05854 259:0.152617 260:0.033517 262:0.10101 264:0.0945822 265:0.105051 266:0.0529539 267:0.0945822 268:0.119376 269:0.122314 270:0.0449953 271:0.15427 272:0.0330578 273:0.0899908 274:0.139118 275:0.0705234 277:0.054178 278:0.0723597 280:0.108724 281:0.0526476 282:0.0348944 283:0.0348944 284:0.0697887 285:0.0259413 287:0.0172635 288:0.0427415 289:0.0315274 291:0.0596879 292:0.314049 293:0.127675 294:0.134987 295:0.0192837 296:0.163759 297:0.0196117 299:0.0808081 300:0.0324457 301:0.132232 302:0.0280073 303:0.330578 304:0.0777474 305:0.0618305 306:0.0406336 307:0.0627668 308:0.0523415 309:0.0417815 311:0.0853995 312:0.205234 313:0.162351 314:0.187328 315:0.0835631 316:0.0305326 317:0.132231 318:0.090253 319:0.0697889 321:0.0578513 322:0.0766759 323:0.117539 324:0.0560147 325:0.0915977 326:0.0298439 327:0.125803 328:0.0140037 330:0.0468321 331:0.0277319 332:0.0286961 334:0.224059 335:0.176309 336:0.0404041 337:0.0334252 338:0.0752987 339:0.0585655 340:0.331037 341:0.0208908 342:0.142333 345:0.03719 347:0.125804 348:0.0564738 349:0.273187 350:0.162228 351:0.220386 352:0.00746097 353:0.0449953 355:0.034851 356:0.0991734 357:0.0777474 358:0.0280073 359:0.083563 361:0.108356 362:0.0165289 363:0.0960252 365:0.0595041 366:0.484238 367:0.179981 368:0.0619836 370:0.0184879 371:0.341598 372:0.187132 373:0.115703 375:0.020202 376:0.216712 377:0.179981 378:0.160698 379:0.0674933 380:0.129783 381:0.13168 382:0.22911 383:0.0507348 384:0.0278543 385:0.0107132 386:0.0440772 387:0.103765 389:0.0261708 390:0.00706794 391:0.020202 392:0.191 393:0.10101 394:0.117539 396:0.0257117 397:0.0560149 398:0.145087 399:0.0844814 400:0.0396695 401:0.0293848 402:0.150138 403:0.0881545 405:0.067034 406:0.264004 407:0.300276 408:0.0440772 409:0.11098 411:0.033517 412:0.112718 413:0.0558921 414:0.117539 416:0.070248 417:0.192838 418:0.0293848 419:0.0376493 420:0.0734618 421:0.0252526 422:0.056933 423:0.0463728 424:0.223211 426:0.162351 427:0.137129 428:0.117539 429:0.0277778 430:0.0336701 431:0.399448 432:0.117539 433:0.112948 434:0.0808081 436:0.0470944 437:0.0863178 438:0.230453 439:0.139578 440:0.0298439 441:0.0273646 442:0.0115263 443:0.124885 445:0.153351 446:0.124885 448:0.0759109 449:0.222222 450:0.0362718 451:0.224794 452:0.242424 454:0.108356 455:0.14876 456:0.0812675 457:0.0596878 458:0.14325 459:0.0270891 460:0.0275482 461:0.128099 462:0.0725436 463:0.0468321 464:0.0181985 465:0.238751 466:0.0474443 467:0.0224321 468:0.0472911 469:0.0337465 470:0.0354191 471:0.176309 472:0.107438 473:0.0356291 475:0.132844 477:0.0988397 478:0.0165289 479:0.299541 480:0.042503 481:0.156106 483:0.0560147 485:0.0517294 486:0.0253401 488:0.417815 489:0.0548209 491:0.49546 492:0.0610652 493:0.00400701 494:0.0252526 495:0.0945822 497:0.0730029 498:0.221762 500:0.163759 
1.771111181097275 2:0.00997738 3:0.113378 5:0.133786 6:0.154033 7:0.0213531 11:0.185374 12:0.0108843 13:0.0617916 14:0.0816328 15:0.234964 16:0.152834 18:0.0646259 20:0.101474 21:0.129252 22:0.0616026 23:0.0433675 24:0.07483 28:0.13681 30:0.0325965 31:0.0861676 33:0.0251323 34:0.119048 36:0.0423282 37:0.090703 40:0.0385488 41:0.0684053 42:0.181406 44:0.0408164 45:0.0867345 48:0.0501385 49:0.0982615 51:0.0547619 54:0.0365647 56:0.0453514 57:0.0334468 58:0.0226758 59:0.043084 61:0.198413 62:0.0572563 63:0.0918364 64:0.0734694 65:0.0351475 66:0.00669965 67:0.0705782 69:0.0190225 70:0.0843537 71:0.0205113 72:0.0483278 73:0.113379 75:0.120181 77:0.0572563 78:0.0740741 79:0.0555556 81:0.144444 82:0.0227789 85:0.0356272 86:0.0102041 88:0.0665155 89:0.0529101 90:0.14966 91:0.0572563 92:0.131519 94:0.123355 95:0.0551779 96:0.246882 97:0.129252 98:0.0705782 99:0.0527209 100:0.0651929 102:0.11678 103:0.0334468 104:0.0428005 106:0.037037 107:0.0393047 108:0.0403629 109:0.0288847 110:0.103175 112:0.0417613 113:0.0821186 114:0.040642 115:0.0612247 116:0.218254 117:0.00629747 118:0.0895691 119:0.127308 122:0.173469 123:0.129251 124:0.136054 125:0.0204082 126:0.0491307 128:0.0204082 129:0.41572 131:0.343537 132:0.249433 133:0.189343 134:0.0408164 135:0.0486113 136:0.109815 138:0.0768708 139:0.0548753 140:0.064815 141:0.0668934 142:0.0377929 143:0.185374 145:0.0229025 146:0.0861678 149:0.0750565 150:0.0453515 151:0.0458049 152:0.027636 153:0.17517 154:0.185941 155:0.0816325 156:0.189796 157:0.0634924 158:0.0600909 159:0.130007 163:0.0524783 165:0.122449 166:0.0396827 168:0.263038 169:0.115647 170:0.0719958 171:0.151927 172:0.0396824 175:0.267573 178:0.0294786 179:0.0319081 181:0.128874 183:0.0433358 184:0.0368482 185:0.099773 186:0.0394826 188:0.283447 191:0.0574455 192:0.0404763 193:0.258503 195:0.184429 198:0.0306124 199:0.332577 200:0.0901364 201:0.260771 202:0.176115 203:0.14966 205:0.103175 206:0.059119 208:0.0350057 213:0.0430838 214:0.0997734 218:0.386664 219:0.0345804 220:0.2192 222:0.111111 223:0.0623585 225:0.099773 229:0.0715904 231:0.0544216 233:0.15873 234:0.141723 235:0.0343917 237:0.136904 239:0.0204082 244:0.131519 247:0.294784 248:0.134353 250:0.090703 251:0.0396827 252:0.141723 253:0.106292 254:0.0873019 256:0.0529101 257:0.0340136 258:0.120465 262:0.187075 263:0.0816326 265:0.129705 266:0.065382 267:0.0583901 269:0.251701 270:0.111111 273:0.111111 274:0.114512 276:0.17517 277:0.133786 279:0.185941 280:0.044747 281:0.195011 284:0.0430838 287:0.0426303 288:0.0791588 289:0.11678 290:0.0549077 293:0.0525467 294:0.0833338 296:0.0808766 297:0.0242145 299:0.0332578 302:0.0691609 303:0.102041 304:0.0959944 305:0.152683 307:0.154995 308:0.0646259 310:0.0771918 311:0.0527212 313:0.100227 314:0.17347 316:0.113095 317:0.0408164 318:0.22287 319:0.129252 320:0.0385488 321:0.0714288 322:0.094671 324:0.0461073 325:0.0753967 327:0.0388323 328:0.0345804 331:0.0342404 335:0.217688 336:0.0498866 337:0.123809 338:0.0464855 340:0.17517 341:0.0515873 342:0.117158 344:0.0132275 346:0.0884354 352:0.018424 355:0.0215152 357:0.191988 358:0.138322 359:0.206349 360:0.0736961 361:0.0668934 362:0.102041 364:0.0427599 365:0.0244899 368:0.0765309 369:0.0986395 370:0.0456537 371:0.0702951 372:0.308067 373:0.357143 374:0.0471261 375:0.0249434 378:0.0396827 385:0.026455 386:0.0816326 387:0.0854117 389:0.032313 390:0.130901 391:0.07483 392:0.058957 393:0.0831443 394:0.0725626 396:0.0317461 397:0.207483 400:0.0489795 402:0.185374 403:0.054422 404:0.141723 405:0.124149 407:0.0617916 408:0.326531 409:0.0456755 412:0.0695863 413:0.0690098 416:0.0433675 417:0.0793654 418:0.0725622 419:0.0464855 420:0.0226758 421:0.280613 422:0.0702946 423:0.114512 426:0.0501136 427:0.21164 428:0.0725622 430:0.0831443 431:0.197278 432:0.145124 433:0.139456 434:0.0598639 435:0.100907 439:0.086168 442:0.0426942 443:0.205594 444:0.0585793 445:0.094671 447:0.0445955 448:0.328043 450:0.0895689 451:0.0693877 453:0.256236 454:0.133786 456:0.100341 458:0.17687 460:0.170068 462:0.134353 463:0.17347 464:0.0449391 465:0.058957 466:0.117158 467:0.110787 468:0.11678 469:0.0416666 470:0.0874635 472:0.0663268 473:0.0439909 474:0.246712 475:0.0820107 476:0.0699706 478:0.0204082 481:0.0385488 482:0.0591631 483:0.103741 484:0.229932 485:0.19161 486:0.0521454 487:0.0600909 488:0.0736964 492:0.075397 493:0.108843 496:0.214059 497:0.0901364 498:0.0912698 500:0.202192 
2 1:0.323771 7:0.231558 9:0.252927 11:0.223361 18:0.233606 20:0.366803 23:0.313524 26:0.393443 27:0.340164 29:0.0983606 31:0.155738 32:0.0696722 34:0.143443 36:0.153006 37:0.0819672 45:0.156762 46:0.185793 53:0.695904 54:0.132172 57:0.241803 62:0.413934 64:0.0885246 67:0.255122 73:0.163934 78:0.0669399 79:0.0502049 81:0.14918 82:0.0823397 85:0.128783 86:0.0737706 87:0.112022 88:0.480873 89:0.191257 93:0.215164 98:0.0850409 102:0.422131 103:0.241803 107:0.142076 108:0.145902 112:0.45287 113:0.0989462 114:0.14691 116:0.112705 118:0.323771 121:0.0830601 124:0.0819672 130:0.155738 131:0.206967 133:0.114071 134:0.147541 142:0.0273224 147:0.133197 149:0.135656 150:0.0819672 152:0.0998976 154:0.224043 163:0.0210773 165:0.147541 169:0.836066 171:0.27459 172:0.0717212 173:0.206284 178:0.106557 191:0.207651 193:0.155738 195:1 196:0.19877 198:0.663936 202:0.954922 203:0.180328 206:0.2137 210:0.856553 213:0.0778688 216:0.581967 220:0.079235 223:0.22541 237:0.0412397 240:0.213114 242:0.171312 247:0.426229 248:0.161885 252:0.256147 253:0.128074 255:0.285518 259:0.22705 260:0.14959 263:0.221312 265:0.468853 267:0.211065 274:0.620902 275:0.209836 276:0.211065 283:0.155738 284:0.0778688 285:0.115779 288:0.0953799 291:0.266394 297:0.175059 298:0.104918 305:0.137978 311:0.190574 317:0.295082 318:0.201405 321:0.516394 327:0.140369 333:0.186476 334:0.500001 338:0.168033 339:0.130692 340:0.422131 342:0.211749 343:0.129391 345:0.331967 346:0.213115 349:0.17418 350:0.36202 354:0.228142 363:1 369:0.0891394 371:0.254099 374:0.0425873 384:0.372952 389:0.116803 390:0.031545 396:0.229508 397:0.250001 399:0.188525 401:0.131148 402:0.223361 405:0.44877 410:0.0956284 411:0.44877 415:0.0799182 418:0.131148 419:0.168033 421:0.22541 422:0.254098 425:0.0881463 430:0.150273 434:0.0721311 440:0.133197 444:0.211749 448:0.169399 449:0.1653 460:0.245902 461:0.190574 462:0.161885 463:0.209017 464:0.243667 469:0.0502049 470:0.23712 476:0.126463 478:0.0737704 482:0.213859 483:0.125 484:0.138525 487:0.217213 489:0.163115 491:0.276412 492:0.272541 493:0.0178837 496:0.193443 497:0.32582 498:0.329917 
2 2:0.0838098 8:0.316667 10:0.103175 15:0.431746 16:0.320952 21:0.180952 22:0.25873 23:0.364286 24:0.104762 28:0.574603 42:0.095238 43:0.259524 45:0.182143 48:0.105291 53:0.539049 59:0.180952 61:0.333334 62:0.480952 67:0.296427 71:0.0861471 75:0.252381 89:0.222222 94:0.259047 105:0.371429 107:0.165079 112:0.175397 117:0.238043 118:0.150476 121:0.0965079 124:0.095238 133:0.13254 144:0.239682 150:0.0952381 151:0.384761 152:0.0773809 153:0.245238 154:0.520634 160:0.0542857 163:0.0489797 165:0.171428 166:0.166667 168:0.27619 169:0.485714 170:0.302381 172:0.25 176:0.252381 178:0.990476 179:0.268027 181:0.54127 183:0.182011 184:0.309524 185:0.209523 188:0.198413 198:0.514286 200:0.378572 201:0.273809 204:0.234523 209:0.171428 216:0.338095 217:0.350001 219:0.0726189 227:0.533335 231:0.0285713 233:0.333333 235:0.144444 237:0.0479166 238:0.216667 247:0.247618 253:0.148809 254:0.366667 263:0.0857141 267:0.245238 274:0.480952 287:0.0895237 303:0.857144 304:0.403175 309:0.216667 310:0.162103 311:0.221428 316:0.633332 318:0.234013 319:0.180952 322:0.198809 325:0.158333 326:0.0773808 333:0.216667 336:0.104762 338:0.195238 339:0.151852 340:0.245238 350:0.420633 352:0.0386904 357:0.403175 360:0.154762 362:0.171428 364:0.0598639 381:0.227619 384:0.577778 386:0.114286 388:0.247618 395:0.160317 399:0.438096 401:0.152381 405:0.173809 408:0.228572 411:0.173809 412:0.292261 414:0.609524 416:0.182143 419:0.195238 421:0.261905 423:0.240476 428:0.152381 435:0.211905 441:0.28381 444:0.492065 445:0.198809 450:0.188095 451:0.145714 453:0.215238 455:0.257143 458:0.247618 459:0.140476 460:1 463:0.485715 464:0.0943722 469:0.0583332 470:0.183673 473:0.0923808 474:0.129524 481:0.161904 483:0.145238 484:0.160952 488:0.309524 490:0.216667 492:0.316666 499:0.401587 500:0.169841 
2 2:0.0494384 3:0.280899 15:0.0727662 23:0.214888 24:0.247192 25:0.539329 36:0.209738 42:0.337078 43:0.612363 52:0.261236 62:0.567417 73:0.11236 74:0.640451 79:0.0688202 81:0.102247 82:0.11287 85:0.176534 88:0.329587 94:0.611237 98:0.116573 102:0.289326 108:1 110:0.511239 116:0.154495 118:0.532585 132:0.411987 134:0.202247 135:0.240871 142:0.187266 143:0.612363 144:0.282771 150:0.0561798 159:0.644196 164:0.401686 173:0.282771 178:0.146068 185:0.494383 188:0.234082 190:0.338951 193:0.213483 196:0.272471 201:0.323034 210:0.293539 212:0.434832 213:0.213484 214:0.370786 220:0.108614 226:0.246068 235:0.170412 240:0.292134 242:0.234832 249:0.466292 250:0.11236 252:0.351124 258:0.119382 274:0.283708 281:0.322097 282:0.213483 283:0.426968 284:0.213484 289:0.192884 292:0.320224 297:0.119984 304:0.475657 311:0.522473 314:0.286518 315:0.511239 316:0.186798 317:0.202247 318:0.138042 319:0.213483 320:0.191011 321:0.707869 324:0.114232 327:0.384833 333:0.255618 336:0.123596 340:0.578653 341:0.127809 346:0.730338 349:0.238764 358:0.342698 362:0.101124 369:0.244383 375:0.247192 377:0.275281 384:0.340826 393:0.205993 396:0.157303 399:0.258427 402:0.30618 407:0.612363 413:0.683896 414:0.359551 415:0.10955 419:0.92135 422:0.174157 426:0.248315 427:0.209738 435:1 437:0.264045 442:0.0352587 443:0.254682 450:0.22191 453:0.253933 455:0.303371 460:0.16854 461:0.261236 462:0.22191 471:0.269663 474:0.152809 478:0.101124 481:0.191011 486:0.0516767 491:0.757807 496:0.265169 500:0.40075 
2 1:0.448865 2:0.0500002 7:0.107008 8:0.18892 11:0.30966 19:0.430447 23:0.21733 24:0.125 30:0.326704 34:0.397726 36:0.212121 39:0.0994318 46:0.51515 52:0.264204 56:0.113636 58:0.113636 61:0.198864 63:0.230113 67:0.353692 76:0.403409 77:0.286932 78:0.092803 81:0.103409 86:0.0511364 88:1 90:0.499998 95:0.276516 96:0.0951705 97:0.431819 100:0.326705 103:0.167614 108:0.404544 112:0.209281 120:0.0671673 124:0.113636 133:0.158144 138:0.385226 139:0.275 142:0.0378788 149:0.188068 151:0.229544 153:0.585225 160:0.129545 163:0.0876628 169:0.579546 171:0.380681 175:0.335226 182:0.356059 189:0.114394 193:0.215909 196:0.275568 198:0.153409 202:0.441289 203:0.25 209:0.409089 219:0.0866477 221:0.102273 228:0.348486 235:0.172349 237:0.228693 239:0.102273 243:0.660511 246:0.499998 248:0.224431 252:0.355114 258:0.120739 260:0.207386 262:0.3125 263:0.102273 264:0.195076 274:0.286932 275:0.145455 288:0.132231 291:0.369319 292:0.323863 294:0.417615 295:0.119318 298:0.727273 300:0.200758 305:0.191288 313:0.753412 317:0.204545 318:0.27922 319:0.215909 321:0.357955 328:0.0866477 333:0.258523 336:0.125 339:0.181187 343:0.179383 350:0.501892 354:0.316287 358:0.173295 362:0.102273 368:0.383523 370:0.114394 389:0.161932 390:0.262397 400:0.122727 409:0.457791 414:0.363636 415:0.184659 419:0.698867 420:0.227272 423:0.573861 426:0.502272 432:0.72727 434:0.1 450:0.448861 456:0.502843 460:0.170455 469:0.0696023 472:0.332387 473:0.330683 478:0.102273 480:0.131493 484:0.192046 489:0.226135 490:0.517044 492:0.755679 493:0.0247934 496:0.268182 
2 2:0.0385966 7:0.165205 15:0.0568086 27:0.364034 28:0.264619 34:0.153509 36:0.163743 42:0.175439 45:0.335526 46:0.19883 51:0.070614 53:0.496492 62:0.221491 63:0.177631 72:0.186952 74:0.249999 78:0.143275 85:0.137821 86:0.0789474 87:0.359649 90:0.192982 94:0.238596 99:0.101973 102:0.451754 105:0.342106 107:0.152046 108:0.15614 112:0.48465 116:0.241228 117:0.0243612 118:0.277194 119:0.24624 124:0.0877192 133:0.122076 135:0.188048 138:0.297367 142:0.0292397 144:0.220759 148:0.0623782 149:0.290351 150:0.0877193 151:0.0885963 153:0.225877 154:0.479532 155:0.157894 162:0.177631 163:0.0676694 164:0.627194 165:0.0789472 172:0.0767542 176:0.232456 180:0.312865 183:0.0838205 184:0.142544 185:0.192982 190:0.264619 194:0.101973 196:0.425438 202:0.340644 203:0.192982 204:0.216008 208:0.135416 212:0.0565789 213:0.0833332 214:0.289474 215:0.298245 219:0.0668859 223:0.482457 237:0.0882675 246:0.771931 247:0.68421 253:0.137061 254:0.337719 256:0.0511695 257:0.0438596 258:0.0932017 259:0.242983 260:0.160087 263:0.0789472 264:0.150585 268:0.142544 270:0.214912 271:0.245614 274:0.664473 275:0.112281 277:0.258771 279:0.179825 283:0.333333 284:0.25 288:0.102073 294:0.322369 302:0.133772 305:0.147661 308:0.249999 310:0.149305 311:0.203947 312:0.326754 313:0.19386 318:0.107769 319:0.333333 321:0.828949 325:0.145833 328:0.133772 333:0.199561 336:0.0964912 340:0.451754 346:0.22807 351:0.210526 352:0.0712719 362:0.0789472 363:0.152882 369:0.0953947 371:0.27193 375:0.192983 380:0.309942 384:0.399123 385:0.0511695 387:0.165204 396:0.122807 409:0.530075 411:0.320175 416:0.167763 417:0.307018 419:0.35965 421:0.120614 423:0.221491 426:0.38772 427:0.163743 428:0.280702 430:0.643277 432:0.280701 434:0.0771929 440:0.142544 443:0.19883 450:0.173245 451:0.536844 452:0.289474 458:0.22807 459:0.129386 460:0.263158 462:0.173245 464:0.0869218 465:0.22807 466:0.226608 468:0.451754 469:0.161184 470:0.253759 474:0.357895 476:0.203007 481:0.149122 488:0.285088 490:0.199561 492:0.291666 494:0.120614 496:0.207018 
1.400204180731736 1:0.332166 2:0.0123336 3:0.105116 5:0.124036 6:0.476025 7:0.0263957 8:0.0466012 9:0.216238 10:0.0759168 11:0.114576 13:0.0381921 14:0.100911 15:0.00907665 16:0.141696 17:0.0890326 18:0.0798876 19:0.212358 20:0.376313 21:0.0266293 22:0.0761504 24:0.0616678 26:0.100911 27:0.058164 28:0.0422798 29:0.0672739 30:0.0201472 31:0.0266293 32:0.0357393 33:0.0155338 34:0.122635 35:0.00871258 36:0.0523242 37:0.0280308 38:0.193763 40:0.166783 41:0.0845595 42:0.0140154 43:0.0381921 44:0.151366 45:0.107218 46:0.19061 49:0.0303668 50:0.221443 52:0.0651715 53:0.118991 54:0.0225998 55:0.201471 56:0.0420462 57:0.0206727 58:0.0560616 59:0.186405 60:0.220743 62:0.212333 63:0.0283812 64:0.0454099 65:0.173791 68:0.325438 70:0.104274 71:0.0253551 72:0.0597407 73:0.0560616 74:0.239663 75:0.0742817 76:0.0995094 77:0.176944 78:0.0572295 79:0.0171689 80:0.0240492 81:0.012754 82:0.0563164 83:0.316661 84:0.0441486 85:0.0220204 86:0.0189208 87:0.0574631 88:0.123335 89:0.228918 90:0.0308339 91:0.3185 92:0.0812892 93:0.110371 94:0.152487 95:0.0341043 99:0.0488787 100:0.161177 101:0.0343377 102:0.108269 103:0.0206727 104:0.105816 105:0.0273301 106:0.114459 107:0.0242934 108:0.0498948 109:0.0535589 110:0.12754 111:0.106517 112:0.129059 113:0.0338372 114:0.10048 115:0.113525 116:0.0385424 117:0.00389233 118:0.066433 119:0.275403 120:0.00828412 121:0.0142023 122:0.321653 123:0.319551 125:0.0252277 127:0.0422373 128:0.0252277 129:0.102779 130:0.0266293 131:0.106167 132:0.15417 133:0.0585144 134:0.0252277 135:0.240365 136:0.0226249 138:0.0475122 139:0.203503 140:0.240364 141:0.248072 142:0.0186872 143:0.114576 144:0.105816 145:0.113245 146:0.0133146 147:0.0227751 148:0.00996651 149:0.0231955 150:0.0140154 153:0.0721792 154:0.0766174 155:0.0252277 156:0.195515 157:0.0784864 158:0.259987 164:0.250526 167:0.392432 168:0.162578 169:0.500351 170:0.044499 171:0.0469516 172:0.0122635 173:0.246905 174:0.0721793 175:0.0826906 176:0.0742817 177:0.233216 178:0.0546601 179:0.0197217 180:0.0999765 181:0.0398272 182:0.0658724 183:0.0133925 184:0.0227751 185:0.123335 186:0.0244033 187:0.0501051 188:0.0583975 190:0.422798 191:0.213035 192:0.0250175 194:0.0162929 195:0.227984 196:0.0339873 197:0.136825 198:0.094604 199:0.205559 200:0.111423 201:0.0805886 202:0.217706 203:0.0308339 204:0.241591 205:0.0318851 206:0.10962 207:0.0442486 208:0.086545 209:0.0756831 210:0.0732303 211:0.0582418 212:0.0180799 215:0.238262 216:0.199019 217:0.515068 218:0.00796631 219:0.0106868 220:0.0541929 221:0.0252277 222:0.0686753 223:0.0770848 224:0.133614 225:0.0616677 226:0.0613876 227:0.0784864 228:0.171923 229:0.0442486 230:0.0395936 232:0.159775 236:0.199719 238:0.0318851 239:0.0378415 240:0.25508 241:0.190469 242:0.205046 244:0.162578 245:0.159775 246:0.0616677 247:0.03644 249:0.058164 250:0.0140154 251:0.0490539 252:0.0437982 253:0.0656972 254:0.269797 255:0.0976404 256:0.00817566 258:0.0744568 259:0.116468 260:0.0511561 261:0.0126139 262:0.0770848 263:0.0252277 264:0.168419 265:0.280589 266:0.202056 267:0.144358 268:0.0455501 269:0.124457 270:0.103013 271:0.0784864 272:0.100911 273:0.0343377 274:0.106167 275:0.0538191 276:0.108269 277:0.0413454 278:0.496985 279:0.114926 280:0.0553142 281:0.16071 282:0.106517 283:0.0532585 284:0.0266292 287:0.0131745 289:0.120299 290:0.0339373 291:0.1822 292:0.199719 293:0.227346 294:0.15452 296:0.124971 298:0.0358794 300:0.0495211 301:0.100911 302:0.042747 303:0.189208 304:0.118664 305:0.0235926 306:0.0620181 308:0.119831 309:0.0637701 310:0.0477107 311:0.130343 312:0.41766 313:0.0619482 314:0.0357394 315:0.255081 316:0.0233006 317:0.100911 318:0.0688756 320:0.0476523 321:0.309041 322:0.175543 323:0.179397 324:0.014249 327:0.0480027 329:0.0343377 330:0.0357394 331:0.0211633 333:0.0637701 334:0.128241 335:0.168185 336:0.015417 337:0.012754 338:0.0861949 339:0.0223468 340:0.216538 341:0.0478276 342:0.217239 343:0.0442486 344:0.0245269 345:0.198668 347:0.0480029 348:0.0574631 349:0.119131 351:0.269097 352:0.0113875 353:0.0686753 354:0.234057 355:0.0398943 356:0.0756831 357:0.029666 358:0.042747 359:0.19131 360:0.0227751 362:0.0252277 363:0.122134 364:0.00880969 365:0.105957 366:0.263957 367:0.137351 368:0.189208 369:0.0304835 371:0.434479 372:0.238012 373:0.0441486 375:0.015417 376:0.165381 377:0.103013 378:0.24527 379:0.309041 380:0.297127 381:0.267975 382:0.349686 383:0.154871 384:0.12754 385:0.00817566 386:0.0168185 387:0.0263957 388:0.03644 389:0.119832 391:0.0462509 392:0.10932 393:0.025695 394:0.134548 395:0.0471851 396:0.0588647 397:0.0427471 398:0.177155 399:0.0644709 400:0.121093 401:0.0224247 402:0.152768 403:0.168185 404:0.0437982 405:0.0255781 406:0.161177 407:0.0381921 409:0.0282311 411:0.12789 412:0.129029 414:0.134548 416:0.107218 417:0.0981079 418:0.0448493 419:0.0574632 420:0.0280308 421:0.0770848 422:0.0868954 423:0.0707777 424:0.136273 425:0.0301439 426:0.0929222 427:0.0523242 428:0.0448493 429:0.063595 430:0.0770848 431:0.121933 432:0.0448493 433:0.0861949 434:0.0370006 435:0.124737 436:0.107819 437:0.428171 438:0.0659503 439:0.106517 440:0.0911002 441:0.104415 442:0.0219903 443:0.127073 444:0.072413 445:0.175543 446:0.285914 448:0.0868957 450:0.0553607 451:0.107218 452:0.138753 453:0.0633496 454:0.248072 456:0.248073 457:0.0151834 459:0.0620182 460:0.0630694 461:0.228101 463:0.0357394 465:0.03644 466:0.10862 467:0.0171188 468:0.180448 469:0.0343377 470:0.0270297 471:0.0336371 472:0.16398 473:0.0407848 474:0.0953047 475:0.456201 477:0.263999 478:0.0126139 479:0.130624 480:0.113525 481:0.0953046 482:0.0731348 484:0.0473721 485:0.157907 486:0.038676 488:0.22775 490:0.0637701 491:0.0472632 494:0.0385424 496:0.0992292 497:0.0557114 498:0.338471 499:0.177295 500:0.0999765 
