svm_type c_svc
kernel_type rbf
gamma 0.03125
nr_class 2
total_sv 698
rho 8.81925
label 1 0
probA -1.93601
probB 0.458024
nr_sv 351 347
SV
2 1:0.476359 6:0.0818043 7:0.11173 8:0.190604 10:0.017038 11:0.112385 12:0.0863916 13:0.111927 16:0.0903219 18:0.0825688 20:0.0277777 21:0.173001 22:0.0769624 23:0.0642202 24:0.430794 25:0.201835 27:0.144168 29:0.110091 30:0.431192 32:0.165138 33:0.165137 34:0.0540528 35:0.230377 36:0.0171824 37:0.159977 38:0.740061 39:0.24159 40:0.0626912 41:0.114679 42:0.0902141 43:0.183486 44:0.180741 45:0.155963 46:0.212538 47:0.0862386 48:0.277982 49:0.277523 51:0.240327 53:0.282111 55:0.110091 57:0.103976 58:0.275229 59:0.201835 60:0.0749236 61:0.295246 62:0.40367 63:0.080734 64:0.0935781 65:0.159477 66:0.050172 68:0.16055 69:0.174312 71:0.12844 75:0.233528 76:0.267366 77:0.127421 78:0.0939451 79:0.342507 80:0.0536968 82:0.352821 84:0.27523 86:0.0935781 87:0.139908 89:0.166972 90:0.149166 91:0.071101 92:0.236864 94:0.101808 95:0.0522936 99:0.0550457 100:0.19419 
2 1:0.0695787 2:0.0184254 3:0.105528 4:0.178566 5:0.0882189 6:0.134422 7:0.122398 8:0.226203 9:0.291421 10:0.00622157 11:0.307789 12:0.14196 13:0.214572 14:0.0566163 15:0.0123657 16:0.230873 17:0.00536013 18:0.105528 19:0.107203 20:0.071003 21:0.0947596 22:0.449657 23:0.0293132 24:0.110116 25:0.196538 26:0.170854 27:0.0394831 29:0.0351758 30:0.078727 31:0.414834 32:0.0527639 33:0.120603 34:0.0789515 35:0.0736088 36:0.222738 37:0.0389447 38:0.122836 39:0.396985 40:0.0801229 41:0.0293132 42:0.0823561 43:0.0737018 44:0.263996 45:0.156616 46:0.0465661 47:0.0472361 48:0.169179 49:0.0633375 50:0.127697 51:0.482668 52:0.165829 53:0.274706 54:0.0404402 55:0.0402009 56:0.353025 57:0.227807 58:0.0167504 59:0.0368509 60:0.123116 61:0.0673823 62:0.276382 63:0.147404 64:0.0854271 65:0.145586 66:0.137406 67:0.0278981 68:0.0586264 69:0.0636516 70:0.186872 71:0.257956 72:0.163963 73:0.175042 74:0.0446678 75:0.234506 76:0.0861448 77:0.0697935 78:0.325896 79:0.0938025 80:0.0882353 81:0.257956 82:0.279144 83:0.160176 84:0.167504 85:0.536154 86:0.205026 87:0.127722 88:0.412898 89:0.228643 90:0.0311254 91:0.129816 92:0.108116 93:0.370184 94:0.0464702 95:0.105025 96:0.228643 97:0.304858 98:0.00212019 99:0.0100502 100:0.0472734 
1.881303231011577 1:0.106692 2:0.0753425 5:0.270547 6:0.18322 8:0.0711502 10:0.0190803 11:0.251713 13:0.250684 14:0.154338 15:0.25282 16:0.404591 17:0.0328768 18:0.184932 19:0.125245 20:0.0622146 21:0.107632 22:0.0574582 23:0.0719181 24:0.080405 25:0.301369 26:0.174658 27:0.0538161 28:0.0497066 29:0.10274 30:0.160959 31:0.135702 32:0.030822 33:0.308219 34:0.242126 35:0.085997 36:0.0641399 37:0.119435 38:0.150685 39:0.450913 40:0.0936074 41:0.0171233 42:0.134703 43:0.191781 44:0.40481 45:0.0582192 46:0.0317351 47:0.193151 48:0.0691781 49:0.155394 51:0.179422 52:0.123288 53:0.280821 54:0.110241 55:0.10274 56:0.149331 57:0.0776257 58:0.10274 59:0.0753426 60:0.0559361 61:0.220423 62:0.30137 63:0.060274 65:0.0595308 66:0.187286 67:0.228153 69:0.086758 70:0.30565 71:0.958904 72:0.0744948 73:0.585616 74:0.127854 75:0.523038 76:0.0587084 77:0.0475647 79:0.127854 80:0.120266 81:0.191781 82:0.351208 83:0.0654966 84:0.273972 85:0.0953198 86:0.0698631 87:0.156678 88:0.232876 89:0.124658 90:0.190909 91:0.0530823 92:0.265256 93:0.0445206 94:0.0380038 95:0.0390411 96:0.311643 97:0.0445206 99:0.0205479 100:0.241629 
2 1:0.0332308 2:0.0704 3:0.0288 5:0.1264 6:0.1712 7:0.116914 8:0.365655 9:0.0420174 10:0.0118857 11:0.3136 12:0.0904001 13:0.01952 15:0.4016 16:0.126017 17:0.0512 18:0.0288 19:0.0877714 20:0.0871998 21:0.0502857 22:0.0268445 23:0.0784001 24:0.0300522 25:0.258133 26:0.9384 27:0.150857 28:0.24384 29:0.0479999 31:0.3804 32:0.0144 33:0.144 34:0.0565608 35:0.100444 36:0.0299661 37:0.2418 38:0.0938667 39:0.2528 40:0.0874667 41:0.024 42:0.0314666 43:0.2304 44:0.0945638 45:0.816 46:0.0593065 47:0.21056 48:0.19392 49:0.0726 50:0.152471 51:0.125739 52:0.0863999 53:0.2296 54:0.0772571 55:0.0383999 56:0.0697674 57:0.253867 58:0.048 59:0.3168 60:0.104533 61:0.128727 62:0.0704001 63:0.11264 64:0.06528 65:0.166877 66:0.2275 67:0.0177655 68:0.028 69:0.0810666 70:0.0714 71:0.3136 72:0.104412 73:0.0912 74:0.00853333 75:0.366546 76:0.0164571 77:0.0666667 78:0.229376 79:0.418134 80:0.0187294 81:0.224 82:0.574297 83:0.2754 84:0.192 85:0.356267 86:0.19584 87:0.0976 88:0.2176 89:0.1456 90:0.364204 91:0.1488 92:0.247855 93:0.0208 94:0.0887767 95:0.01824 96:0.266933 97:0.0416 98:0.0769579 99:0.0287999 100:0.0451556 
2 1:0.299557 4:0.0953526 5:0.189904 6:0.257212 10:0.00892856 11:0.117788 12:0.18109 13:0.29327 16:0.283993 17:0.0153846 18:0.346154 19:0.175824 20:0.0873397 21:0.271978 22:0.161325 23:0.201924 24:0.0451505 25:0.141026 26:0.122596 27:0.226649 29:0.230769 31:0.0952523 32:0.346154 33:0.432693 34:0.113303 36:0.0900426 37:0.167669 38:0.352565 39:0.253205 40:0.0657051 41:0.0480769 42:0.0945512 44:0.189431 45:0.163462 47:0.542308 48:0.485577 49:0.363582 50:0.183258 52:0.259616 53:0.295673 54:0.232143 55:0.144231 57:0.326924 58:0.0480769 61:0.232081 62:0.423078 64:0.294231 65:0.334289 67:0.0533819 71:0.134615 72:0.104579 73:0.182692 75:0.122378 76:0.0494506 77:0.133547 78:0.0984615 79:0.0897436 80:0.225114 83:0.091947 84:0.0961538 87:0.219952 88:0.408655 89:0.175 91:0.0745192 92:0.744756 93:0.125 94:0.0533514 95:0.0548077 96:0.0729166 97:0.125 100:0.33921 
2 1:0.068513 2:0.0207351 3:0.237512 4:0.105148 5:0.0310242 6:0.134464 7:0.447658 8:0.283931 9:0.232041 10:0.00175037 11:0.427192 12:0.115379 13:0.109237 14:0.0637134 15:0.0487054 16:0.259814 17:0.00150801 18:0.237512 19:0.120641 20:0.0142685 21:0.017773 22:0.387423 23:0.0164939 24:0.0154899 25:0.172792 26:0.288407 27:0.133297 28:0.0102599 29:0.0254476 30:0.0738298 31:0.382805 32:0.0508954 33:0.135721 34:0.0555302 35:0.0769191 36:0.0317737 37:0.0602616 38:0.0276468 39:0.37229 40:0.199655 41:0.0282752 42:0.120484 43:0.0377003 44:0.510623 45:0.200282 46:0.0262016 47:0.079736 48:0.171348 49:0.163937 50:0.260466 51:0.456758 52:0.313855 53:0.231857 54:0.128944 55:0.0254476 56:0.424676 57:0.320453 58:0.0188501 59:0.186617 60:0.146246 61:0.23507 62:0.269557 63:0.149293 64:0.144204 65:0.139261 66:0.231945 67:0.0209301 68:0.0907163 69:0.0656613 70:0.431109 71:0.277097 72:0.543298 73:0.241752 74:0.0854539 75:0.443836 76:0.0129258 77:0.0589067 78:0.318493 79:0.114358 80:0.0275822 81:0.580585 82:0.277888 83:0.225317 84:0.103676 85:0.564013 86:0.37493 87:0.0790528 88:0.216305 89:0.0857682 90:0.0197027 91:0.109566 92:0.170337 93:0.159284 94:0.0784431 95:0.236381 96:0.335925 97:0.134779 98:0.00119298 99:0.0141376 100:0.119698 
2 1:0.0757311 2:0.0802188 3:0.1969 4:0.040679 5:0.0720145 6:0.17882 7:0.244236 8:0.359838 9:0.0239388 10:0.0203151 11:0.0670009 12:0.0686722 13:0.144576 14:0.24649 15:0.376857 16:0.143593 17:0.0350045 18:0.229718 19:0.200026 20:0.0607207 21:0.0802189 22:0.168236 23:0.0574294 24:0.0214023 25:0.320874 26:0.278942 27:0.0859486 28:0.125694 29:0.0218778 30:0.0285627 31:0.234788 32:0.0246126 33:0.31176 34:0.0859326 35:0.183125 36:0.00341456 37:0.296719 38:0.147067 39:0.288058 40:0.0872076 41:0.0273473 42:0.143421 43:0.0437557 44:0.305299 45:0.247949 46:0.0506835 47:0.188513 48:0.184138 49:0.206815 50:0.0868681 51:0.310431 52:0.180491 53:0.149499 54:0.14672 55:0.0164083 56:0.105997 57:0.206624 58:0.0820419 59:0.461259 60:0.119113 61:0.132013 62:0.220601 63:0.272744 64:0.185962 65:0.221843 66:0.0498519 67:0.12146 68:0.143573 69:0.0692798 70:0.0610187 71:0.306289 72:0.138803 73:0.346398 74:0.00486174 75:0.672909 76:0.0343793 77:0.189913 78:0.112015 79:0.119113 80:0.213416 81:0.255241 82:0.701137 83:0.209206 84:0.109389 85:0.152233 86:0.557885 87:0.194622 88:0.185961 89:0.0995441 90:0.0465814 91:0.169553 92:0.211817 93:0.0355515 94:0.0910426 95:0.0727439 96:0.179732 97:0.0829535 98:0.020769 99:0.0273473 100:0.231541 
2 1:0.0533571 2:0.0635838 3:0.16185 4:0.0509527 5:0.0761079 6:0.0916292 7:0.17208 8:0.306901 9:0.0801153 10:0.0143132 11:0.173089 12:0.0362877 13:0.0705203 14:0.332862 15:0.379311 16:0.177047 17:0.045215 18:0.16185 19:0.270117 20:0.0233354 21:0.060556 22:0.172412 23:0.0269749 24:0.00603166 25:0.357953 26:0.327552 27:0.0605559 28:0.107203 29:0.0154142 30:0.0503104 31:0.356294 32:0.0346821 33:0.138728 34:0.136226 35:0.177406 36:0.0312749 37:0.253854 38:0.150718 39:0.169129 40:0.122886 41:0.0160565 42:0.164205 43:0.0924856 44:0.278366 45:0.229288 46:0.0357095 47:0.13282 48:0.168658 49:0.262283 50:0.220333 51:0.319665 52:0.335261 53:0.105331 54:0.134385 55:0.00385356 56:0.177369 57:0.393063 58:0.0385356 59:0.423892 60:0.0314707 61:0.24803 62:0.197816 63:0.282594 64:0.0524084 65:0.0669864 66:0.189667 67:0.199677 68:0.112396 69:0.1383 70:0.472905 71:0.197816 72:0.0977954 73:0.329479 74:0.0411047 75:0.506803 76:0.0066061 77:0.124884 78:0.131535 79:0.119889 80:0.0225547 81:0.413616 82:0.675125 83:0.122832 84:0.0770712 85:0.303896 86:0.327553 87:0.0391778 88:0.131021 89:0.105202 90:0.0924915 91:0.129416 92:0.182402 93:0.0751445 94:0.121162 95:0.065896 96:0.331193 97:0.0584458 98:0.0536544 99:0.0115607 100:0.145009 
2 1:0.101243 2:0.153204 3:0.175487 4:0.0414345 5:0.0916899 6:0.29805 7:0.441006 8:0.260421 9:0.100581 10:0.00258655 11:0.443592 12:0.0786908 13:0.135934 14:0.0941503 15:0.102818 16:0.0822708 17:0.00445683 18:0.0501393 19:0.178273 20:0.0421695 21:0.0875449 22:0.163572 23:0.0682452 24:0.0196197 25:0.306407 26:0.213092 27:0.196975 28:0.020215 29:0.0919216 30:0.152739 31:0.248346 32:0.0626742 33:0.125348 34:0.0984694 35:0.0874343 36:0.0260847 37:0.0809541 38:0.326834 39:0.220056 40:0.171309 41:0.0557105 42:0.0547818 43:0.0222842 44:0.274385 45:0.118384 46:0.0903432 47:0.130919 48:0.253203 49:0.189589 50:0.18581 51:0.364842 52:0.100278 53:0.171309 54:0.156917 55:0.0334261 56:0.222679 57:0.473539 58:0.097493 59:0.306408 60:0.181988 61:0.291339 62:0.459611 63:0.122563 64:0.227299 65:0.0726308 66:0.121867 67:0.0618577 68:0.097493 69:0.158774 70:0.217531 71:0.506962 72:0.363551 73:0.396936 74:0.0297122 75:0.460875 76:0.0143255 77:0.0580315 78:0.256713 79:0.259982 80:0.0489104 81:0.428968 82:0.249955 83:0.0532731 84:0.222842 85:0.387652 86:0.0852367 87:0.169917 88:0.213092 89:0.202786 91:0.259053 92:0.539378 93:0.0362117 94:0.108189 96:0.168988 97:0.144847 98:0.0141031 99:0.0250696 100:0.137574 
2 1:0.1159 2:0.0491072 3:0.200892 4:0.0221354 5:0.0587798 6:0.23884 7:0.163106 8:0.0927494 9:0.0732724 10:0.0704718 11:0.0546875 12:0.0420387 13:0.108929 14:0.251488 15:0.164784 16:0.219756 17:0.0285714 18:0.321428 19:0.367347 20:0.0540673 21:0.140306 22:0.0749009 23:0.0625001 24:0.0419255 25:0.261904 26:0.0569196 27:0.21046 28:0.129592 29:0.0401785 30:0.0699405 31:0.132673 32:0.0803572 33:0.321428 34:0.131512 35:0.252232 36:0.0250833 37:0.155692 38:0.294643 39:0.11756 40:0.122024 41:0.0223214 42:0.0438987 43:0.107143 44:0.08795 45:0.0379464 46:0.103422 47:0.167857 48:0.135268 49:0.202568 50:0.170168 51:0.292362 52:0.120536 53:0.137277 54:0.107781 56:0.194664 57:0.303573 58:0.0223214 59:0.196429 60:0.145833 61:0.107752 62:0.392857 63:0.117857 64:0.182143 65:0.116404 66:0.12207 67:0.173491 68:0.234376 69:0.0565477 70:0.0996095 71:0.375001 72:0.291329 73:0.55134 74:0.0714288 75:0.397727 76:0.0382652 77:0.124008 78:0.228571 79:0.375 80:0.0783877 81:0.375001 82:0.0572282 83:0.128069 84:0.0892858 85:0.37277 86:0.455357 87:0.170201 88:0.189732 89:0.121875 90:0.0414773 91:0.242188 92:0.17289 93:0.0870536 94:0.0247703 95:0.0508929 96:0.0677084 97:0.174108 98:0.00565069 99:0.0535713 100:0.0629961 
2 1:0.136074 2:0.0455172 3:0.124138 4:0.0547126 5:0.118046 6:0.086092 7:0.218375 8:0.487158 9:0.0679158 10:0.0153694 11:0.168966 12:0.0779311 13:0.100966 14:0.295263 15:0.51931 16:0.135794 17:0.0838621 18:0.223448 19:0.189162 20:0.0167049 21:0.0303448 22:0.0347127 23:0.0289655 24:0.0194303 25:0.313563 26:0.211034 27:0.184236 28:0.200197 29:0.0372413 30:0.0324139 31:0.409915 32:0.062069 33:0.223448 34:0.243797 35:0.138544 36:0.00774988 37:0.168363 38:0.0505748 39:0.19977 40:0.0377012 41:0.0241379 42:0.135632 43:0.0551724 44:0.149454 45:0.175862 46:0.0575171 47:0.155586 48:0.13931 49:0.10431 50:0.210305 51:0.379386 52:0.422069 53:0.0989656 54:0.0888013 55:0.00827584 56:0.120289 57:0.297011 58:0.0551724 59:0.348967 60:0.0788506 61:0.199749 62:0.182069 63:0.145655 64:0.0984829 65:0.0719296 66:0.173492 67:0.168466 68:0.012069 69:0.096092 70:0.523191 71:0.154483 72:0.150017 73:0.262069 74:0.0588507 75:0.298432 76:0.00945811 77:0.0957854 78:0.16949 79:0.141609 80:0.0242191 81:0.521379 82:0.601174 83:0.0791379 84:0.0689656 85:0.268736 86:0.450208 87:0.0631034 88:0.175862 89:0.0753103 90:0.041649 91:0.138966 92:0.142445 93:0.0537931 94:0.16837 95:0.0943448 96:0.292873 97:0.035862 98:0.118719 99:0.0124138 100:0.097318 
2 1:0.101872 2:0.00674433 3:0.187616 4:0.0790412 5:0.113019 6:0.207746 7:0.26881 8:0.216549 9:0.0966064 10:0.0068319 11:0.375536 12:0.103924 13:0.142121 14:0.0690782 15:0.0633679 16:0.229377 17:0.00196199 18:0.242796 19:0.179382 20:0.0742555 21:0.0462468 22:0.370324 23:0.030043 24:0.037427 25:0.170856 26:0.265789 27:0.173426 28:0.026697 29:0.0441446 30:0.134478 31:0.267245 32:0.0496629 33:0.220723 34:0.101146 35:0.0923769 36:0.0344491 37:0.0641478 38:0.125894 39:0.306765 40:0.100552 41:0.015328 42:0.0964643 43:0.00980992 44:0.362368 45:0.260576 46:0.0227262 47:0.161373 48:0.19816 49:0.185469 50:0.327191 51:0.562137 52:0.331085 53:0.326792 54:0.00986832 55:0.00367872 56:0.294084 57:0.403025 58:0.0735745 59:0.121398 60:0.160229 61:0.384761 62:0.391171 63:0.172655 64:0.137584 65:0.170526 66:0.120708 67:0.0204232 68:0.160944 69:0.186389 70:0.136803 71:0.360514 72:0.280074 73:0.104844 74:0.0228899 75:0.343349 76:0.0273276 77:0.110702 78:0.426928 79:0.137339 80:0.0430627 81:0.377683 82:0.518739 83:0.328326 84:0.122624 85:0.375436 86:0.300184 87:0.149601 88:0.302269 89:0.212017 90:0.00569645 91:0.190067 92:0.364083 93:0.0956468 94:0.0748424 95:0.0978541 96:0.18598 97:0.1355 98:0.00310424 99:0.0183936 100:0.155733 
2 1:0.124366 2:0.175649 3:0.215568 4:0.00989687 5:0.183966 6:0.071191 7:0.0972342 8:0.124406 9:0.0131042 10:0.0111206 11:0.0489023 12:0.187958 13:0.0974052 14:0.0449768 15:0.294705 16:0.196509 17:0.0830339 18:0.107784 19:0.145994 20:0.108782 21:0.0752777 22:0.100466 23:0.0838321 24:0.0656081 25:0.175648 27:0.219561 28:0.21728 29:0.0598801 30:0.250167 31:0.0790919 32:0.107784 33:0.143712 34:0.04704 35:0.150365 36:0.0149532 37:0.185629 38:0.204924 39:0.210246 40:0.0272788 41:0.0399201 42:0.0785097 43:0.0638722 44:0.117969 45:0.30539 46:0.0554888 47:0.112575 48:0.0806387 49:0.150948 50:0.152166 51:0.313719 52:0.0718563 53:0.204591 54:0.0963786 55:0.035928 56:0.17407 57:0.180972 58:0.0399202 59:0.219561 60:0.228211 61:0.256941 62:0.263472 63:0.140519 64:0.162874 65:0.173483 66:0.0873253 67:0.132975 68:0.20958 69:0.17698 70:0.267215 71:0.391219 72:0.130254 73:0.26547 74:0.0425815 75:0.20323 76:0.0342172 77:0.0277224 78:0.122635 79:0.149035 80:0.186921 81:0.111777 82:0.409394 83:0.229041 84:0.359282 85:0.166667 86:0.285031 87:0.121756 88:0.135729 89:0.217963 90:0.0834515 91:0.154691 92:0.4638 93:0.0259481 94:0.0885995 95:0.0910179 96:0.181636 97:0.0778442 98:0.101058 99:0.011976 100:0.197162 
2 1:0.0848417 2:0.0179739 3:0.17647 4:0.137731 5:0.215142 6:0.116558 7:0.238796 8:0.0678949 9:0.118002 10:0.0121382 11:0.160131 12:0.0307735 13:0.119608 14:0.0736383 15:0.120627 16:0.128694 17:0.0261438 18:0.0294118 19:0.119515 20:0.0791574 21:0.184874 22:0.383805 23:0.0571896 24:0.0997441 25:0.263617 26:0.166667 27:0.102708 28:0.0711486 29:0.0196078 31:0.388479 32:0.0588236 33:0.294118 34:0.0577623 35:0.102578 36:0.0550849 37:0.113971 38:0.191721 39:0.129085 40:0.156318 41:0.00816995 42:0.06427 43:0.0915032 44:0.128763 45:0.0833334 46:0.166558 47:0.0614378 48:0.0990195 49:0.049428 50:0.0934257 51:0.299623 52:0.205882 53:0.0669934 54:0.0788982 55:0.0196078 56:0.379997 57:0.111111 58:0.0490196 59:0.107843 60:0.0800653 61:0.210339 62:0.143791 63:0.0862745 64:0.166667 65:0.142018 66:0.142974 67:0.127 68:0.171568 69:0.103486 70:0.182292 71:0.137255 72:0.10663 73:0.683006 74:0.11329 75:0.499108 76:0.0840335 77:0.0453885 78:0.267713 79:0.244009 80:0.133891 81:0.640522 82:0.209463 83:0.09375 84:0.130719 85:0.136438 86:0.333334 87:0.0996732 88:0.388889 89:0.20817 90:0.060725 91:0.126634 92:0.210933 93:0.106209 94:0.108795 95:0.0931373 96:0.198257 97:0.276143 98:0.0124094 100:0.0922296 
2 1:0.0580609 2:0.0263579 3:0.115016 4:0.0594047 5:0.136715 6:0.270633 7:0.194546 8:0.215724 9:0.0734129 10:0.0148334 11:0.215256 12:0.135384 13:0.155911 14:0.0899893 15:0.0825502 16:0.188723 17:0.00766774 18:0.129393 19:0.131447 20:0.0967336 21:0.0502054 22:0.187611 23:0.0782748 24:0.0562577 25:0.410011 26:0.570287 27:0.163168 28:0.0521681 29:0.0287539 30:0.162673 31:0.348143 32:0.0575081 33:0.230033 34:0.0658822 35:0.0300853 36:0.0538529 37:0.148563 38:0.187434 39:0.126198 40:0.13099 41:0.0359425 42:0.125666 43:0.057508 44:0.188825 45:0.217253 46:0.0444088 47:0.0900958 48:0.258148 49:0.0966454 50:0.152227 51:0.272 52:0.230033 53:0.278355 54:0.179978 55:0.0335462 56:0.255406 57:0.181044 58:0.0958466 59:0.228435 60:0.156549 61:0.141374 62:0.263578 63:0.126518 64:0.195527 65:0.111073 66:0.148513 67:0.0620799 68:0.153754 69:0.14164 70:0.320787 71:0.26837 72:0.347483 73:0.197285 74:0.0596379 75:0.569271 76:0.041077 77:0.0776535 78:0.196294 79:0.104366 80:0.037399 81:0.469649 82:0.389079 83:0.213858 84:0.127796 85:0.40016 86:0.325878 87:0.133986 88:0.380192 89:0.159904 90:0.107602 91:0.136182 92:0.0824862 93:0.0311502 94:0.0443175 95:0.0182108 96:0.278621 97:0.186901 98:0.0161758 99:0.0287539 100:0.101438 
2 1:0.189437 2:0.0364842 3:0.149254 4:0.0246683 5:0.109176 6:0.0591487 7:0.161573 8:0.206725 9:0.0653255 10:0.107794 11:0.0406301 12:0.0624655 13:0.101161 14:0.186843 15:0.0244853 16:0.130615 17:0.0159204 18:0.0298506 19:0.0909736 20:0.0502118 21:0.145937 22:0.139119 23:0.0812603 24:0.0389357 25:0.267551 26:0.126866 27:0.312722 28:0.132386 29:0.099502 30:0.103925 31:0.0985695 32:0.0746269 33:0.238806 34:0.0195414 35:0.166575 36:0.0124238 37:0.154229 38:0.43781 39:0.218352 40:0.158651 41:0.0331675 42:0.326146 43:0.053068 44:0.228699 45:0.11277 46:0.0768378 47:0.280597 48:0.234493 49:0.250828 50:0.09482 51:0.130326 52:0.0895521 53:0.135987 54:0.0800757 55:0.0298507 56:0.120521 57:0.187949 58:0.0829187 59:0.255389 60:0.0541736 61:0.106739 62:0.145937 63:0.0875621 64:0.169154 65:0.23062 66:0.0544154 67:0.0920684 68:0.290215 69:0.0630182 70:0.14801 71:0.510779 72:0.108221 73:0.220563 74:0.0442233 75:0.295492 76:0.0398009 77:0.0921319 78:0.101891 79:0.340519 80:0.155302 81:0.185738 82:0.0425177 83:0.0317163 84:0.298508 85:0.138474 86:0.202985 87:0.278192 88:0.310116 89:0.211276 91:0.385572 92:0.34253 93:0.107794 94:0.0184031 95:0.0378109 96:0.12576 97:0.107794 98:0.020991 99:0.258706 100:0.0936061 
2 1:0.181788 2:0.084245 3:0.196936 4:0.0325492 5:0.172866 6:0.214624 7:0.186543 8:0.250037 9:0.0143659 10:0.0264145 11:0.0536104 12:0.0824217 13:0.120131 14:0.147921 15:0.177693 16:0.193886 17:0.038512 18:0.157549 19:0.260081 20:0.0795038 21:0.110035 22:0.0917822 23:0.0995625 24:0.0719247 25:0.272794 26:0.195295 27:0.189121 28:0.13498 29:0.0262582 30:0.0514224 31:0.216767 32:0.0295405 33:0.256017 34:0.11603 35:0.261001 36:0.0204911 37:0.241657 38:0.353027 39:0.0864333 40:0.104668 41:0.0273523 42:0.193654 43:0.0612691 44:0.129327 45:0.0743983 46:0.121663 47:0.226258 48:0.132604 49:0.148933 50:0.104261 51:0.343925 52:0.177243 53:0.112144 54:0.176096 55:0.0722099 56:0.143123 57:0.223195 58:0.0984683 59:0.336981 60:0.0178701 61:0.176049 62:0.19256 63:0.19256 64:0.200875 65:0.13313 66:0.0717997 67:0.182223 68:0.248906 69:0.124726 70:0.146472 71:0.214442 72:0.0237992 73:0.291029 74:0.0700219 75:0.334195 76:0.0825256 77:0.182349 78:0.0448139 79:0.224653 80:0.217725 81:0.33698 82:0.224405 83:0.104623 84:0.153173 85:0.121809 86:0.200875 87:0.183534 88:0.204595 89:0.0398248 90:0.0660733 91:0.135668 92:0.282474 93:0.071116 94:0.09713 95:0.0498906 96:0.182531 97:0.071116 98:0.0221577 99:0.0262582 100:0.108072 
2 1:0.0712251 2:0.0150891 3:0.213991 4:0.0748172 5:0.0301021 6:0.171239 7:0.423215 8:0.132996 9:0.132085 10:0.00679339 11:0.291266 12:0.163618 13:0.133882 14:0.0721231 15:0.108018 16:0.216078 17:0.00731597 18:0.230452 19:0.158861 20:0.0359955 21:0.0201189 22:0.375908 23:0.0512118 24:0.0085883 25:0.268252 26:0.244856 27:0.165262 28:0.0298649 29:0.0411522 30:0.143271 31:0.308013 32:0.0781894 33:0.238683 34:0.0969835 35:0.0631509 36:0.0342549 37:0.0691016 38:0.0938881 39:0.421431 40:0.0749886 41:0.0365798 42:0.14388 43:0.0219478 44:0.306276 45:0.163237 46:0.0466086 47:0.206309 48:0.138546 49:0.145233 50:0.19172 51:0.574939 52:0.205761 53:0.299954 54:0.0220785 55:0.0329218 56:0.31901 57:0.310928 58:0.0640146 59:0.19113 60:0.209114 61:0.147151 62:0.392318 63:0.104618 64:0.158574 65:0.0794832 66:0.155036 67:0.0355391 68:0.152035 69:0.086877 70:0.285665 71:0.396891 72:0.447581 73:0.286695 74:0.0975461 75:0.419005 76:0.026651 77:0.0952599 78:0.25284 79:0.153635 80:0.0374674 81:0.435299 82:0.339969 83:0.332304 84:0.164609 85:0.483616 86:0.30782 87:0.167352 88:0.217649 89:0.141472 90:0.0212412 91:0.18427 92:0.153469 93:0.0951075 94:0.08626 95:0.177229 96:0.249657 97:0.118884 98:0.0138903 99:0.0192043 100:0.174212 
2 1:0.0231627 2:0.00817843 3:0.0267658 4:0.0774163 5:0.0783148 6:0.172367 7:0.344079 8:0.278041 9:0.331921 11:0.601115 12:0.028005 13:0.0453531 14:0.0167534 15:0.021955 16:0.365989 18:0.401486 19:0.149549 20:0.0315158 21:0.0280404 22:0.374225 23:0.0260223 24:0.0104736 25:0.0981413 26:0.379182 27:0.0350504 29:0.0223048 30:0.0465923 31:0.559758 32:0.0401488 33:0.107063 34:0.0788487 35:0.11202 36:0.0306345 38:0.0545229 39:0.822305 40:0.172739 41:0.0185873 42:0.0877323 43:0.0237918 44:0.527307 45:0.21487 46:0.0206691 47:0.0698884 48:0.120149 49:0.236153 50:0.453444 51:0.506385 52:0.495167 53:0.106691 54:0.0359001 55:0.0133829 56:0.302584 57:0.741514 58:0.0892193 59:0.179926 60:0.267163 61:0.107672 62:0.130855 63:0.104684 64:0.151673 65:0.0646207 66:0.325279 68:0.104089 69:0.0565056 70:0.597212 71:0.520447 72:0.291111 73:0.0847584 74:0.0832715 75:0.208179 76:0.00254912 77:0.113589 78:0.334989 79:0.111029 80:0.0261097 81:0.541265 82:0.495611 83:0.327045 84:0.0892194 85:0.724288 86:0.242676 87:0.102045 88:0.21487 89:0.0676579 91:0.103718 92:0.230348 93:0.241636 94:0.0742556 95:0.110186 96:0.0902107 97:0.0773235 100:0.104915 
2 1:0.157003 3:0.233262 4:0.0214182 5:0.511879 6:0.154068 7:0.368251 8:0.224361 9:0.0283594 11:0.211663 12:0.12203 13:0.131749 14:0.0486682 15:0.0318892 16:0.212636 18:0.0777536 19:0.197469 20:0.0130789 21:0.108608 22:0.181185 23:0.0453564 24:0.243403 25:0.158387 26:0.165227 28:0.0313484 29:0.12959 30:0.135349 31:0.213957 32:0.213823 33:0.388769 34:0.0254504 35:0.0542356 36:0.0161804 37:0.100432 38:0.190065 39:0.455003 40:0.236141 41:0.129589 42:0.12743 43:0.0172786 44:0.127651 45:0.183585 46:0.0400286 47:0.284233 48:0.0872568 50:0.246983 51:0.169734 52:0.155507 53:0.354211 54:0.034763 55:0.0647945 56:0.0627856 57:0.293738 58:0.107991 59:0.0950324 60:0.105831 61:0.278028 62:0.285098 63:0.152052 64:0.308424 65:0.300354 66:0.0236231 68:0.113391 69:0.300936 70:0.0481912 71:0.181425 72:0.140945 73:0.12311 75:0.329866 76:0.111077 77:0.11999 78:0.619266 79:0.161267 80:0.151697 81:0.0604752 82:0.110748 83:0.371759 84:0.25918 85:0.661268 86:0.132181 87:0.164686 88:0.0367171 89:0.393089 91:0.100432 92:0.278813 93:0.280778 95:0.0738661 96:0.196545 97:0.0561554 
2 1:0.0572155 2:0.010101 3:0.165289 4:0.100168 5:0.0483623 6:0.163759 7:0.089466 8:0.26709 9:0.192917 10:0.00682145 11:0.292471 12:0.103765 13:0.0784206 14:0.103459 15:0.20337 16:0.19889 17:0.0117539 18:0.14876 19:0.167913 20:0.061167 21:0.08658 22:0.200287 23:0.0385675 24:0.00431189 25:0.282828 26:0.327823 27:0.245311 28:0.0199922 29:0.0385674 30:0.0575451 31:0.272899 32:0.140496 33:0.181818 34:0.0757434 35:0.219059 36:0.0240775 37:0.0853995 38:0.053872 39:0.338536 40:0.100398 41:0.0183654 42:0.126416 43:0.036731 44:0.23518 45:0.218549 46:0.00850931 47:0.258953 48:0.129844 49:0.125 50:0.332523 51:0.505149 52:0.29752 53:0.244721 54:0.133018 55:0.0220385 56:0.13347 57:0.416285 58:0.0367309 59:0.303031 60:0.0749924 61:0.265965 62:0.222222 63:0.0808081 64:0.093664 65:0.127699 66:0.25109 67:0.0815681 68:0.128558 69:0.116315 70:0.368801 71:0.282828 72:0.199747 73:0.296603 74:0.0734619 75:0.327239 76:0.00944509 77:0.1658 78:0.300901 79:0.188552 80:0.0967428 81:0.411387 82:0.353144 83:0.158058 84:0.146924 85:0.38338 86:0.243527 87:0.126033 88:0.156107 89:0.167126 90:0.0511897 91:0.128099 92:0.379331 93:0.274564 94:0.101902 95:0.115151 96:0.153198 97:0.155189 98:0.0116231 99:0.00550963 100:0.207326 
2 1:0.11774 2:0.0623582 3:0.163265 4:0.0112433 5:0.119425 6:0.0606576 7:0.220926 8:0.141332 9:0.0297742 10:0.0210561 11:0.166667 12:0.0854121 13:0.12449 14:0.12774 15:0.435241 16:0.0669733 17:0.105215 18:0.102041 19:0.10366 20:0.116717 21:0.0926463 22:0.0190225 23:0.0793654 24:0.16504 25:0.133031 26:0.115646 27:0.302883 28:0.197474 29:0.115646 30:0.159864 31:0.0224632 32:0.0204082 33:0.244897 34:0.05344 35:0.156589 36:0.0127407 37:0.105442 38:0.399093 39:0.0895691 40:0.0309901 41:0.102041 42:0.222979 43:0.199546 44:0.111682 45:0.0963719 46:0.0525319 47:0.127891 48:0.160317 49:0.257228 50:0.0432172 51:0.148501 52:0.102041 53:0.0697279 54:0.0729943 55:0.0612245 56:0.0988767 57:0.0770976 58:0.204082 59:0.14966 60:0.0925925 61:0.145949 62:0.249434 63:0.159637 64:0.138776 65:0.13796 66:0.0744047 67:0.163656 68:0.297619 69:0.0718064 70:0.0505952 71:0.47619 72:0.147976 73:0.0861678 74:0.00604688 75:0.11544 76:0.0777452 77:0.141724 78:0.02322 79:0.275132 80:0.0796319 81:0.095238 82:0.319753 83:0.151786 84:0.498866 85:0.284014 86:0.0925171 87:0.190193 88:0.0963719 89:0.0619047 90:0.0316018 91:0.228458 92:0.175634 93:0.0147393 94:0.113236 96:0.0687831 97:0.0589569 98:0.123418 99:0.0748301 100:0.239985 
2 1:0.346153 2:0.0523809 3:0.171428 5:0.188095 6:0.0849205 7:0.115986 11:0.116667 12:0.269048 14:0.107301 15:0.210924 16:0.0937626 18:0.0857141 19:0.17415 20:0.0865076 21:0.179592 23:0.0666667 24:0.111801 25:0.419047 26:0.242857 27:0.14966 28:0.0345579 29:0.142857 30:0.447619 31:0.0943451 32:0.0428571 37:0.0553571 38:0.419047 39:0.501587 40:0.195238 41:0.095238 42:0.0936506 43:0.72381 45:0.0809523 46:0.0882537 47:0.0895237 48:0.288571 49:0.144048 50:0.0907563 51:0.124741 52:0.0857141 53:0.0976189 54:0.153288 55:0.0571427 56:0.0692137 58:0.0952381 60:0.0777777 61:0.0766233 62:0.419048 63:0.838094 66:0.0520833 67:0.0528735 68:0.333333 69:0.120635 70:0.10625 71:0.133333 72:0.207166 74:0.0761904 76:0.0816325 77:0.0661375 78:0.0975238 79:0.266667 81:0.266667 82:0.244174 83:0.364285 84:0.285714 85:0.26508 86:0.0971428 88:0.161905 89:0.0866665 90:0.442425 91:0.0738095 95:0.0542857 96:0.144444 99:0.085714 
2 1:0.116682 2:0.123596 3:0.101124 5:0.517789 6:0.200375 7:0.136838 13:0.205618 17:0.0179775 20:0.238139 21:0.0706262 23:0.0393259 24:0.0263801 25:0.329588 26:0.143258 27:0.35313 28:0.0407706 29:0.134831 30:0.088015 32:0.151685 33:0.202248 35:0.141074 36:0.126262 37:0.130619 38:0.411985 41:0.112359 43:0.269663 44:0.221358 45:0.0955057 46:0.10412 47:0.52809 49:0.339888 53:0.115169 57:0.254683 58:0.337079 59:0.123596 60:0.0917603 61:0.271195 64:0.687641 67:0.062379 68:0.0983146 69:0.498127 71:0.157303 73:0.213484 75:0.572012 77:0.0780275 79:0.314606 80:0.986452 82:0.144035 83:0.322331 84:0.561798 85:0.156367 86:0.114607 87:0.257022 88:0.0955057 89:0.408988 90:0.0782941 91:0.348315 92:0.290093 93:0.219101 97:0.0730337 98:0.014222 99:0.0337078 
2 1:0.295018 2:0.0625 3:0.102273 6:0.303978 7:0.138393 8:0.118045 10:0.0211038 11:0.139205 12:0.107008 13:0.277273 14:0.12803 15:0.16778 16:0.111876 17:0.0181818 18:0.409091 19:0.519481 20:0.10322 21:0.142857 23:0.0397728 24:0.160079 25:0.0833334 26:0.144886 28:0.371105 29:0.102273 30:0.17803 31:0.112571 33:0.102273 34:0.0669517 35:0.0713384 36:0.106414 37:0.594461 38:0.0833334 40:0.232955 41:0.0284091 43:0.272727 44:0.447746 45:0.193181 46:0.105302 47:0.213636 48:0.229544 49:0.0859375 52:0.204545 58:0.113636 59:0.125 61:0.182851 62:0.500001 63:0.199999 65:0.098767 67:0.0630878 71:0.159091 72:0.494375 73:0.215908 74:0.030303 76:0.0974025 78:0.116364 79:0.318183 80:0.133021 81:0.636364 84:0.227272 87:0.173295 88:0.676136 89:0.310228 92:0.733471 93:0.0738636 95:0.194319 97:0.369318 100:0.320708 
2 1:0.227733 3:0.157895 4:0.021747 5:0.173246 6:0.156433 7:0.10683 8:0.273367 11:0.214912 13:0.107018 14:0.0988303 15:0.129515 16:0.172721 17:0.0140351 18:0.236842 19:0.0802004 20:0.106238 21:0.0551378 23:0.0614036 24:0.24714 25:0.385965 26:0.111842 27:0.344611 29:0.0526315 30:0.137427 31:0.0868968 32:0.0394737 34:0.051682 35:0.0550682 37:0.0509868 38:0.128655 39:0.230994 40:0.0599415 41:0.109649 42:0.0862571 43:0.175438 44:0.345629 45:0.149123 46:0.203216 47:0.082456 49:0.199013 50:0.167183 51:0.114893 53:0.179825 54:0.423559 55:0.157894 56:0.254999 57:0.198831 58:0.131579 59:0.0964912 61:0.211723 62:0.385966 63:0.308773 65:0.0762411 66:0.0479714 67:0.0486993 68:0.0767542 69:0.111111 71:0.368421 72:0.0954054 74:0.116959 75:0.334928 76:0.0751878 77:0.0609161 78:0.0898245 79:0.573101 80:0.154025 82:0.112448 83:0.167763 84:0.614036 85:0.61038 86:0.178947 87:0.334429 88:0.223684 89:0.159649 90:0.203748 91:0.54386 92:0.339713 95:0.0499999 96:0.0665204 97:0.0570175 100:0.0618908 
2 1:0.0502481 2:0.0354839 3:0.159677 4:0.0639783 5:0.138038 6:0.143817 7:0.176786 8:0.31834 9:0.132363 10:0.0014977 11:0.375404 12:0.197447 13:0.167258 14:0.036344 15:0.178606 16:0.269946 17:0.0129032 18:0.174193 19:0.147466 20:0.0537185 21:0.0557604 22:0.243548 23:0.0395162 24:0.00757362 25:0.366667 26:0.267339 27:0.0760368 28:0.064378 29:0.0145161 30:0.0505377 31:0.223689 32:0.130645 33:0.232257 34:0.0855254 35:0.192384 36:0.0392702 37:0.121875 38:0.153764 39:0.467203 40:0.121237 41:0.0282258 42:0.111021 43:0.0580645 44:0.238316 45:0.219355 46:0.0672578 47:0.106129 48:0.179193 49:0.146371 50:0.230551 51:0.338008 52:0.290322 53:0.231451 54:0.168741 55:0.0241935 56:0.234433 57:0.237635 58:0.0564516 59:0.106452 60:0.118548 61:0.168695 62:0.195162 63:0.141936 64:0.0493547 65:0.168223 66:0.15877 67:0.116407 68:0.0423386 69:0.132796 70:0.377874 71:0.361289 72:0.315761 73:0.291129 74:0.0516129 75:0.574779 76:0.0110599 77:0.134409 78:0.346839 79:0.255915 80:0.084962 81:0.361289 82:0.475549 83:0.200505 84:0.177419 85:0.404032 86:0.230322 87:0.159879 88:0.178226 89:0.132097 90:0.0299707 91:0.1 92:0.208211 93:0.230645 94:0.0715941 95:0.0827419 96:0.171236 97:0.146774 98:0.0244985 99:0.0048387 100:0.125179 
2 1:0.0725689 2:0.0230608 3:0.125786 4:0.100483 5:0.174819 6:0.28663 7:0.170211 8:0.188739 9:0.151399 10:0.00778675 11:0.222572 12:0.118449 13:0.204612 14:0.0629863 15:0.0309533 16:0.302714 18:0.213836 19:0.191675 20:0.0804018 21:0.0790654 22:0.304837 23:0.0391335 24:0.026251 25:0.153739 26:0.196017 27:0.197664 28:0.00507139 29:0.0545073 30:0.0547403 31:0.221524 32:0.132076 33:0.201258 34:0.0494067 35:0.114062 36:0.0602046 37:0.0406185 38:0.122991 39:0.625669 40:0.066853 41:0.0349406 42:0.096203 44:0.357946 45:0.106918 46:0.0388538 47:0.289029 48:0.127044 49:0.0739867 50:0.226415 51:0.366115 52:0.251571 53:0.22921 54:0.0562377 55:0.0461215 56:0.3555 57:0.443512 58:0.0279525 59:0.215234 60:0.148381 61:0.281113 62:0.538085 63:0.0614954 64:0.171069 65:0.157917 66:0.122292 67:0.0387961 68:0.0978337 69:0.132774 70:0.265068 71:0.469602 72:0.273616 73:0.172607 74:0.0819941 75:0.249031 76:0.0143755 77:0.116469 78:0.443663 79:0.182623 80:0.0490813 81:0.430469 82:0.268745 83:0.200472 84:0.181691 85:0.369555 86:0.185325 87:0.17051 88:0.237596 89:0.15262 91:0.0866528 92:0.342798 93:0.345214 94:0.0542834 95:0.143396 96:0.127184 97:0.136269 98:0.00176905 99:0.0251572 100:0.138054 
2 1:0.309988 3:0.201492 5:0.294777 7:0.454424 11:0.0914179 12:0.210821 13:0.136567 14:0.0840795 15:0.165276 18:0.134328 19:0.409382 20:0.0903814 21:0.0469083 23:0.261194 24:0.105127 25:0.109453 26:0.0951491 27:0.351813 28:0.0541579 29:0.0671639 32:0.201493 33:0.33582 34:0.0439683 35:0.0936982 37:0.173508 38:0.273632 39:0.294775 41:0.130597 42:0.146766 43:0.0597015 44:0.0735103 45:0.190298 46:0.103731 47:0.140299 48:0.150746 49:0.169309 50:0.355575 51:0.19549 52:0.201492 53:0.535448 54:0.0600568 55:0.0895522 56:0.0542346 57:0.422886 58:0.11194 59:0.410448 60:0.0609452 61:0.300203 62:0.410448 63:0.197014 64:0.228358 65:0.454033 66:0.0408115 67:0.0828616 68:0.391791 69:0.236318 70:0.0832556 71:0.522387 72:0.162332 73:0.212686 74:0.0199005 76:0.0639658 77:0.0518242 79:0.487562 80:0.305751 82:0.0956651 83:0.214085 84:0.373134 85:0.311567 86:0.0761193 88:0.0634328 89:0.135821 91:0.289179 92:0.481682 94:0.0828142 95:0.0425373 98:0.00944593 99:0.0447761 100:0.105307 
2 1:0.097661 2:0.137931 3:0.0846394 4:0.023315 5:0.185737 6:0.111808 7:0.114532 8:0.227949 9:0.0823225 10:0.0378415 11:0.230408 12:0.0295194 13:0.076489 14:0.28255 15:0.254564 16:0.154312 17:0.0250784 18:0.394984 19:0.0573221 20:0.0284743 21:0.0788178 22:0.10519 23:0.0329154 24:0.125119 25:0.298851 26:0.199843 27:0.0246306 28:0.113749 29:0.0188088 30:0.0245559 31:0.652136 32:0.0282132 33:0.169279 34:0.110817 35:0.177116 36:0.0176133 37:0.163989 38:0.252874 39:0.206374 40:0.257054 41:0.015674 42:0.061651 43:0.16301 44:0.277911 45:0.159875 46:0.0290491 47:0.0294671 48:0.379937 49:0.189655 50:0.358474 51:0.574827 52:0.282132 53:0.0642634 54:0.0252277 55:0.0188088 56:0.182256 57:0.355278 58:0.031348 59:0.206897 60:0.0768024 61:0.100883 62:0.103448 63:0.275862 64:0.0959247 65:0.0544922 66:0.274295 67:0.0870176 68:0.0822883 69:0.0794148 70:0.279781 71:0.394985 72:0.0681896 73:0.178683 74:0.0835947 75:0.199487 76:0.0752351 77:0.0653082 78:0.256803 79:0.117032 80:0.0183478 81:0.351097 82:0.321483 83:0.0899294 84:0.031348 85:0.523512 86:0.3837 87:0.0239028 88:0.186521 89:0.25674 90:0.0291251 91:0.0971787 92:0.242804 93:0.101881 94:0.121755 95:0.0893417 96:0.166406 97:0.0407524 98:0.0396789 99:0.0846394 100:0.0442355 
2 1:0.19336 2:0.0602409 3:0.0591456 4:0.0108616 5:0.201899 6:0.156261 7:0.186747 8:0.250312 9:0.0215724 10:0.00610232 11:0.187842 12:0.10314 13:0.146988 14:0.123403 15:0.19406 16:0.172531 17:0.0245345 18:0.157722 19:0.280395 20:0.0663257 21:0.0619621 22:0.0735062 23:0.115006 24:0.123435 25:0.176707 26:0.41895 27:0.240964 28:0.0794869 29:0.0985762 30:0.0514786 31:0.260406 32:0.0492881 33:0.118291 34:0.129064 35:0.110016 36:0.0082054 37:0.165526 38:0.257028 39:0.173056 41:0.049288 42:0.107703 43:0.210296 44:0.366827 45:0.167579 46:0.0507483 47:0.226506 48:0.0663745 49:0.26506 50:0.12525 51:0.229535 52:0.197152 53:0.179628 54:0.0352579 55:0.0657173 56:0.0955195 57:0.223439 58:0.131435 59:0.120482 60:0.0715589 61:0.229115 62:0.144578 63:0.115663 64:0.424534 65:0.0951971 66:0.0598987 67:0.072969 68:0.0766702 69:0.166484 70:0.073316 71:0.552025 72:0.0714758 73:0.291348 74:0.0175246 75:0.334562 76:0.0450634 77:0.0912742 78:0.112158 79:0.347572 80:0.0897494 81:0.276013 82:0.365058 83:0.0418948 84:0.175246 85:0.121942 86:0.11172 87:0.167032 88:0.186199 89:0.318947 90:0.167908 91:0.458379 92:0.226227 93:0.0427163 94:0.0607727 95:0.0374589 96:0.182731 97:0.0711938 98:0.0221819 99:0.0131435 100:0.278204 
2 1:0.115384 2:0.11 3:0.16 4:0.07162 5:0.219445 6:0.178333 7:0.324761 8:0.0692528 9:0.167778 10:0.0144444 11:0.163334 12:0.0418518 13:0.0542222 15:0.0492156 16:0.240657 17:0.0177778 18:0.219999 19:0.16254 20:0.0874687 21:0.0768252 22:0.167778 23:0.0311111 24:0.349565 25:0.0325926 26:0.226667 27:0.104762 28:0.016127 29:0.0733331 30:0.156667 31:0.308195 32:0.01 33:0.14 34:0.157113 35:0.0697532 36:0.0208098 37:0.0258333 38:0.244445 39:0.0585184 40:0.0607407 41:0.077778 42:0.196667 43:0.0266666 44:0.284566 45:0.0755555 46:0.102963 47:0.104445 48:0.0897776 49:0.184861 50:0.338824 51:0.291062 52:0.239999 53:0.227777 54:0.089418 55:0.0399999 56:0.258398 57:0.629631 58:0.1 59:0.268889 60:0.108889 61:0.250304 62:0.0733333 63:0.0782221 64:0.475999 65:0.0193144 66:0.121528 67:0.0370115 68:0.116667 69:0.154814 70:0.44625 71:0.124444 72:0.386711 73:0.126667 74:0.195556 75:0.19798 76:0.0304762 77:0.108025 78:0.0682666 79:0.145185 80:0.0780393 81:0.311111 82:0.170922 83:0.17 84:0.133333 85:0.15463 86:0.204 87:0.0677777 88:0.0755555 89:0.262888 90:0.0103232 91:0.103333 92:0.372928 93:0.0866667 94:0.172622 95:0.177334 96:0.202222 97:0.0433333 99:0.0333333 100:0.0783952 
2 1:0.0527138 2:0.037225 3:0.228427 4:0.0671179 5:0.0556966 6:0.105612 7:0.226674 8:0.175769 9:0.177739 10:0.00157119 11:0.248732 12:0.270869 13:0.0722505 14:0.533785 15:0.0124913 16:0.416459 17:0.213875 18:0.365483 19:0.0618805 20:0.0358619 21:0.037225 22:0.298083 23:0.0414552 25:0.1489 26:0.23731 27:0.226009 28:0.0920962 29:0.0406091 30:0.185561 31:0.217904 32:0.0228427 33:0.137056 34:0.149537 35:0.0637338 36:0.0221831 37:0.206536 38:0.0620418 39:0.534688 40:0.0693739 41:0.0211506 42:0.0831923 43:0.00676819 44:0.450017 45:0.0719121 46:0.0156796 47:0.0477157 48:0.0341794 49:0.23033 50:0.225739 51:0.332433 52:0.152284 53:0.104061 54:0.0408508 55:0.0456852 56:0.332015 57:0.210942 58:0.0761421 59:0.0372251 60:0.110547 61:0.16336 62:0.279189 63:0.04467 64:0.172589 65:0.382367 66:0.157307 67:0.0187876 68:0.177665 69:0.0642977 70:0.2454 71:0.379019 72:0.496883 73:0.0642977 74:0.21207 75:0.344563 76:0.0174039 77:0.0940026 78:0.0693062 79:0.18951 80:0.00990346 81:0.189509 82:0.173525 83:0.145622 84:0.101523 85:0.188382 86:0.189848 87:0.0387056 88:0.143824 89:0.215566 91:0.144247 92:0.218428 93:0.0769882 94:0.122049 95:0.202538 96:0.192471 97:0.120981 98:0.014992 99:0.142132 100:0.131322 
1.865085187515029 1:0.158141 2:0.186125 3:0.0609136 4:0.0167794 5:0.289622 6:0.181049 7:0.0412135 8:0.246075 9:0.0333259 10:0.00942711 11:0.124366 12:0.031867 13:0.165144 14:0.114382 15:0.174878 17:0.0216582 18:0.274111 19:0.402224 20:0.0922162 21:0.116993 22:0.113555 23:0.106599 24:0.0873978 25:0.248167 26:0.30203 27:0.239303 28:0.0245589 29:0.0203045 30:0.159053 31:0.134095 32:0.0456853 33:0.182741 34:0.0598147 35:0.0637338 37:0.0786802 38:0.347434 39:0.0891143 40:0.0462493 41:0.033841 42:0.0665537 43:0.1489 44:0.200008 45:0.172589 46:0.313591 47:0.286294 48:0.273435 49:0.255923 50:0.161242 51:0.177297 52:0.243655 53:0.277496 54:0.190637 55:0.0304568 56:0.0983749 57:0.191766 58:0.101523 59:0.186125 60:0.138184 61:0.299492 62:0.186125 63:0.26802 64:0.103553 65:0.0882385 66:0.0370135 67:0.206663 68:0.0592215 69:0.278623 70:0.151015 71:0.236887 73:0.417935 74:0.0180485 75:0.689126 76:0.0986221 77:0.0705019 78:0.138613 79:0.221094 80:0.25749 81:0.0947545 82:0.173525 83:0.129442 84:0.0676818 86:0.103553 87:0.180625 88:0.201353 89:0.184772 90:0.0628828 91:0.340947 92:0.480541 94:0.0563304 96:0.0513253 97:0.109983 98:0.00856686 100:0.191014 
2 1:0.100577 2:0.0266344 3:0.217917 4:0.0360169 5:0.223164 6:0.08636 7:0.235905 8:0.10061 9:0.0953781 10:0.00899343 11:0.0593221 12:0.0456014 13:0.20678 14:0.10912 15:0.10725 16:0.143028 17:0.0774819 18:0.217917 19:0.177101 20:0.0586493 21:0.136977 22:0.28437 23:0.0847456 24:0.227393 25:0.14205 26:0.123487 27:0.456589 28:0.0878588 29:0.0871666 31:0.191889 32:0.0871672 33:0.13075 34:0.0285315 35:0.0608018 36:0.0634878 37:0.225182 38:0.0710251 39:0.0637611 40:0.0661825 41:0.072639 42:0.190476 44:0.286209 45:0.0823246 46:0.0673121 47:0.227602 48:0.0489104 49:0.0366223 50:0.230736 51:0.190283 52:0.2615 55:0.0145278 56:0.140774 57:0.274414 58:0.0968523 59:0.159806 60:0.118644 61:0.155844 62:0.319612 63:0.042615 64:0.0987895 65:0.0841792 66:0.0264831 67:0.0806546 68:0.211864 69:0.12268 70:0.162076 71:0.20339 72:0.105339 73:0.368039 74:0.0774816 75:0.493067 76:0.0830162 77:0.201775 78:0.198354 80:0.198405 81:0.474577 82:0.124156 83:0.0463075 84:0.290556 85:0.336965 86:0.0987895 87:0.1477 88:0.329299 89:0.132203 90:0.0899849 91:0.337773 92:0.187541 93:0.062954 94:0.0806084 95:0.0552059 96:0.257063 97:0.125908 98:0.0183887 99:0.0435834 100:0.136669 
2 1:0.0434503 2:0.0920502 3:0.225941 4:0.0311192 5:0.330544 6:0.298466 7:0.254783 8:0.0434641 9:0.0137348 10:0.124327 11:0.153766 12:0.197002 13:0.127616 14:0.0942817 15:0.123554 16:0.411928 17:0.0200837 18:0.225941 19:0.191274 20:0.0886798 21:0.1315 22:0.0351 23:0.1318 24:0.108059 25:0.0306834 26:0.160042 27:0.164376 28:0.0607293 29:0.0627617 30:0.0655509 31:0.0828975 32:0.112971 33:0.0753137 34:0.221866 35:0.472803 37:0.0972803 38:0.1841 39:0.0550906 40:0.0857741 41:0.083682 42:0.329149 44:0.041215 45:0.0355649 46:0.135704 47:0.235983 48:0.169037 49:0.284781 50:0.199361 51:0.0548026 52:0.150627 53:0.257322 55:0.0376568 56:0.0608154 57:0.0474199 58:0.188285 59:0.138075 60:0.136681 61:0.302968 62:0.230127 64:0.384101 65:0.109098 66:0.0457636 67:0.116145 68:0.109833 69:0.105997 70:0.0466789 71:0.117155 72:0.136522 73:0.278243 74:0.0111576 75:0.0532522 76:0.0789003 77:0.319619 78:0.0856904 79:0.312413 80:0.171426 81:0.0585774 82:0.16091 83:0.0800209 84:0.083682 86:0.21339 87:0.287134 88:0.391214 89:0.0761506 90:0.00971853 91:0.0972804 92:0.324078 94:0.139294 95:0.0476987 96:0.0317294 97:0.271966 99:0.0878662 100:0.147607 
2 1:0.0630325 2:0.0333839 3:0.13657 4:0.0752401 5:0.119878 6:0.175898 7:0.184804 8:0.110342 9:0.0448307 10:0.00845436 11:0.260244 12:0.0714468 13:0.138847 14:0.15387 15:0.168036 16:0.134455 17:0.0121396 18:0.0819422 19:0.166486 20:0.0551339 21:0.138304 22:0.203676 23:0.0318665 24:0.085505 25:0.76783 26:0.251517 27:0.190765 28:0.0385433 29:0.027314 30:0.0118867 31:0.165355 32:0.0409712 33:0.204856 34:0.0536426 35:0.0762097 36:0.130733 37:0.123483 38:0.155792 39:0.179818 40:0.103692 41:0.00379363 42:0.0447648 43:0.206374 44:0.478319 45:0.257967 46:0.0562466 47:0.0713202 48:0.383155 49:0.0803301 50:0.101223 51:0.198753 52:0.0682853 53:0.186646 54:0.207601 55:0.0182094 56:0.341868 57:0.103187 58:0.0682853 59:0.0667679 60:0.0619626 61:0.0854601 62:0.183612 63:0.413961 64:0.247648 65:0.105511 66:0.0580899 67:0.0926692 68:0.0663885 69:0.124937 70:0.135432 71:0.14871 72:0.132033 73:0.259485 74:0.00404653 75:0.618016 76:0.0468243 77:0.0526893 78:0.357391 79:0.0991402 80:0.0444078 81:0.722307 82:0.136167 83:0.0725531 84:0.182094 85:0.527946 86:0.371472 87:0.196699 88:0.425645 89:0.124279 90:0.169182 91:0.117602 92:0.215478 93:0.147952 94:0.0420983 95:0.0432474 96:0.126581 97:0.138089 98:0.00960362 99:0.0409711 100:0.0642388 
2 1:0.0447227 2:0.0189491 3:0.170542 4:0.162288 5:0.0113408 6:0.199683 7:0.377631 8:0.232631 9:0.220537 10:0.00799802 11:0.400948 12:0.09733 13:0.0315246 14:0.155268 15:0.0890207 16:0.118718 17:0.0192937 18:0.263565 19:0.11025 20:0.0052158 21:0.0162422 22:0.534693 23:0.0301464 25:0.277922 26:0.263565 27:0.0947459 28:0.0250032 29:0.0258397 30:0.188918 31:0.54608 32:0.0620156 33:0.170542 34:0.152242 35:0.108144 36:0.0258106 37:0.0901163 38:0.0252655 39:0.317543 40:0.164801 41:0.00430663 42:0.254091 43:0.034453 44:0.543001 45:0.102498 46:0.0079816 47:0.129543 48:0.121792 49:0.0521103 50:0.19699 51:0.518949 52:0.325582 53:0.158915 54:0.0831795 55:0.00516795 56:0.350539 57:0.409993 59:0.265289 60:0.08441 61:0.110876 62:0.265289 63:0.106115 64:0.140568 65:0.0149724 66:0.216677 67:0.0191274 68:0.075366 69:0.0981912 70:0.48046 71:0.192937 72:0.412192 73:0.229113 74:0.229687 75:0.28502 77:0.0837401 78:0.1764 79:0.0321562 80:0.0100826 81:0.651162 82:0.463742 83:0.214146 84:0.0172265 85:0.383577 86:0.527132 87:0.0656761 88:0.234281 89:0.0156761 90:0.016005 91:0.173557 92:0.244617 93:0.156762 94:0.0955821 95:0.196382 96:0.391903 97:0.134367 98:0.00218046 100:0.08508 
2 1:0.099852 2:0.0846154 3:0.138461 4:0.0476762 5:0.557051 6:0.0685896 7:0.468408 8:0.119861 9:0.0757527 10:0.0392856 11:0.471155 12:0.289744 13:0.117308 14:0.0433334 15:0.113575 16:0.302925 17:0.0123077 18:0.173077 19:0.492308 20:0.128098 21:0.0725277 22:0.0645299 23:0.0538462 24:0.180602 25:0.112821 26:0.0490385 27:0.0302198 29:0.0230769 30:0.241025 31:0.038101 33:0.207693 34:0.135964 35:0.241453 36:0.0288136 37:0.0670673 38:0.0846154 39:0.506411 40:0.105128 41:0.0673075 42:0.302564 43:0.0307692 44:0.0757722 45:0.0653846 46:0.0891022 47:0.144615 48:0.116538 49:0.116346 50:0.293213 51:0.403009 52:0.0346154 53:0.118269 54:0.0619047 55:0.0115385 56:0.0279517 57:0.217949 58:0.25 59:0.211539 60:0.314103 61:0.0928321 62:0.211539 63:0.0676922 64:0.431538 65:0.133715 66:0.0841346 67:0.106764 68:0.26923 69:0.267948 70:0.0858173 71:0.323078 72:0.250991 73:0.255768 74:0.051282 75:0.146853 76:0.0461537 77:0.160257 78:0.0787692 79:0.107692 80:0.112557 82:0.0493044 83:0.183894 84:0.076923 85:0.160577 86:0.196154 87:0.0586538 89:0.279999 90:0.0804022 91:0.0894231 92:0.0993006 93:0.125 94:0.0640217 95:0.0657692 96:0.379166 97:0.0499999 98:0.0292098 99:0.138461 100:0.0542735 
2 1:0.133707 5:0.226037 7:0.209074 10:0.0239116 11:0.10515 12:0.0808299 13:0.0523606 15:0.0633679 18:0.231759 19:0.313918 21:0.134886 22:0.144015 23:0.240344 24:0.463519 25:0.0629472 26:0.109442 27:0.134886 29:0.025751 32:0.0772533 35:0.0538866 38:0.440629 39:0.226037 40:0.11731 41:0.0429184 42:0.0844063 43:0.343348 44:0.169105 45:0.218884 46:0.198855 47:0.645494 48:0.606866 49:0.0649142 50:0.163595 51:0.224855 52:0.0772532 53:0.0879829 54:0.207234 55:0.0772528 56:0.0623815 57:0.291845 59:0.188841 60:0.280401 61:0.414359 62:0.188841 63:0.377682 64:0.0875538 66:0.0938841 67:0.142962 69:0.108727 71:0.600857 72:0.186716 73:0.407725 75:0.32774 76:0.0882894 78:0.351589 79:0.320458 80:0.251199 81:0.240343 83:0.246244 84:0.085837 85:0.597282 87:0.261803 89:0.234334 90:0.139563 91:0.133047 92:0.443231 93:0.111588 94:0.0476271 97:0.111588 100:0.0605628 
2 1:0.112614 2:0.0596436 3:0.237026 4:0.0691324 5:0.163181 6:0.151949 7:0.377339 8:0.0804643 9:0.0610244 10:0.046033 11:0.189775 12:0.16047 13:0.207901 14:0.122179 15:0.0457465 16:0.228778 17:0.0074361 18:0.167312 19:0.21246 20:0.0609775 21:0.0632952 22:0.194939 23:0.0650659 24:0.0836558 25:0.124968 26:0.177769 27:0.219099 28:0.0393494 29:0.0650657 30:0.182029 31:0.107426 32:0.0627421 33:0.223083 34:0.0730194 35:0.165333 36:0.0406202 37:0.0720372 38:0.0681642 39:0.122386 40:0.0529306 41:0.0426026 42:0.228505 43:0.0681642 44:0.213641 45:0.184353 46:0.0861345 47:0.160186 48:0.187761 49:0.152304 50:0.177154 51:0.142037 52:0.167312 53:0.254067 54:0.0623364 55:0.0604181 56:0.180138 57:0.228247 58:0.0929512 59:0.272657 60:0.113865 61:0.162031 62:0.408985 63:0.122696 64:0.237026 65:0.161577 66:0.0847211 67:0.0688053 68:0.203331 69:0.225664 70:0.190114 71:0.30364 72:0.370686 73:0.294346 74:0.0619675 75:0.335188 76:0.0504593 77:0.139857 78:0.222091 79:0.187968 80:0.154144 81:0.325329 82:0.278029 83:0.237026 84:0.185902 85:0.150917 86:0.268629 87:0.177188 88:0.158017 89:0.197366 90:0.0251884 91:0.216112 92:0.319978 93:0.0906274 94:0.0945531 95:0.0883036 96:0.129228 97:0.120837 98:0.00392179 99:0.0743609 100:0.131165 
2 1:0.124687 2:0.113208 3:0.0617495 4:0.0425242 5:0.158091 6:0.0611777 7:0.167116 9:0.0225222 10:0.012742 11:0.168096 12:0.323043 13:0.104631 14:0.115952 15:0.0506508 16:0.168869 17:0.00548886 18:0.154374 19:0.219555 20:0.103869 21:0.140162 22:0.17267 23:0.15609 24:0.0644342 25:0.402517 26:0.306176 27:0.161725 28:0.087136 29:0.0720413 30:0.161235 31:0.0679674 32:0.0154374 33:0.0926243 34:0.0202119 35:0.129217 36:0.0321249 37:0.13958 38:0.477988 39:0.0451688 40:0.023442 41:0.0600345 42:0.101201 43:0.329331 44:0.0675841 45:0.233276 46:0.0953685 47:0.193482 48:0.20789 49:0.181604 50:0.196146 51:0.134797 52:0.0926243 53:0.0703258 54:0.0552152 55:0.0411663 56:0.124656 57:0.155518 58:0.188679 59:0.226415 60:0.252144 61:0.110401 62:0.113208 63:0.211321 64:0.139966 65:0.178899 66:0.0375214 67:0.0761814 68:0.120068 69:0.13036 70:0.0765437 71:0.19211 72:0.26118 73:0.325901 74:0.0457404 75:0.567598 76:0.0529282 77:0.0952925 78:0.105386 79:0.416239 80:0.0401574 81:0.336193 83:0.360848 84:0.343054 85:0.381932 86:0.209949 87:0.287735 88:0.145798 89:0.124871 90:0.127491 91:0.106346 92:0.17714 93:0.0668954 94:0.0951723 95:0.0195541 96:0.156089 97:0.111492 98:0.0173688 99:0.0308747 100:0.193634 
2 1:0.0836625 2:0.0221551 3:0.217523 4:0.0499328 5:0.238671 6:0.251427 7:0.392462 8:0.209223 9:0.0462805 10:0.0205725 11:0.123364 12:0.189661 13:0.221148 14:0.0907688 15:0.11895 16:0.19829 17:0.0193354 18:0.163142 19:0.20256 20:0.0853753 21:0.13293 22:0.118273 23:0.0422961 24:0.0236438 25:0.19201 26:0.102719 27:0.253201 28:0.0146166 29:0.0483382 30:0.11044 31:0.219473 32:0.126888 33:0.271902 34:0.0118666 35:0.151729 36:0.0641268 37:0.105362 38:0.147701 39:0.477341 40:0.0825781 41:0.0352468 42:0.178248 43:0.040282 44:0.158717 45:0.188318 46:0.0653238 47:0.265056 48:0.325478 49:0.0456949 50:0.268705 51:0.237423 52:0.126888 53:0.227089 54:0.162087 55:0.042296 56:0.175648 57:0.365224 58:0.040282 59:0.221551 60:0.164485 61:0.307882 62:0.265861 63:0.177241 64:0.225981 65:0.122539 66:0.0771022 67:0.100635 68:0.0704934 69:0.153072 70:0.247167 71:0.535749 72:0.219058 73:0.24874 74:0.0483383 75:0.25634 76:0.00690548 77:0.125881 78:0.247493 79:0.244377 80:0.106096 81:0.366565 82:0.154914 83:0.154078 84:0.281974 85:0.308324 86:0.225981 87:0.215005 88:0.171199 89:0.183283 90:0.0514601 91:0.234138 92:0.182001 93:0.222557 94:0.0447013 95:0.0803626 96:0.106915 97:0.144007 98:0.00254936 99:0.0120846 100:0.156316 
2 1:0.506567 2:0.0670732 5:0.0802845 7:0.445558 10:0.0566202 11:0.448171 12:0.114837 18:0.329268 19:0.111498 21:0.114983 22:0.204607 23:0.298781 24:0.0572639 25:0.0894309 26:0.155488 27:0.0958187 29:0.0731705 30:0.382113 32:0.0548781 33:0.109756 34:0.143701 35:0.153116 37:0.0708841 38:0.447155 41:0.182927 42:0.359756 43:0.487805 44:0.120127 49:0.184451 50:0.232424 51:0.319458 52:0.219512 53:0.125 54:0.0981416 55:0.109756 56:0.0886273 58:0.182927 60:0.298781 61:0.39246 62:0.134146 63:0.321951 64:0.49756 65:0.105994 66:0.066692 68:0.320122 69:0.231707 70:0.272103 72:0.265273 74:0.0325203 75:0.155211 76:0.0627178 77:0.0846883 79:0.227642 80:0.0713773 81:0.170732 84:0.121951 87:0.0929877 89:0.443901 90:0.254933 91:0.189024 93:0.0792683 94:0.0676652 95:0.0695122 99:0.0731705 100:0.602303 
2 1:0.056336 3:0.097649 4:0.0627635 5:0.142857 6:0.0967449 7:0.132136 8:0.187847 10:0.0134332 11:0.0886077 13:0.198554 14:0.203737 15:0.293692 16:0.0712122 17:0.0694394 19:0.0661328 20:0.0876025 21:0.0568328 22:0.0303396 23:0.0759494 24:0.101895 25:0.610006 26:0.138336 27:0.0568329 28:0.131233 29:0.0650993 31:0.179136 32:0.113924 33:0.260397 35:0.0454089 36:0.0541881 37:0.441456 38:0.106088 39:0.285714 40:0.345992 41:0.0180832 42:0.106691 43:0.0867992 44:0.178126 45:0.0922242 46:0.150814 47:0.169982 48:0.474863 49:0.0547017 50:0.0344645 51:0.33159 53:0.185353 54:0.261948 55:0.0542494 56:0.0262837 59:0.119349 60:0.0590718 61:0.058195 62:0.0397831 63:0.190958 64:0.0737795 65:0.0943019 66:0.039557 67:0.100393 68:0.0316456 69:0.229054 70:0.121044 71:0.101266 73:0.446654 75:0.552359 76:0.0619995 77:0.150693 78:0.148137 79:0.236287 80:0.31752 81:0.405062 82:0.185448 83:0.138336 84:0.361664 85:0.100663 86:0.184448 87:0.0551537 88:0.461122 89:0.131645 90:0.268815 91:0.0560579 92:0.0933751 93:0.141049 96:0.274262 97:0.258589 98:0.0869777 99:0.0108499 100:0.0765521 
2 1:0.192307 2:0.0763888 3:0.166667 4:0.0229552 5:0.0914351 6:0.288966 7:0.225529 8:0.0480922 9:0.060789 10:0.0171958 11:0.170139 13:0.112963 14:0.104321 15:0.341775 16:0.227896 17:0.0444445 18:0.333333 19:0.126984 21:0.058201 22:0.15535 23:0.0972224 24:0.0434783 25:0.237654 26:0.0590276 27:0.109127 28:0.134392 29:0.0694445 30:0.145062 31:0.229312 32:0.0416667 33:0.125 34:0.16366 35:0.23251 36:0.0433539 37:0.296007 38:0.0679013 39:0.121914 40:0.126543 41:0.0810185 42:0.364197 43:0.0555555 44:0.319226 45:0.157407 46:0.0858022 47:0.217593 48:0.140278 49:0.245081 50:0.176471 51:0.485104 52:0.0416665 53:0.189815 54:0.074515 55:0.0138888 56:0.134582 57:0.367284 58:0.138889 59:0.203704 60:0.151235 61:0.111742 62:0.305556 63:0.122222 64:0.141667 65:0.120715 66:0.101273 67:0.257024 68:0.0405091 69:0.117284 70:0.103299 71:0.453703 72:0.201412 73:0.263889 74:0.0493827 75:0.47138 76:0.0396826 77:0.160751 78:0.284445 79:0.17284 80:0.0812908 81:0.388889 82:0.237391 85:0.193287 86:0.236112 87:0.0353008 88:0.0787037 89:0.0842592 90:0.129041 91:0.251157 92:0.119529 93:0.180556 94:0.0513754 95:0.0791666 96:0.0351079 97:0.150463 98:0.0175799 99:0.0416666 100:0.195988 
2 1:0.0798817 2:0.169231 3:0.0692306 4:0.0190705 5:0.278525 6:0.20577 7:0.374725 8:0.199768 9:0.0378762 10:0.0142857 11:0.0942307 12:0.0724359 13:0.046923 14:0.216667 15:0.085181 16:0.113597 17:0.00615386 18:0.0346154 19:0.21099 20:0.0582263 21:0.157143 22:0.12906 23:0.0538462 24:0.153512 25:0.282052 26:0.0490385 27:0.241758 28:0.0558243 29:0.115385 30:0.0301282 31:0.152404 32:0.0519231 33:0.242307 34:0.181284 35:0.0965812 36:0.0504236 37:0.0670673 38:0.366667 39:0.253205 40:0.0788462 41:0.0192307 42:0.226924 43:0.107692 44:0.151545 45:0.098077 46:0.302948 47:0.144615 48:0.19423 49:0.116346 50:0.146606 51:0.201505 52:0.138461 53:0.0394231 54:0.0928571 55:0.0807688 56:0.223613 57:0.0435899 58:0.0576923 59:0.38077 60:0.188462 61:0.15472 62:0.38077 63:0.101538 64:0.117692 65:0.0334289 66:0.0420673 67:0.0213528 68:0.302885 69:0.24359 70:0.171635 71:0.430769 72:0.209158 73:0.146154 74:0.0923077 75:0.293707 76:0.0989011 77:0.106838 78:0.118154 79:0.215385 80:0.360181 81:0.107692 82:0.197217 83:0.257451 84:0.23077 85:0.214103 87:0.0586538 88:0.130769 89:0.210001 90:0.0446678 91:0.268269 92:0.148951 93:0.1 94:0.106703 95:0.0219231 96:0.116667 97:0.1 98:0.0194732 99:0.0692309 100:0.0814103 
2 1:0.090301 3:0.104348 4:0.0431159 5:0.114493 6:0.103382 7:0.141201 8:0.18066 9:0.0380592 10:0.010766 11:0.142029 12:0.218358 13:0.0353623 14:0.130628 16:0.114146 17:0.00927536 18:0.0521739 19:0.265011 20:0.0351046 21:0.145756 22:0.145894 23:0.0608696 24:0.163327 25:0.170048 26:0.073913 27:0.318841 28:0.0631057 29:0.156522 30:0.181642 31:0.0574275 32:0.052174 33:0.469566 34:0.0683102 35:0.218357 37:0.168479 38:0.340097 39:0.381644 40:0.0396135 41:0.0144928 42:0.228019 43:0.0695652 44:0.171311 46:0.0537196 47:0.217971 48:0.117101 49:0.175362 50:0.055243 51:0.303717 52:0.208695 53:0.415943 54:0.0466528 55:0.0521738 56:0.0421301 57:0.262802 58:0.144928 59:0.191304 60:0.189372 61:0.373122 62:0.318842 63:0.153043 64:0.118261 65:0.151156 66:0.0317029 67:0.0965517 68:0.202898 69:0.183575 70:0.0646739 71:0.243478 73:0.440579 75:0.147563 76:0.0397515 77:0.322061 78:0.0593623 79:0.486958 80:0.237511 81:0.324637 82:0.297255 83:0.277175 84:0.231884 85:0.0806764 86:0.118261 87:0.0884057 89:0.422029 90:0.0134651 91:0.449275 92:0.598682 94:0.160828 95:0.132174 96:0.263768 97:0.0376811 99:0.0521738 100:0.20451 
2 2:0.100917 4:0.0454892 8:0.190604 11:0.224771 13:0.111927 14:0.206728 15:0.270912 19:0.167759 20:1 21:0.115334 23:0.19266 24:0.215397 27:0.288335 29:0.165137 30:0.287461 32:0.165138 33:0.330275 34:0.108106 39:0.48318 41:0.091743 42:0.541283 43:0.0733945 47:0.344954 49:0.555045 52:0.165137 53:0.188073 54:0.147663 55:0.220183 58:0.0917431 61:0.295246 62:0.201835 63:0.161468 64:0.374311 67:0.101866 68:0.3211 69:0.116208 70:0.204702 76:0.188729 77:0.127421 78:0.18789 79:0.342507 80:0.107393 81:0.256881 83:0.350917 84:0.366972 87:0.279816 88:0.311926 89:0.166972 92:0.473727 93:0.119266 96:0.139144 97:0.238532 
2 1:0.108314 2:0.100391 3:0.187743 4:0.045252 5:0.137331 6:0.0930029 7:0.0952691 8:0.0812614 9:0.0171192 10:0.0363196 11:0.159713 12:0.0736636 13:0.143155 14:0.117514 15:0.211749 16:0.0770149 17:0.0208605 18:0.0704041 19:0.214565 20:0.134217 21:0.139318 22:0.131247 23:0.0730115 24:0.0918314 25:0.305954 26:0.199479 27:0.122928 28:0.151388 29:0.109517 30:0.0204259 31:0.180818 32:0.129075 33:0.305085 34:0.0921787 35:0.0982182 36:0.0439528 37:0.197034 38:0.152976 39:0.171664 40:0.0712733 42:0.205127 43:0.146023 44:0.128427 45:0.0221643 46:0.120817 47:0.0980442 48:0.263363 49:0.0985984 50:0.124243 51:0.170767 52:0.046936 53:0.133637 54:0.0629539 55:0.0547587 56:0.208453 57:0.0886571 58:0.0260756 59:0.0860496 60:0.127771 61:0.188811 62:0.172099 63:0.413038 64:0.18618 65:0.158645 66:0.0713004 67:0.115811 68:0.365058 69:0.0990874 70:0.0872718 71:0.365058 72:0.0850813 73:0.222946 75:0.663743 76:0.089402 77:0.144864 78:0.133507 79:0.243372 80:0.0915715 81:0.328552 82:0.267412 83:0.149609 84:0.312908 85:0.362886 86:0.132986 87:0.338005 88:0.398958 89:0.142373 90:0.10902 91:0.181877 92:0.201968 93:0.0338983 94:0.0434045 96:0.118644 97:0.22034 98:0.0165027 99:0.0547587 100:0.0183978 
2 1:0.158275 2:0.0465707 3:0.289586 4:0.10496 5:0.0780412 6:0.151002 7:0.206242 8:0.140734 9:0.127858 10:0.0251602 11:0.352668 12:0.143523 13:0.237595 14:0.0763195 15:0.0625093 16:0.483502 17:0.0108383 18:0.12193 19:0.216766 20:0.0205099 21:0.0638685 22:0.213096 23:0.0414903 24:0.047712 25:0.0745131 26:0.280694 27:0.146365 28:0.0491594 29:0.0609653 30:0.132656 31:0.301968 32:0.10669 33:0.0762065 34:0.0399103 35:0.255152 36:0.0380604 37:0.0689035 38:0.0993509 39:0.423653 40:0.0694327 41:0.0127011 42:0.116568 43:0.0406435 44:0.133452 45:0.143946 46:0.102003 47:0.222863 48:0.0855207 49:0.0896486 50:0.38731 51:0.288351 52:0.365792 53:0.19094 54:0.327084 55:0.0508043 56:0.246145 57:0.34547 58:0.042337 59:0.167655 60:0.152131 61:0.149873 62:0.298052 63:0.0298052 64:0.224555 65:0.264939 66:0.148179 67:0.131625 68:0.148179 69:0.0965283 70:0.529001 71:0.450467 72:0.0736747 73:0.289585 74:0.0541915 75:0.258641 76:0.0290311 77:0.176404 78:0.156071 79:0.173864 80:0.0892066 81:0.18967 82:0.369053 83:0.161939 84:0.203218 85:0.282812 86:0.120914 87:0.154954 88:0.115157 89:0.138696 90:0.0275345 91:0.209991 92:0.240474 93:0.242168 94:0.0751708 95:0.0193057 96:0.154107 97:0.110076 98:0.0107177 99:0.0254021 100:0.107536 
2 1:0.561331 2:0.396396 3:0.162162 4:0.0446696 5:0.237237 10:0.0669239 12:0.16967 13:0.10991 15:0.133015 16:0.354777 18:0.162162 20:0.109109 21:0.169884 22:0.151151 24:0.0846062 25:0.132132 26:0.22973 28:0.0653798 29:0.054054 30:0.564564 31:0.178491 35:0.339339 38:0.264264 39:0.237237 44:0.177485 51:0.235997 54:0.145002 55:0.054054 56:0.130945 58:0.18018 60:0.147147 61:0.434889 62:0.792793 65:0.156604 66:0.098536 67:0.400124 68:0.472972 71:0.756756 73:0.342342 75:0.22932 76:0.15444 79:0.336336 80:0.316375 81:0.504504 82:0.46195 84:0.36036 85:0.501502 86:0.183784 87:0.137387 88:0.153153 89:0.327927 91:0.279279 94:0.199947 95:0.102703 97:0.117117 99:0.216216 100:0.127127 
2 1:0.160009 2:0.508475 3:0.194144 4:0.00763994 5:0.770929 6:0.109913 7:0.225182 8:0.0960364 9:0.0505794 10:0.0686771 11:0.113251 12:0.0870572 13:0.0751926 14:0.13888 15:0.318498 16:0.212374 17:0.0493066 18:0.138675 19:0.0563504 20:0.0653139 21:0.116223 22:0.129259 23:0.0755007 24:0.108528 25:0.158192 26:0.471495 27:0.145278 28:0.0670923 29:0.0924496 30:0.0482793 31:0.0610554 32:0.083205 33:0.0554698 34:0.163408 35:0.212807 36:0.028858 37:0.0716487 38:0.0903955 39:0.162301 40:0.021058 41:0.0308166 42:0.151515 43:0.172573 44:0.182134 45:0.340524 46:0.199896 47:0.115871 48:0.0933744 49:0.186441 50:0.146832 51:0.161452 52:0.0554698 53:0.031587 54:0.0992002 55:0.0739601 56:0.0447916 57:0.0349255 58:0.107858 59:0.135593 60:0.0503338 61:0.173553 62:0.101695 63:0.0271186 64:0.094299 65:0.241059 66:0.0674114 67:0.0855428 68:0.134823 69:0.0390343 70:0.206279 71:0.215716 72:0.134068 73:0.20493 74:0.0246533 75:0.156885 76:0.0475457 77:0.192604 78:0.0315562 79:0.201335 81:0.12943 82:0.0790084 83:0.0294684 84:0.123267 86:0.157165 87:0.0704931 88:0.471495 89:0.140216 90:0.050105 91:0.0477658 92:0.238689 93:0.0200308 94:0.153889 95:0.0351309 96:0.0233692 97:0.200308 98:0.0975158 99:0.175654 100:0.0869715 
2 1:0.0279783 2:0.0197575 3:0.161652 4:0.100191 5:0.0650351 6:0.336328 7:0.317179 8:0.111949 9:0.109076 11:0.418051 12:0.101482 13:0.202694 14:0.0202365 15:0.0132597 16:0.318295 17:0.00431072 18:0.145487 19:0.139586 20:0.019034 21:0.039515 22:0.37669 23:0.0282892 24:0.00421702 25:0.144889 26:0.206107 27:0.127013 28:0.00977612 29:0.026942 30:0.0211046 31:0.222413 32:0.145487 33:0.21823 34:0.0317472 35:0.0563789 36:0.191745 37:0.0104401 38:0.0987877 39:0.614878 40:0.128873 41:0.0224517 42:0.0529861 43:0.0107768 44:0.380393 45:0.160305 46:0.0291273 47:0.13507 48:0.217691 49:0.0407499 50:0.17972 51:0.305831 52:0.234396 53:0.193309 54:0.0216819 55:0.0377188 56:0.267593 57:0.305343 58:0.0269421 59:0.0889089 60:0.220026 61:0.209536 62:0.375393 63:0.244994 64:0.256489 65:0.109278 66:0.0834924 67:0.0149575 68:0.0628649 69:0.130819 70:0.310592 71:0.440053 72:0.253958 73:0.204759 74:0.0239485 75:0.365759 76:0.00615819 77:0.074839 78:0.542577 79:0.226313 80:0.0367944 81:0.603503 82:0.299324 83:0.257633 84:0.188595 85:0.637406 86:0.183206 87:0.198585 88:0.435115 89:0.196138 90:0.0062579 91:0.16704 92:0.336204 93:0.531207 94:0.0348808 95:0.10238 96:0.149828 97:0.309384 98:0.00113674 99:0.00808258 100:0.0570274 
2 1:0.146779 2:0.0388693 3:0.127208 4:0.0175206 5:0.0930506 6:0.252062 7:0.0860677 8:0.146826 10:0.0262494 11:0.0865725 12:0.133098 13:0.301767 14:0.0796231 15:0.0521721 16:0.278307 17:0.0226148 18:0.127208 19:0.129228 20:0.149784 21:0.333165 22:0.0592855 23:0.024735 24:0.0995544 25:0.155477 26:0.090106 27:0.166582 28:0.0512873 29:0.14841 30:0.110719 31:0.420053 32:0.15901 33:0.127208 34:0.208189 35:0.177464 36:0.0132359 37:0.0821555 38:0.103651 40:0.144876 41:0.0706715 42:0.277974 43:0.0565371 44:0.139228 45:0.120141 46:0.425676 47:0.199293 49:0.320671 50:0.134691 52:0.127208 53:0.217314 54:0.113747 55:0.0848056 57:0.240283 58:0.0353357 59:0.388692 60:0.288574 61:0.0568583 62:0.310955 63:0.124382 64:0.216254 65:0.368544 66:0.193242 67:0.0784696 68:0.309186 69:0.134275 70:0.157686 71:0.0989399 72:0.153728 73:0.201413 74:0.0565371 75:0.179891 76:0.0363452 77:0.0981547 78:0.0723676 79:0.06596 80:0.124091 81:0.0989399 82:0.0905946 83:0.135159 84:0.141343 87:0.0538869 88:0.0600707 89:0.192933 91:0.219082 92:0.547382 93:0.0459364 94:0.0392124 97:0.0918728 99:0.296819 100:0.299175 
2 1:0.0961539 3:0.133333 4:0.0918207 5:0.146296 6:0.165123 7:0.0451058 8:0.0769475 9:0.121578 10:0.0171958 11:0.362963 12:0.10463 13:0.112963 14:0.0834567 16:0.291706 17:0.0118518 18:0.333333 19:0.440212 20:0.0560698 21:0.058201 22:0.12428 23:0.0777778 24:0.0173913 25:0.244445 26:0.236111 27:0.232804 29:0.0666665 30:0.116049 31:0.220139 32:0.0500001 33:0.399999 34:0.17457 35:0.20926 36:0.0208098 37:0.0645834 38:0.135803 39:0.53642 40:0.101235 41:0.064815 42:0.182099 43:0.0148148 44:0.182415 45:0.0944446 46:0.102963 47:0.208889 48:0.187037 49:0.280092 50:0.24706 51:0.436595 52:0.233334 53:0.227777 54:0.029806 55:0.0333333 56:0.134582 57:0.46173 58:0.0555556 59:0.0814815 60:0.120988 61:0.14899 62:0.203704 63:0.0325925 64:0.151111 65:0.128763 66:0.162037 67:0.0822478 68:0.194444 69:0.140741 70:0.454515 71:0.466667 72:0.241694 73:0.281481 74:0.00987653 75:0.47138 76:0.0190476 77:0.0771606 78:0.303407 80:0.130065 81:0.311111 82:0.284869 83:0.177083 84:0.222222 85:0.206173 86:0.0755555 87:0.310648 88:0.377778 89:0.134815 90:0.0172054 91:0.143519 92:0.239057 93:0.024074 94:0.102751 95:0.0844445 96:0.393209 97:0.168519 99:0.0444444 100:0.15679 
2 1:0.0344432 2:0.139856 3:0.169154 4:0.0520773 5:0.0946194 6:0.256311 7:0.255823 8:0.287118 9:0.0907299 10:0.0123193 11:0.189608 12:0.0936982 13:0.256274 14:0.0373686 15:0.122427 16:0.23946 17:0.00707574 18:0.199004 19:0.121298 20:0.0569067 21:0.0486456 22:0.166943 23:0.0309563 24:0.0155743 25:0.178367 26:0.281923 27:0.165047 28:0.092269 29:0.0331675 30:0.0346417 31:0.197139 32:0.109453 33:0.238806 34:0.0455967 35:0.11799 36:0.0372713 37:0.212064 38:0.0972914 39:0.276579 40:0.120877 41:0.0248756 42:0.184817 43:0.0486457 44:0.239589 45:0.206744 46:0.0409801 47:0.16628 48:0.256827 49:0.167219 50:0.242318 51:0.289614 52:0.248756 53:0.0906577 54:0.0800757 55:0.0597014 56:0.273182 57:0.300719 58:0.0552792 59:0.182421 60:0.162521 61:0.204583 62:0.291874 63:0.126479 64:0.25937 65:0.163356 66:0.102785 67:0.141171 68:0.106412 69:0.161046 70:0.259017 71:0.479822 72:0.216442 73:0.388613 74:0.0147411 75:0.422131 76:0.0113717 77:0.0921319 78:0.362277 79:0.196056 80:0.0517673 81:0.278607 82:0.32597 83:0.232587 84:0.34273 85:0.58467 86:0.225538 87:0.143311 88:0.187949 89:0.211276 90:0.0256797 91:0.145661 92:0.385347 93:0.0718629 94:0.0429406 95:0.0882255 96:0.226368 97:0.136539 98:0.0335856 99:0.0530679 100:0.109207 
2 1:0.122653 2:0.0433071 3:0.0708661 5:0.362861 6:0.351049 8:0.245384 9:0.0516946 11:0.192914 13:0.0480315 14:0.088714 15:0.174386 17:0.0125984 18:0.212598 20:0.190726 21:0.148481 22:0.264217 23:0.0826771 24:0.203355 25:0.4042 26:0.200787 27:0.185601 28:0.142857 29:0.047244 31:0.156004 32:0.0708663 33:0.0708661 34:0.0463918 35:0.0988627 36:0.0147471 37:0.228838 38:0.866142 39:0.103675 40:0.0538058 41:0.019685 42:0.0774278 43:0.094488 44:0.38781 45:0.133858 46:0.0729657 47:0.0740158 48:0.0795275 49:0.119095 50:0.525244 52:0.141732 53:0.484251 54:0.0633671 56:0.114448 57:0.089239 58:0.15748 59:0.259842 60:0.128609 61:0.380099 62:0.259842 63:0.138583 64:0.080315 65:0.068437 66:0.043061 68:0.137795 69:0.249343 70:0.175689 71:0.110236 72:0.0856397 75:0.300644 76:0.16198 77:0.0546807 79:0.220472 80:0.0460862 81:0.220472 82:0.403751 83:0.150591 84:0.23622 85:0.10958 86:0.16063 87:0.0600394 88:0.267716 89:0.143307 90:0.164603 91:0.0610237 92:0.304939 93:0.0511811 94:0.0436894 95:0.0897638 96:0.298556 97:0.153543 98:0.00996658 100:0.0555556 
2 1:0.0961539 2:0.0509259 3:0.125 4:0.0746044 5:0.121914 6:0.268326 7:0.197338 8:0.3126 9:0.113979 10:0.0214947 11:0.198495 12:0.174383 13:0.0847222 14:0.156481 15:0.205065 16:0.136737 17:0.0111111 18:0.125 19:0.0846561 20:0.0630788 21:0.0654764 22:0.15535 23:0.056713 24:0.0380435 25:0.339506 26:0.324653 27:0.200066 28:0.0419975 29:0.0347222 30:0.0906636 31:0.229312 32:0.125 33:0.125 34:0.0272766 35:0.0726595 36:0.0563599 37:0.0807291 38:0.169754 39:0.396219 40:0.205633 41:0.0752315 42:0.0910493 43:0.157407 44:0.364829 45:0.216436 47:0.0652777 48:0.327314 49:0.140046 50:0.264706 51:0.394147 52:0.25 53:0.0949074 54:0.14903 55:0.0555554 56:0.168228 57:0.498456 58:0.127315 59:0.025463 60:0.0945216 61:0.391099 62:0.25463 63:0.162963 64:0.212501 65:0.140834 66:0.113933 67:0.0385536 68:0.0810185 69:0.102623 70:0.361545 71:0.356482 72:0.201412 73:0.175926 74:0.0246914 75:0.559763 76:0.0119047 77:0.0482253 78:0.18963 79:0.237655 80:0.0541939 81:0.162037 82:0.14837 83:0.24349 84:0.231482 85:0.354361 86:0.165278 87:0.105903 88:0.255787 89:0.252778 90:0.102157 91:0.125579 92:0.239057 93:0.105324 94:0.0128439 95:0.0659723 96:0.052662 97:0.150463 98:0.0205099 99:0.0763888 100:0.0653293 
2 1:0.147776 2:0.156533 3:0.163001 4:0.0192432 5:0.255498 6:0.115351 7:0.0945296 8:0.161262 9:0.00849315 10:0.0168176 11:0.126779 12:0.0487279 13:0.17361 14:0.145753 15:0.152804 16:0.305668 17:0.0248383 18:0.0698576 19:0.307522 20:0.0783381 21:0.138237 22:0.195342 23:0.0996122 24:0.103268 25:0.113842 26:0.098965 27:0.162632 28:0.0563298 29:0.0388098 30:0.121604 31:0.205045 32:0.0465718 33:0.27943 34:0.0457315 35:0.194911 36:0.0096915 37:0.0902329 38:0.398448 39:0.136265 40:0.0884003 41:0.0517465 42:0.203536 43:0.0517465 44:0.178403 45:0.175938 46:0.167831 47:0.364812 48:0.104528 49:0.215233 50:0.147934 51:0.169441 52:0.0931434 53:0.1326 54:0.166574 55:0.0310478 56:0.131623 57:0.29323 58:0.0905563 59:0.142303 60:0.190167 61:0.187345 62:0.256144 63:0.0683052 64:0.184735 65:0.134926 66:0.0565976 67:0.186733 68:0.113195 69:0.22941 70:0.317514 71:0.326001 72:0.225123 73:0.467012 74:0.0275981 75:0.493943 76:0.115321 77:0.233578 78:0.158965 79:0.410521 80:0.166578 81:0.217335 82:0.298504 83:0.098965 84:0.129366 85:0.108021 86:0.0527813 87:0.236739 88:0.175938 89:0.0706338 90:0.0420676 91:0.140362 92:0.2672 93:0.0336351 94:0.0430676 95:0.0442432 96:0.0981027 97:0.084088 98:0.00654983 99:0.0232858 100:0.164294 
0.4107250365879445 1:0.0541179 2:0.0127389 3:0.208454 4:0.123456 5:0.0762401 6:0.103262 7:0.338489 8:0.240601 9:0.205282 10:0.00537678 11:0.368848 12:0.0981472 13:0.134221 14:0.0521908 15:0.076944 16:0.273632 17:0.00555878 18:0.187608 19:0.190587 20:0.0245447 21:0.0582347 22:0.378884 23:0.0324262 24:0.0271897 25:0.203821 26:0.191951 27:0.154686 28:0.0210108 29:0.0138969 30:0.0635012 31:0.493305 32:0.0416908 33:0.145918 34:0.0818773 35:0.0508911 36:0.0347031 37:0.0336566 38:0.144374 39:0.320208 40:0.102876 41:0.0405327 42:0.227756 43:0.0185293 44:0.27378 45:0.177186 46:0.0536574 47:0.239491 48:0.0350898 49:0.148885 50:0.20968 51:0.424712 52:0.239722 53:0.118703 54:0.102517 55:0.0104227 56:0.420812 57:0.393748 58:0.0231616 59:0.165605 60:0.19861 61:0.195662 62:0.178344 63:0.132484 64:0.188998 65:0.11072 66:0.202663 67:0.0257174 68:0.131731 69:0.124686 70:0.348834 71:0.308047 72:0.302292 73:0.308049 74:0.114263 75:0.280043 76:0.0158822 77:0.0884643 78:0.296469 79:0.216175 80:0.0610035 81:0.535032 82:0.519595 83:0.243631 84:0.0926462 85:0.660781 86:0.307122 87:0.123625 88:0.177186 89:0.105385 90:0.0215192 91:0.170526 92:0.313944 93:0.18066 94:0.134938 95:0.118819 96:0.272245 97:0.112913 98:0.00146584 99:0.0243196 100:0.0817089 
2 1:0.0755245 2:0.08 4:0.0180303 5:0.143636 6:0.129697 10:0.108052 11:0.0890909 12:0.13697 13:0.266182 15:0.10738 16:0.143201 17:0.0116364 18:0.196364 20:0.0880809 21:0.0914288 23:0.127273 24:0.290277 25:0.266666 26:0.0927271 27:0.114286 28:0.0527793 29:0.0218181 30:0.0569696 31:0.216136 32:0.098182 33:0.327272 34:0.0856982 35:0.0913132 36:0.013621 37:0.0845455 38:0.266666 39:0.383031 40:0.099394 41:0.090909 42:0.286061 43:0.116364 44:0.143278 45:0.247274 46:0.134788 47:0.273455 48:0.220364 49:0.0549999 50:0.27722 51:0.0952568 53:0.149091 54:0.234113 55:0.109091 58:0.181818 59:0.24 60:0.178182 61:0.0585123 62:0.320001 63:0.256001 64:0.296728 65:0.0632108 66:0.0795455 68:0.190909 70:0.162273 71:0.407274 73:0.138182 75:0.46281 76:0.112208 77:0.202021 78:0.223418 79:0.407273 80:0.127701 81:0.305455 82:0.09323 83:0.208636 84:0.363636 85:0.202425 86:0.222546 87:0.221819 88:0.185455 90:0.0506778 91:0.112727 92:0.281653 93:0.189091 94:0.040353 95:0.0829091 97:0.0472727 99:0.130909 
2 1:0.237634 2:0.0755149 3:0.0823798 4:0.0453851 5:0.241037 6:0.0408085 7:0.222949 8:0.047542 10:0.0127493 11:0.112128 12:0.0430969 13:0.0558353 14:0.154691 15:0.10136 16:0.315403 17:0.0292906 18:0.288329 19:0.0836875 20:0.124714 21:0.0863028 23:0.112128 24:0.204159 25:0.16781 26:0.0583524 27:0.215757 28:0.0332135 29:0.0823798 30:0.215103 31:0.226687 32:0.144165 33:0.24714 34:0.0808936 35:0.344776 37:0.0798055 38:0.402747 39:0.180778 40:0.125095 41:0.0800915 42:0.270023 43:0.0183066 44:0.315573 45:0.194507 46:0.0636154 47:0.172082 48:0.138673 49:0.242277 50:0.130839 51:0.179833 52:0.12357 53:0.281465 55:0.01373 56:0.0332606 57:0.207475 58:0.183066 59:0.15103 60:0.112128 61:0.29457 62:0.100687 64:0.0466819 65:0.079556 66:0.0500572 67:0.15245 68:0.400457 69:0.231884 70:0.204234 71:0.320365 72:0.0497768 73:0.173913 74:0.0488177 75:0.291241 76:0.0549198 77:0.222476 78:0.046865 79:0.427155 80:0.0535739 81:0.256293 82:0.176006 83:0.131293 84:0.228832 85:0.191076 86:0.280092 87:0.069794 88:0.46682 89:0.16659 90:0.0212607 91:0.177345 92:0.118161 93:0.0594966 94:0.0507876 95:0.0521739 96:0.138825 97:0.208238 98:0.0463434 99:0.01373 100:0.129164 
2 1:0.201643 2:0.026699 3:0.0873786 4:0.0120347 5:0.255664 6:0.0865695 7:0.177358 8:0.0504267 9:0.0637399 10:0.0270457 11:0.0594659 12:0.0457119 13:0.325728 14:0.164078 16:0.0955833 17:0.023301 18:0.218446 19:0.133148 20:0.161677 21:0.137309 22:0.122168 23:0.169903 24:0.193752 25:0.249191 26:0.123786 27:0.228849 28:0.0352289 29:0.116505 30:0.228155 31:0.144266 32:0.152913 33:0.0873786 34:0.114403 35:0.0609493 36:0.0181833 37:0.084648 38:0.28479 39:0.319579 40:0.0995146 41:0.0728155 42:0.143204 43:0.116505 44:0.0956349 45:0.0412621 46:0.0449837 47:0.228155 48:0.245145 49:0.220267 50:0.0925186 51:0.127163 52:0.0873786 53:0.0497572 54:0.19533 55:0.116505 56:0.0352788 57:0.0550161 58:0.0485437 59:0.053398 60:0.158576 61:0.0781112 62:0.213592 63:0.512621 64:0.247572 65:0.0421916 66:0.0265473 67:0.0269501 68:0.169903 69:0.122977 70:0.108313 71:0.54369 72:0.105595 73:0.138349 74:0.116505 75:0.308914 76:0.158114 77:0.0337108 78:0.0994175 79:0.271845 80:0.113649 81:0.067961 82:0.186686 83:0.278519 84:0.38835 85:0.40534 86:0.148544 87:0.296117 88:0.247573 89:0.0883495 90:0.0451015 91:0.0752428 92:0.0626654 93:0.0946601 95:0.0276699 96:0.110437 97:0.0946601 98:0.0122889 99:0.0145631 100:0.137001 
2 1:0.126257 2:0.0334346 3:0.328268 4:0.0602838 5:0.0800405 6:0.325228 7:0.592271 8:0.0631484 9:0.0399101 10:0.0451584 11:0.372341 12:0.114488 13:0.111246 15:0.0897551 16:0.239395 17:0.00972643 18:0.273557 19:0.22232 20:0.0368118 21:0.114633 22:0.356974 23:0.0638298 24:0.0570902 25:0.0891591 26:0.155015 27:0.286583 28:0.0441165 29:0.0364741 30:0.0952381 31:0.120441 32:0.0273556 33:0.109422 34:0.107448 36:0.0227706 38:0.222898 39:0.160081 41:0.106383 42:0.298886 44:0.479046 45:0.0516717 46:0.0563322 47:0.4 48:0.061398 49:0.183891 50:0.347578 51:0.318489 52:0.218846 53:0.18693 54:0.0489216 55:0.109422 56:0.176717 57:0.413375 58:0.151976 59:0.0668693 60:0.198582 61:0.244543 62:0.0668693 64:0.372037 65:0.158507 66:0.132979 67:0.134997 68:0.106383 69:0.231003 70:0.271278 71:0.255319 72:0.462819 73:0.173252 74:0.0486322 75:0.0773694 76:0.0833694 77:0.126646 78:0.186748 79:0.283689 80:0.0355802 81:0.255319 82:0.155856 83:0.290654 84:0.243162 85:0.338401 86:0.062006 87:0.0463525 88:0.103344 89:0.055319 90:0.0282399 91:0.235563 92:0.3139 93:0.0395136 94:0.0674596 95:0.0346504 96:0.184398 97:0.118541 98:0.00769455 99:0.0547111 100:0.257346 
2 1:0.106692 5:0.360731 6:0.122146 7:0.16683 9:0.0449672 10:0.0636008 13:0.250684 15:0.0505641 16:0.0674321 18:0.0616438 19:0.0626224 20:0.165905 21:0.258317 22:0.229832 23:0.191781 24:0.241215 25:0.200913 26:0.349314 27:0.26908 28:0.0497066 29:0.164383 31:0.203554 32:0.15411 33:0.246575 35:0.085997 36:0.012828 37:0.0796233 38:0.351598 39:0.180365 40:0.187214 42:0.134703 43:0.0547946 44:0.202406 45:0.0582192 46:0.0317351 47:0.128767 48:0.34589 49:0.103596 50:0.13054 51:0.0897111 52:0.123288 53:0.0702055 54:0.275603 55:0.0821914 56:0.248885 57:0.0776257 58:0.0342466 60:0.111872 61:0.275529 62:0.150685 63:0.060274 66:0.0374572 67:0.114077 68:0.119863 69:0.130137 70:0.0764128 71:0.191781 72:0.0744948 73:0.520548 75:0.435866 76:0.0821917 77:0.0475647 78:0.350685 79:0.63927 80:0.0801774 81:0.0958904 83:0.261986 84:0.342466 85:0.571917 86:0.0698631 87:0.26113 88:0.174658 89:0.311644 90:0.0477274 92:0.176837 94:0.0380038 95:0.117124 96:0.103881 97:0.133562 99:0.184931 100:0.0483258 
2 1:0.143661 2:0.0434783 3:0.142292 4:0.00979904 5:0.312253 6:0.176219 7:0.0962734 8:0.082118 10:0.0256917 11:0.096838 13:0.289328 14:0.133597 15:0.262614 16:0.272394 17:0.0189723 18:0.0711462 19:0.289103 20:0.215414 21:0.161491 22:0.0331576 23:0.06917 24:0.129919 25:0.0289854 26:0.10079 27:0.217391 28:0.0860532 29:0.0948616 32:0.142293 33:0.320159 34:0.0232875 35:0.14888 36:0.0222081 37:0.206769 38:0.492753 39:0.104084 40:0.0540185 41:0.0395257 42:0.155468 43:0.0474308 44:0.155737 46:0.183135 47:0.222925 48:0.359289 49:0.179348 50:0.0376656 51:0.10354 52:0.106719 53:0.243083 54:0.0636175 55:0.0711461 56:0.1149 57:0.0895917 58:0.0197628 59:0.217391 60:0.129117 61:0.318001 62:0.26087 63:0.173913 64:0.201581 65:0.171769 66:0.0432312 67:0.30721 68:0.20751 69:0.0500659 70:0.0440958 71:0.221344 72:0.128967 73:0.0750988 74:0.0421607 75:0.251527 76:0.0406549 77:0.0823451 78:0.161897 79:0.258235 80:0.323878 81:0.221344 82:0.253342 83:0.113389 84:0.671936 85:0.110013 86:0.0403161 87:0.150692 88:0.100791 89:0.0719367 90:0.0826269 91:0.336956 92:0.459218 94:0.021931 96:0.0899208 97:0.077075 98:0.010006 99:0.166008 100:0.0557752 
2 1:0.0803543 2:0.0450614 3:0.253982 4:0.130898 5:0.00599302 6:0.186693 7:0.731713 8:0.189129 9:0.259979 10:0.00507185 11:0.301093 12:0.162874 13:0.116614 14:0.102564 15:0.0537632 16:0.259906 17:0.00582611 18:0.204825 19:0.141492 20:0.0551255 21:0.0686651 22:0.504022 23:0.0446064 24:0.021373 25:0.120164 26:0.0928539 27:0.114442 28:0.00990965 29:0.0245789 30:0.328022 31:0.297594 32:0.008193 33:0.204825 34:0.0697249 35:0.0685783 36:0.0272791 37:0.0158739 38:0.113488 39:0.33561 40:0.0933091 41:0.0091033 42:0.313305 43:0.00728266 44:0.609765 45:0.0619026 46:0.029525 47:0.128357 48:0.0459717 49:0.103266 50:0.182174 51:0.250391 52:0.188438 53:0.279927 54:0.03663 55:0.00546198 56:0.688042 57:0.154757 58:0.00910332 59:0.0901229 60:0.11895 61:0.0512682 62:0.260355 63:0.0400546 64:0.157852 65:0.245276 66:0.134416 67:0.0151618 68:0.159308 69:0.0461235 70:0.304677 71:0.280383 72:1 73:0.354574 74:0.22819 75:0.278066 76:0.0140451 77:0.0695393 78:0.149149 79:0.152936 80:0.00532812 81:0.586253 82:0.163375 83:0.191512 84:0.05462 85:0.202701 86:0.315702 87:0.0694128 88:0.17797 89:0.0828401 90:0.0084578 91:0.112881 92:0.105764 93:0.112426 94:0.0757653 95:0.326901 96:0.386588 97:0.106509 99:0.0245789 100:0.0834978 
2 1:0.0582859 2:0.02058 3:0.151543 4:0.0510212 5:0.197069 6:0.0667289 7:0.296205 8:0.194349 9:0.0982635 10:0.00173727 11:0.412536 12:0.105706 13:0.228251 14:0.0421578 15:0.0414351 16:0.276288 17:0.00898035 18:0.202057 19:0.18816 20:0.0509821 21:0.0470399 22:0.204033 23:0.0851264 24:0.0175702 25:0.2744 26:0.381666 27:0.2205 28:0.0135775 29:0.039289 30:0.0439663 31:0.240938 32:0.0757718 33:0.286248 34:0.154321 35:0.117451 36:0.0350399 37:0.0326239 38:0.192081 39:0.221702 40:0.0511381 41:0.0467727 42:0.0551917 43:0.119738 44:0.331726 45:0.222639 46:0.0693481 47:0.070346 48:0.151169 49:0.169784 50:0.392231 51:0.367572 52:0.303087 53:0.30683 54:0.120451 55:0.0280636 56:0.190355 57:0.23324 58:0.168382 59:0.14406 60:0.152791 61:0.331151 62:0.370441 63:0.230497 64:0.171749 65:0.146349 66:0.102315 67:0.0311603 68:0.147334 69:0.118491 70:0.250467 71:0.445275 72:0.305226 73:0.284379 74:0.0798256 75:0.476232 77:0.103939 78:0.229896 79:0.174618 80:0.0766523 81:0.209542 82:0.191867 83:0.196796 84:0.224508 85:0.390552 86:0.190833 87:0.114125 88:0.127222 89:0.153227 90:0.0434561 91:0.260992 92:0.483035 93:0.121609 94:0.0830465 95:0.12797 96:0.127689 97:0.13377 98:0.00947243 99:0.0168381 100:0.132003 
2 1:0.0667821 2:0.0353697 3:0.173633 5:0.381029 6:0.0573418 10:0.0716582 11:0.157556 12:0.121115 15:0.0949499 16:0.189937 18:0.23151 19:0.117593 20:0.136298 21:0.141479 23:0.090032 24:0.0301971 25:0.141479 26:0.409968 27:0.101056 28:0.0466698 29:0.096463 30:0.151125 32:0.144695 33:0.115756 34:0.113667 35:0.242229 36:0.0240885 37:0.149517 38:0.282958 39:0.169346 40:0.0439442 41:0.0321543 42:0.126474 43:0.0771704 44:0.316733 45:0.273313 46:0.23837 47:0.0604501 49:0.291801 50:0.245129 51:0.0842302 52:0.115756 53:0.263665 54:0.258766 55:0.07717 56:0.0934719 57:0.437299 58:0.096463 60:0.105038 61:0.155218 62:0.0707395 63:0.169775 64:0.196785 67:0.0357024 69:0.285101 70:0.0717443 71:0.180064 72:0.139887 73:0.0610931 74:0.0685957 75:0.327389 76:0.176389 77:0.0446588 78:0.131704 80:0.188198 81:0.090032 82:0.082438 83:0.12299 84:0.257234 85:0.268489 86:0.0655948 87:0.147106 88:0.0546623 89:0.351125 90:0.074686 91:0.249197 92:0.0830165 93:0.0418006 94:0.17841 95:0.0733119 96:0.0487673 97:0.0836013 99:0.501607 100:0.27224 
2 1:0.0556816 2:0.0442359 3:0.337802 4:0.18278 5:0.00882484 6:0.143432 7:0.832584 8:0.264572 9:0.290418 10:0.00622367 11:0.377682 12:0.214589 13:0.0490617 14:0.151028 16:0.277141 17:0.00214477 18:0.108579 19:0.0980467 20:0.0365281 21:0.00842587 22:0.551013 23:0.0281502 24:0.00629443 25:0.0786417 26:0.102547 27:0.115856 28:0.00972807 29:0.0241287 30:0.0420019 31:0.47805 32:0.0723862 33:0.120643 34:0.0789779 35:0.0925677 36:0.0276162 37:0.0311663 38:0.0884719 39:0.370644 40:0.0732797 41:0.0100536 42:0.144995 44:0.488558 45:0.0113941 46:0.0248436 47:0.0756032 48:0.0812332 49:0.0405497 50:0.12774 51:0.438934 52:0.144772 53:0.274798 54:0.032363 55:0.0321715 56:0.506577 57:0.182306 58:0.00670241 59:0.117963 60:0.12042 61:0.0862783 62:0.368632 63:0.0353887 64:0.23244 65:0.209714 66:0.2859 67:0.00744199 68:0.117292 69:0.101877 70:0.508462 71:0.150134 72:0.903924 73:0.152815 74:0.0929403 75:0.23885 76:0.00459593 77:0.148943 78:0.219626 79:0.112601 81:0.450402 82:0.257757 83:0.346095 84:0.201072 85:0.485033 86:0.683647 87:0.112433 88:0.159518 89:0.21957 91:0.145442 92:0.103827 93:0.16555 94:0.081815 95:0.2063 96:0.416778 97:0.104558 98:0.00509016 99:0.00402144 100:0.0851207 
2 1:0.239908 2:0.0726073 3:0.178218 5:0.477997 6:0.176568 7:0.160773 8:0.205702 9:0.0650021 10:0.104196 11:0.0808581 13:0.120792 16:0.194952 18:0.475246 19:0.120698 20:0.0399706 21:0.0622348 23:0.0462047 24:0.0774862 25:0.193619 26:0.168317 28:0.167657 30:0.155115 31:0.457714 32:0.089109 33:0.0594059 34:0.116668 35:0.290062 36:0.0370868 37:0.115099 38:0.193619 39:0.0869087 40:0.0451045 41:0.0660065 42:0.519251 44:0.130038 45:0.112211 46:0.244663 47:0.248184 48:0.0666666 49:0.399339 50:0.188701 51:0.172908 52:0.178218 54:0.0531196 55:0.0396039 56:0.191879 57:0.0748076 58:0.231023 59:0.508251 60:0.107811 61:0.0531053 62:0.290429 63:0.174257 64:0.134653 65:0.172109 66:0.0721947 67:0.14658 68:0.173267 69:0.0418042 70:0.220916 71:0.554456 72:0.287161 73:0.125412 74:0.105611 75:0.0840084 76:0.0339462 77:0.0916758 78:0.135182 79:0.123212 80:0.0386333 81:0.0924092 83:0.189356 84:0.264026 85:0.0918593 87:0.10066 88:0.168317 89:0.180198 90:0.076658 91:0.0511551 92:0.170417 93:0.214522 94:0.146496 96:0.150165 97:0.128713 98:0.00835482 99:0.0396039 100:0.325999 
2 1:0.243525 2:0.0368509 3:0.42211 4:0.041527 5:0.110274 6:0.119486 7:0.122398 8:0.208804 9:0.021994 10:0.0217755 11:0.0410385 12:0.09464 13:0.163484 14:0.377442 15:0.272047 16:0.0989456 17:0.0482413 18:0.271357 19:0.245034 20:0.0405732 21:0.0631733 22:0.0562069 23:0.0351759 24:0.0393271 25:0.0245673 26:0.085427 27:0.0789663 28:0.18234 29:0.0301507 30:0.131212 31:0.298681 33:0.211055 34:0.236854 35:0.18928 36:0.00627431 37:0.214196 38:0.221106 39:0.176438 40:0.114461 41:0.0251256 42:0.296483 43:0.0670017 44:0.329996 45:0.0854273 46:0.07761 47:0.188946 48:0.0676715 49:0.10134 50:0.0638486 51:0.307152 52:0.0301507 53:0.274706 54:0.107841 55:0.0301507 56:0.0973862 57:0.113903 58:0.117253 59:0.294807 60:0.0820771 61:0.107812 62:0.515914 63:0.117923 64:0.136683 65:0.116469 66:0.219849 67:0.241783 68:0.146566 69:0.254606 70:0.33637 71:0.328308 72:0.182181 73:0.381909 74:0.0178671 75:0.298462 76:0.028715 77:0.116322 78:0.0686097 79:0.312674 80:0.0392157 81:0.187605 82:0.386507 83:0.128141 84:0.0335008 85:0.093244 86:0.717588 87:0.153267 88:0.19933 89:0.182915 90:0.0311254 91:0.233669 92:0.216233 93:0.0217755 94:0.167293 95:0.0954774 96:0.304857 97:0.130654 98:0.00848076 99:0.0301507 100:0.141821 
2 1:0.0373547 2:0.0219824 3:0.223022 4:0.108996 5:0.0157874 6:0.171063 7:0.574368 8:0.107948 9:0.0997111 10:0.00371131 11:0.254597 12:0.120437 13:0.0877697 14:0.072049 15:0.0177035 16:0.141656 17:0.00255796 18:0.258993 19:0.124243 20:0.0121014 21:0.0251227 22:0.683987 23:0.0419664 24:0.00563027 25:0.105516 26:0.122302 27:0.100491 28:0.0290054 29:0.0263788 30:0.400745 31:0.324665 32:0.028777 33:0.27338 34:0.122451 35:0.0501821 36:0.00149711 37:0.0418165 38:0.0351718 39:0.115774 40:0.0600853 41:0.019984 42:0.361577 43:0.00319744 44:1 45:0.108713 46:0.0444443 47:0.180336 48:0.00807353 49:0.169264 50:0.121879 51:0.209397 52:0.122302 53:0.368705 55:0.0143885 56:0.511219 57:0.253663 58:0.0159872 59:0.140688 60:0.0913935 61:0.0771746 62:0.536372 63:0.0422062 64:0.23645 65:0.208429 66:0.139888 67:0.00443783 68:0.146882 69:0.101252 70:0.267536 71:0.235012 72:0.930262 73:0.334132 74:0.166267 75:0.478164 76:0.0150736 77:0.0610622 78:0.139153 79:0.0522249 80:0.0187144 81:0.626699 82:0.133212 83:0.214028 84:0.0079936 85:0.0889955 86:0.627818 87:0.0853316 88:0.149481 89:0.203676 90:0.00557009 91:0.241606 92:0.154785 93:0.0363709 94:0.110882 95:0.546762 96:0.460698 97:0.0675459 98:0.00101179 99:0.0359711 100:0.112799 
2 1:0.164835 3:0.142857 4:0.177083 5:0.261244 7:0.289967 8:0.65955 9:0.0521049 10:0.0221089 11:0.291668 13:0.0968254 15:0.05859 18:0.642857 19:0.362812 20:0.16821 21:0.0997731 23:0.194445 24:0.0931678 25:0.058201 26:0.202381 28:0.0287982 29:0.0714287 30:0.248677 31:0.235864 33:0.142857 34:0.18704 35:0.149471 38:0.291006 39:0.104497 40:0.108466 41:0.0198413 42:0.234128 44:0.0781776 45:0.134921 46:0.0735448 47:0.149206 48:0.0801586 49:0.240079 50:0.0756302 51:0.727657 52:0.142857 55:0.047619 58:0.0396825 59:0.0873016 60:0.0648147 61:0.0638527 62:0.52381 63:0.139683 64:0.0809523 65:0.344901 66:0.47743 67:0.0440613 68:0.208334 70:0.0885416 71:0.222222 72:0.0863192 73:0.527778 74:0.10582 76:0.122449 77:0.0551146 79:0.222223 81:0.222222 82:0.305218 83:0.303571 84:0.079365 85:0.11045 86:0.566667 87:0.0605158 88:0.134921 89:0.216667 91:0.123016 94:0.176144 95:0.271428 96:0.300926 97:0.0515872 99:0.238095 
2 1:0.286191 2:0.0433071 3:0.106299 4:0.0488024 5:0.129593 6:0.105315 7:0.287682 8:0.0408973 9:0.0258473 10:0.018279 11:0.144685 12:0.148294 13:0.0960631 14:0.088714 15:0.0581288 16:0.155041 17:0.0125984 18:0.106299 19:0.215973 20:0.107283 21:0.111361 22:0.165136 23:0.179134 24:0.175625 25:0.173228 26:0.100394 27:0.185601 28:0.0285715 29:0.047244 30:0.308398 31:0.117003 32:0.159449 33:0.177165 34:0.0695876 35:0.074147 36:0.0442413 37:0.114419 38:0.288713 39:0.207349 40:0.0538058 41:0.0393701 42:0.232283 43:0.0314961 44:0.349029 45:0.133858 46:0.0729657 47:0.111024 48:0.119291 49:0.238189 50:0.0750348 51:0.309397 52:0.106299 53:0.161417 54:0.158418 55:0.011811 56:0.14306 57:0.089239 59:0.129921 60:0.0643045 61:0.1267 62:0.303149 64:0.281102 65:0.171092 66:0.236835 67:0.0437144 68:0.378936 69:0.199475 70:0.131767 71:0.330708 72:0.342558 73:0.224409 74:0.0734907 75:0.300644 76:0.134983 77:0.109361 78:0.201575 79:0.293963 80:0.0460862 81:0.110236 82:0.0504689 83:0.112943 84:0.15748 85:0.32874 86:0.200787 87:0.240157 88:0.234252 89:0.0716535 90:0.00914459 91:0.122047 92:0.15247 93:0.230314 94:0.0873787 95:0.314174 96:0.0597113 97:0.179133 98:0.00996658 99:0.011811 100:0.166666 
2 1:0.183175 2:0.134329 3:0.14654 4:0.0201832 5:0.107191 6:0.266169 7:0.36354 8:0.0563794 9:0.0801724 11:0.166214 12:0.12777 13:0.165536 15:0.0200335 16:0.213733 18:0.122117 19:0.124055 20:0.131463 21:0.196162 22:0.295945 23:0.0949796 24:0.0891981 25:0.079602 26:0.0691993 27:0.341151 28:0.0590813 29:0.0569876 30:0.0850294 31:0.188178 32:0.0854817 33:0.07327 34:0.0639539 35:0.153325 36:0.0203298 37:0.078867 38:0.278607 39:0.285843 40:0.0370872 41:0.0610585 42:0.106739 43:0.0868384 44:0.347504 45:0.115332 46:0.188602 47:0.127544 48:0.0822252 49:0.184702 50:0.10344 51:0.142174 52:0.07327 53:0.305971 54:0.0655166 55:0.0732701 56:0.394433 57:0.276799 58:0.0678426 60:0.0664858 61:0.130998 62:0.298507 63:0.143283 64:0.138399 65:0.235861 66:0.0742028 67:0.0301314 68:0.118724 69:0.0687472 70:0.121099 71:0.265943 72:0.383694 73:0.386703 74:0.0651291 75:0.241766 76:0.0604768 77:0.207297 78:0.222306 79:0.481231 80:0.111182 81:0.341927 82:0.0695746 83:0.259497 84:0.244234 85:0.113297 86:0.193758 87:0.351764 88:0.138399 89:0.123473 90:0.0252128 91:0.294437 92:0.49044 93:0.0705563 94:0.0451714 95:0.201086 96:0.0617368 97:0.123473 99:0.0407055 100:0.134027 
0.1620681996183048 1:0.118007 2:0.0625 3:0.0681818 5:0.249369 6:0.168876 7:0.184524 8:0.0786964 9:0.0124341 10:0.0140693 11:0.0464016 12:0.0356692 13:0.0924243 14:0.12803 15:0.0838904 16:0.149168 17:0.0181818 18:0.136364 19:0.277056 20:0.160564 21:0.107143 22:0.0635523 23:0.0397728 24:0.320158 25:0.0833334 27:0.32738 28:0.0412339 29:0.0340909 30:0.237373 31:0.225141 32:0.136364 33:0.170454 34:0.0669517 35:0.0951179 37:0.0880682 38:0.250001 39:0.0997475 40:0.155303 41:0.142045 42:0.335228 43:0.0757576 44:0.111936 45:0.064394 46:0.0702018 47:0.213636 48:0.0382575 49:0.0859375 50:0.360963 51:0.248065 52:0.170454 53:0.271781 55:0.125 56:0.0275282 57:0.300506 58:0.132576 59:0.291667 60:0.0309343 61:0.457128 62:0.291667 63:0.0666667 64:0.309091 65:0.098767 66:0.0414299 67:0.105146 68:0.397727 69:0.335859 70:0.0422586 71:0.530303 72:0.164791 73:0.251894 74:0.020202 75:0.0964188 76:0.0324675 77:0.210438 78:0.0387879 79:0.388888 80:0.199533 81:0.159091 82:0.485573 83:0.0724432 84:0.227272 85:0.105429 86:0.231817 87:0.0577651 88:0.064394 89:0.448105 90:0.0175964 91:0.14678 92:0.24449 94:0.0420345 95:0.0647727 96:0.201073 98:0.0191781 99:0.0340909 100:0.18708 
2 1:0.107259 2:0.0929577 3:0.135211 4:0.046557 5:0.210172 6:0.0837246 7:0.274447 8:0.136555 9:0.0801389 10:0.0279008 11:0.138028 12:0.123787 13:0.103099 14:0.10579 15:0.277271 16:0.203372 17:0.0420656 18:0.0845071 19:0.0858485 20:0.0341157 21:0.123944 22:0.12603 23:0.0723003 24:0.0749539 25:0.234115 26:0.263379 27:0.162306 28:0.0340712 29:0.0507041 30:0.102973 31:0.0930165 32:0.0845071 33:0.152112 34:0.0774503 35:0.188628 36:0.04924 37:0.0545775 38:0.247887 39:0.0989045 40:0.0641628 41:0.00938965 42:0.369326 43:0.255399 44:0.184984 45:0.223474 46:0.0783096 47:0.105915 48:0.265539 49:0.0568075 50:0.161061 51:0.221371 52:0.219719 53:0.173239 54:0.136016 55:0.0563379 56:0.150125 57:0.191549 58:0.0657277 59:0.309859 60:0.122692 61:0.226632 62:0.123944 63:0.19831 64:0.11493 65:0.0652883 66:0.0616197 67:0.114683 68:0.213615 69:0.142723 70:0.27236 71:0.184037 72:0.265524 73:0.196243 74:0.0751173 75:0.430218 76:0.083702 77:0.10433 78:0.230761 79:0.210329 80:0.0219828 81:0.473239 82:0.168514 83:0.197534 84:0.169014 85:0.28748 86:0.191549 87:0.171831 88:0.239437 89:0.119624 90:0.0872385 91:0.0727701 92:0.242424 93:0.085446 94:0.0833585 95:0.107042 96:0.170892 97:0.085446 98:0.0309011 99:0.0732395 100:0.132499 
2 1:0.254664 2:0.0299728 3:0.196185 4:0.175635 5:0.358765 6:0.0971843 7:0.0663684 8:0.28305 9:0.107333 10:0.0404827 11:0.267031 12:0.102634 13:0.199455 14:0.122797 15:0.120692 16:0.107303 18:0.147139 19:0.0498249 20:0.0495004 21:0.119891 22:0.0457161 23:0.0762945 24:0.140742 25:0.199819 26:0.208447 27:0.128455 28:0.0395485 30:0.170754 31:0.21594 32:0.0490464 33:0.245232 34:0.0321077 35:0.0684226 36:0.132684 37:0.0633515 38:0.0799273 40:0.111717 41:0.0272479 42:0.0535877 43:0.152589 44:0.429446 45:0.0926431 46:0.0252497 47:0.153679 48:0.330245 49:0.206063 50:0.207726 51:0.285511 52:0.0980925 53:0.167575 54:0.0877124 55:0.0490462 56:0.475254 57:0.185286 58:0.0544959 59:0.239783 60:0.0445051 61:0.131533 62:0.239783 63:0.143869 65:0.142095 66:0.208617 67:0.121019 68:0.23842 70:0.121594 71:0.228883 72:0.355627 73:0.258856 74:0.0871936 75:0.48551 76:0.102764 77:0.0378444 78:0.167412 79:0.101726 80:0.0956885 81:0.305177 82:0.279437 83:0.312671 85:0.227521 86:0.111172 87:0.166213 88:0.0926431 89:0.0991825 90:0.0632897 91:0.168938 92:0.281397 93:0.0354224 94:0.0302374 95:0.093188 96:0.0826521 97:0.0708446 99:0.0653951 100:0.0768998 
2 1:0.21888 2:0.0515222 3:0.168618 4:0.0928962 5:0.339188 6:0.0417642 7:0.22817 8:0.194622 9:0.0922511 10:0.0434928 11:0.114754 12:0.220531 13:0.0857143 14:0.105543 15:0.276623 16:0.230564 18:0.0421545 19:0.171295 20:0.070908 21:0.161927 22:0.117877 23:0.114754 24:0.109968 25:0.103045 26:0.0597189 27:0.0736032 28:0.050987 29:0.18267 31:0.139198 32:0.0843092 33:0.252927 34:0.13798 35:0.323445 36:0.0350891 37:0.0816745 38:0.446527 39:0.123341 41:0.081967 42:0.230289 43:0.0187354 44:0.184551 45:0.159251 46:0.0868069 47:0.0880562 48:0.14192 49:0.212529 50:0.0892685 52:0.168618 53:0.0960187 54:0.0753875 55:0.0983602 56:0.0340395 57:0.106167 58:0.140515 59:0.360655 60:0.114754 61:0.150734 63:0.164871 64:0.0955504 65:0.244257 67:0.15602 68:0.286884 69:0.237315 70:0.209016 71:0.327869 72:0.152828 73:0.0889929 74:0.0374707 75:0.178838 76:0.0642356 77:0.260214 78:0.19185 79:0.262295 80:0.301557 81:0.327869 82:0.0600428 83:0.0447892 84:0.28103 85:0.0651835 86:0.191101 87:0.178571 89:0.127869 90:0.0217586 91:0.145199 92:0.241856 93:0.030445 94:0.259885 95:0.0266979 96:0.0355191 97:0.030445 99:0.0702575 100:0.264377 
2 1:0.192817 2:0.102122 3:0.0477453 4:0.0723365 5:0.296861 6:0.0709549 7:0.258432 8:0.247987 9:0.1219 10:0.00985221 11:0.19496 12:0.0749338 13:0.0809019 14:0.0896552 15:0.391637 16:0.1828 17:0.0169761 18:0.214853 19:0.121258 20:0.0883437 21:0.0583554 22:0.200265 23:0.055703 24:0.0622765 25:0.175066 26:0.574933 27:0.16673 28:0.00962488 29:0.0397877 30:0.0831123 31:0.36787 32:0.0358091 33:0.2626 34:0.046884 35:0.0666077 36:0.00993572 37:0.0925066 38:0.291777 39:0.104774 40:0.108753 41:0.0397878 42:0.0782493 43:0.318302 44:0.15677 45:0.180372 46:0.13519 47:0.074801 48:0.0535809 49:0.140418 50:0.682478 51:0.173711 52:0.190982 53:0.135942 54:0.106732 55:0.0397877 56:0.115662 57:0.480992 58:0.066313 59:0.116711 60:0.0649867 61:0.256088 62:0.145889 64:0.297614 65:0.0691631 66:0.188578 67:0.0736303 68:0.0696286 69:0.184793 70:0.147961 71:0.185676 72:0.201946 73:0.302387 74:0.120247 75:0.202556 76:0.054566 77:0.0552608 78:0.0543236 79:0.173298 80:0.0776253 81:0.297083 82:0.136012 83:0.253647 84:0.0795756 85:0.147657 86:0.18939 87:0.0606764 88:0.0901857 89:0.12069 90:0.0492888 91:0.267242 92:0.102725 93:0.0344827 94:0.0441529 95:0.0453581 96:0.100575 97:0.0517241 98:0.1578 99:0.00795754 100:0.0748601 
2 1:0.18034 2:0.0795948 3:0.104197 4:0.0215267 5:0.247708 6:0.206464 7:0.176246 8:0.180398 9:0.0475052 10:0.0322513 11:0.141823 12:0.136276 13:0.211866 15:0.128203 16:0.113981 17:0.00463098 18:0.156295 19:0.211701 20:0.148978 21:0.154641 22:0.121402 23:0.182345 24:0.0883407 25:0.148576 26:0.0738062 27:0.113707 29:0.0781474 30:0.113362 31:0.114689 32:0.0781477 33:0.156295 34:0.153475 35:0.236211 36:0.027104 37:0.0672938 38:0.360829 39:0.190545 41:0.101303 42:0.284612 44:0.114042 45:0.0492041 46:0.120694 47:0.217655 48:0.175398 49:0.175108 50:0.0827445 51:0.227459 52:0.0781475 53:0.207669 54:0.0232927 55:0.0607811 56:0.147241 57:0.229618 58:0.188133 59:0.191028 60:0.0709116 61:0.232864 62:0.191028 63:0.0764109 64:0.413314 65:0.125781 66:0.094971 67:0.0642747 68:0.303907 69:0.128316 70:0.290612 71:0.202605 72:0.251837 73:0.274964 74:0.0231548 75:0.147349 76:0.143891 77:0.140697 78:0.177829 79:0.432223 80:0.101643 81:0.283645 82:0.222619 83:0.166064 84:0.202604 85:0.0805598 86:0.177135 87:0.220695 88:0.0246021 89:0.237048 90:0.0605052 91:0.224313 92:0.373636 94:0.032119 96:0.153641 97:0.0940665 98:0.00366355 99:0.0520983 100:0.142948 
2 1:0.0338629 2:0.023913 3:0.097826 4:0.0485054 5:0.157427 6:0.193841 7:0.238277 8:0.225825 9:0.0856333 10:0.00807453 11:0.292934 12:0.163768 13:0.185652 14:0.0979711 15:0.208631 16:0.149816 17:0.00695651 18:0.136956 19:0.0993788 20:0.0855672 21:0.0888196 22:0.182368 23:0.0456522 24:0.107183 25:0.255072 26:0.0831522 27:0.136646 28:0.0473293 29:0.0456521 31:0.215354 32:0.0391305 33:0.0782609 34:0.166506 35:0.0955315 36:0.0244289 37:0.113723 38:0.191305 39:0.457971 40:0.0297101 41:0.0108695 42:0.171014 43:0.0521739 44:0.192725 45:0.203261 46:0.0906519 47:0.0408695 48:0.219566 49:0.115082 50:0.227877 51:0.313208 52:0.56739 53:0.0668478 54:0.104969 55:0.0456521 56:0.410769 57:0.271014 58:0.0652174 59:0.334783 60:0.142029 61:0.174902 62:0.191304 63:0.191305 64:0.22174 65:0.170051 66:0.202106 67:0.0724138 68:0.11413 69:0.110145 70:0.436549 71:0.273913 72:0.260083 73:0.18587 74:0.0231884 75:0.442688 76:0.0596272 77:0.150967 78:0.422957 79:0.223188 80:0.10179 81:0.334782 82:0.501618 83:0.228668 84:0.173913 85:0.423551 86:0.199565 87:0.182337 88:0.240217 89:0.0791304 90:0.0858402 91:0.0336956 92:0.224506 93:0.0565218 94:0.144745 95:0.0619565 96:0.115399 97:0.183695 98:0.0165099 99:0.0130434 100:0.0306763 
2 1:0.257344 2:0.0801749 3:0.131195 4:0.0144557 5:0.287901 6:0.12998 7:0.17753 8:0.151428 9:0.00957031 10:0.0351936 11:0.142857 12:0.0549077 13:0.0889213 14:0.0985423 15:0.15066 16:0.0861086 17:0.0326531 18:0.131195 19:0.373179 20:0.105928 21:0.146605 22:0.122287 23:0.0510205 24:0.260109 25:0.192419 26:0.223032 27:0.183257 28:0.0528947 29:0.0349853 30:0.137026 31:0.115525 32:0.0524782 33:0.0524781 34:0.188948 35:0.237933 36:0.0163809 37:0.0847303 38:0.23518 39:0.11516 40:0.0597668 41:0.123906 42:0.372691 43:0.116618 44:0.114873 45:0.0743441 46:0.0675411 47:0.246647 48:0.0294461 49:0.286625 50:0.22226 51:0.229116 52:0.104956 53:0.0896502 54:0.211161 55:0.0174927 56:0.0423757 57:0.36346 58:0.116618 59:0.22449 60:0.095238 61:0.164193 62:0.12828 63:0.179592 64:0.0594752 65:0.101358 66:0.0478316 67:0.161858 68:0.153061 69:0.110787 70:0.130102 71:0.244898 72:0.0951274 73:0.193878 74:0.0699707 75:0.333951 76:0.139941 77:0.121477 78:0.0895628 79:0.353741 80:0.102384 81:0.163265 82:0.261615 83:0.111516 84:0.058309 85:0.162294 86:0.148688 87:0.133382 88:0.123907 89:0.0795918 90:0.0270872 91:0.203352 92:0.225815 94:0.210294 95:0.0166181 96:0.0884353 97:0.113703 98:0.0110708 99:0.139941 100:0.123421 
2 1:0.141609 2:0.0499999 3:0.286364 4:0.0338068 5:0.179546 6:0.121591 7:0.0553572 8:0.236088 9:0.014921 10:0.00422078 11:0.111364 12:0.085606 13:0.0554545 14:0.0512122 15:0.268449 16:0.0447504 17:0.0436365 18:0.122727 19:0.166234 20:0.151389 21:0.242857 22:0.190656 23:0.0795453 24:0.149407 25:0.200001 26:0.231818 27:0.178571 28:0.0824674 29:0.163636 30:0.0356061 31:0.0450285 32:0.0409091 33:0.122727 34:0.0267807 35:0.285354 37:0.317045 38:0.200001 39:0.299241 40:0.124242 41:0.0454546 42:0.0893938 43:0.109091 44:0.0895489 45:0.0386364 46:0.0631816 47:0.256364 48:0.091818 49:0.1375 50:0.0433156 51:0.416749 52:0.122727 54:0.14632 55:0.0545454 56:0.0660676 57:0.154546 58:0.0227273 59:0.15 60:0.0371213 61:0.0731404 63:0.359999 64:0.0927272 65:0.0790135 66:0.0994318 67:0.353292 68:0.159091 69:0.143939 70:0.25355 71:0.445455 72:0.0988747 73:0.475 74:0.0121212 75:0.347108 76:0.132468 77:0.0946969 79:0.424243 80:0.212834 81:0.190909 82:0.46615 84:0.090909 85:0.316287 86:0.231817 87:0.207955 88:0.115909 89:0.0413637 90:0.14781 91:0.0704545 92:0.352067 94:0.151324 95:0.0259091 96:0.103409 97:0.0590908 98:0.0230137 99:0.0272726 100:0.0962122 
2 1:0.269412 2:0.129717 3:0.0424528 4:0.0116942 5:0.558962 6:0.126179 9:0.015484 10:0.0394204 12:0.0888365 13:0.143869 14:0.106289 15:0.208934 16:0.185756 18:0.0849056 19:0.215634 20:0.285639 21:0.311321 22:0.0791405 23:0.214623 24:0.210418 25:0.103774 26:0.120283 27:0.296495 28:0.0513478 29:0.0424527 30:0.110849 31:0.0934551 32:0.0424529 34:0.0833738 35:0.148061 37:0.0548349 38:0.553459 39:0.0621069 41:0.082547 42:0.185534 43:0.0566038 44:0.0464641 46:0.0874211 47:0.310377 48:0.190566 49:0.142689 50:0.13485 52:0.127358 53:0.048349 54:0.0379604 55:0.0707549 56:0.137122 57:0.213837 58:0.0943396 59:0.207547 60:0.077044 61:0.113851 62:0.0518868 63:0.207548 64:0.240567 65:0.122993 67:0.10475 68:0.495283 69:0.0597484 70:0.210495 71:0.264151 73:0.134434 74:0.0251572 75:0.360205 76:0.161725 77:0.0655136 78:0.193208 79:0.308176 80:0.193257 81:0.0660377 82:0.0604676 83:0.0451061 84:0.283018 86:0.0481132 87:0.107901 88:0.0801887 89:0.085849 90:0.0219125 91:0.182784 92:0.304461 94:0.0523448 95:0.0268868 96:0.0357704 97:0.0919811 98:0.0776171 99:0.15566 100:0.0665619 
2 1:0.355208 2:0.0663984 3:0.217303 4:0.019953 5:0.238431 6:0.0717638 7:0.294049 8:0.292618 9:0.0132097 10:0.0037367 11:0.0985915 12:0.189471 13:0.196379 14:0.0453386 15:0.0594152 16:0.118854 17:0.0128772 18:0.108652 19:0.147169 20:0.14621 21:0.101179 23:0.0845069 24:0.170064 25:0.177062 26:0.25654 27:0.126473 28:0.0438058 29:0.0241448 30:0.283703 31:0.0398641 32:0.0362173 33:0.108652 34:0.213384 35:0.126314 36:0.0150735 37:0.0467806 38:0.590207 39:0.105969 40:0.0274983 41:0.060362 42:0.158283 43:0.112676 44:0.118918 45:0.0684104 46:0.149161 47:0.226961 48:0.0812875 49:0.12173 50:0.0766954 51:0.474369 52:0.181087 53:0.123742 54:0.0971544 55:0.0482896 56:0.0584904 57:0.228036 58:0.0201207 59:0.177063 60:0.131455 61:0.226632 62:0.177063 63:0.247887 64:0.205232 65:0.139903 66:0.0660211 67:0.0446818 68:0.352112 69:0.20389 70:0.269366 71:0.281691 72:0.262604 73:0.191148 74:0.0536555 75:0.307298 76:0.131072 77:0.0838364 78:0.0824144 79:0.375587 80:0.141318 81:0.112676 82:0.103172 83:0.42329 84:0.362174 85:0.112005 86:0.123139 87:0.153421 89:0.109859 90:0.00934699 91:0.124749 92:0.467534 93:0.0523138 94:0.156297 95:0.0688129 96:0.274648 97:0.0523138 99:0.0724343 100:0.170355 
